digraph Tree {
node [shape=box, style="filled, rounded", color="black", fontname="helvetica"] ;
edge [fontname="helvetica"] ;
0 [label=<num_preprocess__MinorAxisLength &le; 0.447<br/>gini = 0.853<br/>samples = 25602<br/>value = [3974, 4086, 3929, 3658, 3892, 3871, 2192]<br/>class = BARBUNYA>, fillcolor="#fffffe"] ;
1 [label=<num_preprocess__Compactness &le; 0.416<br/>gini = 0.815<br/>samples = 12437<br/>value = [1908, 509, 720, 3144, 1738, 3087, 1331]<br/>class = CALI>, fillcolor="#feffff"] ;
0 -> 1 [labeldistance=2.5, labelangle=45, headlabel="True"] ;
2 [label=<num_preprocess__ShapeFactor2 &le; 0.509<br/>gini = 0.791<br/>samples = 7086<br/>value = [649, 119, 425, 2327, 1544, 1126, 896]<br/>class = CALI>, fillcolor="#e3fbfb"] ;
1 -> 2 ;
3 [label=<num_preprocess__ShapeFactor1 &le; 0.695<br/>gini = 0.821<br/>samples = 4671<br/>value = [572, 112, 381, 946, 1228, 748, 684]<br/>class = HOROZ>, fillcolor="#f0f2fd"] ;
2 -> 3 ;
4 [label=<num_preprocess__ShapeFactor4 &le; 0.585<br/>gini = 0.815<br/>samples = 3330<br/>value = [505, 108, 330, 293, 988, 592, 514]<br/>class = HOROZ>, fillcolor="#e2e7fb"] ;
3 -> 4 ;
5 [label=<num_preprocess__Solidity &le; 0.313<br/>gini = 0.759<br/>samples = 1998<br/>value = [184, 28, 249, 204, 833, 201, 299]<br/>class = HOROZ>, fillcolor="#c1caf7"] ;
4 -> 5 ;
6 [label=<num_preprocess__EquivDiameter &le; 0.542<br/>gini = 0.819<br/>samples = 625<br/>value = [96, 7, 40, 100, 131, 150, 101]<br/>class = SIRA>, fillcolor="#fcf7fe"] ;
5 -> 6 ;
7 [label=<num_preprocess__Eccentricity &le; 0.396<br/>gini = 0.816<br/>samples = 405<br/>value = [75, 7, 39, 58, 116, 46, 64]<br/>class = HOROZ>, fillcolor="#e6eafc"] ;
6 -> 7 ;
8 [label=<num_preprocess__roundness &le; 0.257<br/>gini = 0.796<br/>samples = 233<br/>value = [67, 4, 34, 6, 57, 28, 37]<br/>class = SEKER>, fillcolor="#fef8f4"] ;
7 -> 8 ;
9 [label=<num_preprocess__ShapeFactor1 &le; 0.341<br/>gini = 0.741<br/>samples = 145<br/>value = [60, 1, 6, 5, 22, 27, 24]<br/>class = SEKER>, fillcolor="#f8dcc8"] ;
8 -> 9 ;
10 [label=<gini = 0.656<br/>samples = 101<br/>value = [54, 1, 6, 0, 16, 10, 14]<br/>class = SEKER>, fillcolor="#f3c7a6"] ;
9 -> 10 ;
11 [label=<gini = 0.749<br/>samples = 44<br/>value = [6, 0, 0, 5, 6, 17, 10]<br/>class = SIRA>, fillcolor="#efd6fa"] ;
9 -> 11 ;
12 [label=<num_preprocess__ConvexArea &le; 0.392<br/>gini = 0.711<br/>samples = 88<br/>value = [7, 3, 28, 1, 35, 1, 13]<br/>class = HOROZ>, fillcolor="#e8ebfc"] ;
8 -> 12 ;
13 [label=<gini = 0.631<br/>samples = 59<br/>value = [4, 0, 11, 1, 32, 0, 11]<br/>class = HOROZ>, fillcolor="#a8b5f4"] ;
12 -> 13 ;
14 [label=<gini = 0.618<br/>samples = 29<br/>value = [3, 3, 17, 0, 3, 1, 2]<br/>class = BOMBAY>, fillcolor="#94f19f"] ;
12 -> 14 ;
15 [label=<num_preprocess__Perimeter &le; 0.452<br/>gini = 0.752<br/>samples = 172<br/>value = [8, 3, 5, 52, 59, 18, 27]<br/>class = HOROZ>, fillcolor="#f3f5fd"] ;
7 -> 15 ;
16 [label=<num_preprocess__ShapeFactor1 &le; 0.345<br/>gini = 0.739<br/>samples = 126<br/>value = [5, 0, 3, 49, 30, 15, 24]<br/>class = CALI>, fillcolor="#d8faf9"] ;
15 -> 16 ;
17 [label=<gini = 0.72<br/>samples = 48<br/>value = [5, 0, 2, 4, 22, 6, 9]<br/>class = HOROZ>, fillcolor="#bdc7f6"] ;
16 -> 17 ;
18 [label=<gini = 0.606<br/>samples = 78<br/>value = [0, 0, 1, 45, 8, 9, 15]<br/>class = CALI>, fillcolor="#a1f3f1"] ;
16 -> 18 ;
19 [label=<num_preprocess__ConvexArea &le; 0.355<br/>gini = 0.579<br/>samples = 46<br/>value = [3, 3, 2, 3, 29, 3, 3]<br/>class = HOROZ>, fillcolor="#8799ef"] ;
15 -> 19 ;
20 [label=<gini = 0.258<br/>samples = 28<br/>value = [1, 0, 0, 2, 24, 0, 1]<br/>class = HOROZ>, fillcolor="#5770e9"] ;
19 -> 20 ;
21 [label=<gini = 0.827<br/>samples = 18<br/>value = [2, 3, 2, 1, 5, 3, 2]<br/>class = HOROZ>, fillcolor="#e5e8fc"] ;
19 -> 21 ;
22 [label=<num_preprocess__MajorAxisLength &le; 0.262<br/>gini = 0.698<br/>samples = 220<br/>value = [21, 0, 1, 42, 15, 104, 37]<br/>class = SIRA>, fillcolor="#e4baf6"] ;
6 -> 22 ;
23 [label=<num_preprocess__roundness &le; 0.523<br/>gini = 0.45<br/>samples = 120<br/>value = [8, 0, 1, 11, 0, 87, 13]<br/>class = SIRA>, fillcolor="#c976ed"] ;
22 -> 23 ;
24 [label=<num_preprocess__Perimeter &le; 0.535<br/>gini = 0.269<br/>samples = 93<br/>value = [7, 0, 0, 5, 0, 79, 2]<br/>class = SIRA>, fillcolor="#be59e9"] ;
23 -> 24 ;
25 [label=<gini = 0.209<br/>samples = 88<br/>value = [3, 0, 0, 5, 0, 78, 2]<br/>class = SIRA>, fillcolor="#ba51e8"] ;
24 -> 25 ;
26 [label=<gini = 0.32<br/>samples = 5<br/>value = [4, 0, 0, 0, 0, 1, 0]<br/>class = SEKER>, fillcolor="#eca06a"] ;
24 -> 26 ;
27 [label=<num_preprocess__AspectRation &le; 0.506<br/>gini = 0.694<br/>samples = 27<br/>value = [1, 0, 1, 6, 0, 8, 11]<br/>class = DERMASON>, fillcolor="#fbe0ec"] ;
23 -> 27 ;
28 [label=<gini = 0.63<br/>samples = 21<br/>value = [1, 0, 1, 6, 0, 2, 11]<br/>class = DERMASON>, fillcolor="#f6bdd7"] ;
27 -> 28 ;
29 [label=<gini = 0.0<br/>samples = 6<br/>value = [0, 0, 0, 0, 0, 6, 0]<br/>class = SIRA>, fillcolor="#b139e5"] ;
27 -> 29 ;
30 [label=<num_preprocess__ConvexArea &le; 0.574<br/>gini = 0.778<br/>samples = 100<br/>value = [13, 0, 0, 31, 15, 17, 24]<br/>class = CALI>, fillcolor="#edfdfc"] ;
22 -> 30 ;
31 [label=<num_preprocess__ShapeFactor2 &le; 0.306<br/>gini = 0.718<br/>samples = 70<br/>value = [2, 0, 0, 28, 13, 8, 19]<br/>class = CALI>, fillcolor="#dcfafa"] ;
30 -> 31 ;
32 [label=<gini = 0.692<br/>samples = 33<br/>value = [0, 0, 0, 6, 7, 5, 15]<br/>class = DERMASON>, fillcolor="#f7c2da"] ;
31 -> 32 ;
33 [label=<gini = 0.599<br/>samples = 37<br/>value = [2, 0, 0, 22, 6, 3, 4]<br/>class = CALI>, fillcolor="#99f2f0"] ;
31 -> 33 ;
34 [label=<num_preprocess__roundness &le; 0.094<br/>gini = 0.733<br/>samples = 30<br/>value = [11, 0, 0, 3, 2, 9, 5]<br/>class = SEKER>, fillcolor="#fdf3ec"] ;
30 -> 34 ;
35 [label=<gini = 0.0<br/>samples = 6<br/>value = [0, 0, 0, 0, 0, 6, 0]<br/>class = SIRA>, fillcolor="#b139e5"] ;
34 -> 35 ;
36 [label=<gini = 0.708<br/>samples = 24<br/>value = [11, 0, 0, 3, 2, 3, 5]<br/>class = SEKER>, fillcolor="#f7d7c0"] ;
34 -> 36 ;
37 [label=<num_preprocess__ConvexArea &le; 0.498<br/>gini = 0.683<br/>samples = 1373<br/>value = [88, 21, 209, 104, 702, 51, 198]<br/>class = HOROZ>, fillcolor="#abb7f4"] ;
5 -> 37 ;
38 [label=<num_preprocess__EquivDiameter &le; 0.555<br/>gini = 0.575<br/>samples = 944<br/>value = [35, 1, 84, 70, 589, 32, 133]<br/>class = HOROZ>, fillcolor="#90a0f0"] ;
37 -> 38 ;
39 [label=<num_preprocess__Area &le; 0.568<br/>gini = 0.403<br/>samples = 575<br/>value = [12, 1, 59, 15, 437, 1, 50]<br/>class = HOROZ>, fillcolor="#6e83ec"] ;
38 -> 39 ;
40 [label=<num_preprocess__MajorAxisLength &le; 0.143<br/>gini = 0.3<br/>samples = 461<br/>value = [4, 0, 26, 12, 383, 1, 35]<br/>class = HOROZ>, fillcolor="#5d75ea"] ;
39 -> 40 ;
41 [label=<gini = 0.481<br/>samples = 144<br/>value = [4, 0, 8, 11, 101, 1, 19]<br/>class = HOROZ>, fillcolor="#7d90ee"] ;
40 -> 41 ;
42 [label=<gini = 0.203<br/>samples = 317<br/>value = [0, 0, 18, 1, 282, 0, 16]<br/>class = HOROZ>, fillcolor="#506ae8"] ;
40 -> 42 ;
43 [label=<num_preprocess__MajorAxisLength &le; 0.399<br/>gini = 0.669<br/>samples = 114<br/>value = [8, 1, 33, 3, 54, 0, 15]<br/>class = HOROZ>, fillcolor="#ccd3f8"] ;
39 -> 43 ;
44 [label=<gini = 0.717<br/>samples = 38<br/>value = [5, 0, 15, 1, 6, 0, 11]<br/>class = BOMBAY>, fillcolor="#e2fbe5"] ;
43 -> 44 ;
45 [label=<gini = 0.54<br/>samples = 76<br/>value = [3, 1, 18, 2, 48, 0, 4]<br/>class = HOROZ>, fillcolor="#99a8f2"] ;
43 -> 45 ;
46 [label=<num_preprocess__MajorAxisLength &le; 0.617<br/>gini = 0.742<br/>samples = 369<br/>value = [23, 0, 25, 55, 152, 31, 83]<br/>class = HOROZ>, fillcolor="#cfd6f9"] ;
38 -> 46 ;
47 [label=<num_preprocess__ShapeFactor2 &le; 0.405<br/>gini = 0.789<br/>samples = 232<br/>value = [19, 0, 13, 45, 55, 30, 70]<br/>class = DERMASON>, fillcolor="#fdeef5"] ;
46 -> 47 ;
48 [label=<gini = 0.766<br/>samples = 187<br/>value = [16, 0, 10, 19, 52, 26, 64]<br/>class = DERMASON>, fillcolor="#fdedf4"] ;
47 -> 48 ;
49 [label=<gini = 0.627<br/>samples = 45<br/>value = [3, 0, 3, 26, 3, 4, 6]<br/>class = CALI>, fillcolor="#99f2f0"] ;
47 -> 49 ;
50 [label=<num_preprocess__Area &le; 0.588<br/>gini = 0.476<br/>samples = 137<br/>value = [4, 0, 12, 10, 97, 1, 13]<br/>class = HOROZ>, fillcolor="#798ded"] ;
46 -> 50 ;
51 [label=<gini = 0.332<br/>samples = 99<br/>value = [0, 0, 2, 8, 80, 0, 9]<br/>class = HOROZ>, fillcolor="#637aea"] ;
50 -> 51 ;
52 [label=<gini = 0.705<br/>samples = 38<br/>value = [4, 0, 10, 2, 17, 1, 4]<br/>class = HOROZ>, fillcolor="#ced5f8"] ;
50 -> 52 ;
53 [label=<num_preprocess__EquivDiameter &le; 0.557<br/>gini = 0.797<br/>samples = 429<br/>value = [53, 20, 125, 34, 113, 19, 65]<br/>class = BOMBAY>, fillcolor="#f7fef8"] ;
37 -> 53 ;
54 [label=<num_preprocess__Area &le; 0.476<br/>gini = 0.718<br/>samples = 266<br/>value = [24, 12, 102, 9, 89, 1, 29]<br/>class = BOMBAY>, fillcolor="#f0fdf2"] ;
53 -> 54 ;
55 [label=<num_preprocess__MajorAxisLength &le; 0.377<br/>gini = 0.682<br/>samples = 173<br/>value = [12, 2, 49, 7, 80, 0, 23]<br/>class = HOROZ>, fillcolor="#ced5f8"] ;
54 -> 55 ;
56 [label=<gini = 0.704<br/>samples = 72<br/>value = [5, 1, 33, 5, 15, 0, 13]<br/>class = BOMBAY>, fillcolor="#c0f7c7"] ;
55 -> 56 ;
57 [label=<gini = 0.546<br/>samples = 101<br/>value = [7, 1, 16, 2, 65, 0, 10]<br/>class = HOROZ>, fillcolor="#8d9ef0"] ;
55 -> 57 ;
58 [label=<num_preprocess__ShapeFactor3 &le; 0.319<br/>gini = 0.633<br/>samples = 93<br/>value = [12, 10, 53, 2, 9, 1, 6]<br/>class = BOMBAY>, fillcolor="#9bf2a5"] ;
54 -> 58 ;
59 [label=<gini = 0.296<br/>samples = 36<br/>value = [1, 1, 30, 0, 3, 0, 1]<br/>class = BOMBAY>, fillcolor="#5dea6d"] ;
58 -> 59 ;
60 [label=<gini = 0.755<br/>samples = 57<br/>value = [11, 9, 23, 2, 6, 1, 5]<br/>class = BOMBAY>, fillcolor="#cbf8d1"] ;
58 -> 60 ;
61 [label=<num_preprocess__roundness &le; 0.195<br/>gini = 0.84<br/>samples = 163<br/>value = [29, 8, 23, 25, 24, 18, 36]<br/>class = DERMASON>, fillcolor="#fef5f9"] ;
53 -> 61 ;
62 [label=<num_preprocess__EquivDiameter &le; 0.864<br/>gini = 0.738<br/>samples = 38<br/>value = [13, 1, 1, 3, 5, 13, 2]<br/>class = SEKER>, fillcolor="#ffffff"] ;
61 -> 62 ;
63 [label=<gini = 0.691<br/>samples = 24<br/>value = [12, 1, 0, 2, 4, 3, 2]<br/>class = SEKER>, fillcolor="#f5cdb0"] ;
62 -> 63 ;
64 [label=<gini = 0.469<br/>samples = 14<br/>value = [1, 0, 1, 1, 1, 10, 0]<br/>class = SIRA>, fillcolor="#c976ed"] ;
62 -> 64 ;
65 [label=<num_preprocess__MinorAxisLength &le; 0.181<br/>gini = 0.82<br/>samples = 125<br/>value = [16, 7, 22, 22, 19, 5, 34]<br/>class = DERMASON>, fillcolor="#fce8f1"] ;
61 -> 65 ;
66 [label=<gini = 0.751<br/>samples = 67<br/>value = [7, 2, 4, 17, 9, 2, 26]<br/>class = DERMASON>, fillcolor="#fadbe9"] ;
65 -> 66 ;
67 [label=<gini = 0.813<br/>samples = 58<br/>value = [9, 5, 18, 5, 10, 3, 8]<br/>class = BOMBAY>, fillcolor="#defbe1"] ;
65 -> 67 ;
68 [label=<num_preprocess__EquivDiameter &le; 0.624<br/>gini = 0.804<br/>samples = 1332<br/>value = [321, 80, 81, 89, 155, 391, 215]<br/>class = SIRA>, fillcolor="#faf1fd"] ;
4 -> 68 ;
69 [label=<num_preprocess__ConvexArea &le; 0.551<br/>gini = 0.827<br/>samples = 863<br/>value = [227, 68, 69, 63, 132, 150, 154]<br/>class = SEKER>, fillcolor="#fcf2eb"] ;
68 -> 69 ;
70 [label=<num_preprocess__Solidity &le; 0.631<br/>gini = 0.807<br/>samples = 562<br/>value = [116, 3, 30, 54, 124, 98, 137]<br/>class = DERMASON>, fillcolor="#fef9fb"] ;
69 -> 70 ;
71 [label=<num_preprocess__ShapeFactor3 &le; 0.681<br/>gini = 0.782<br/>samples = 314<br/>value = [73, 0, 12, 34, 27, 80, 88]<br/>class = DERMASON>, fillcolor="#fef8fb"] ;
70 -> 71 ;
72 [label=<num_preprocess__Eccentricity &le; 0.211<br/>gini = 0.78<br/>samples = 230<br/>value = [58, 0, 12, 23, 26, 36, 75]<br/>class = DERMASON>, fillcolor="#fcebf3"] ;
71 -> 72 ;
73 [label=<gini = 0.709<br/>samples = 78<br/>value = [35, 0, 5, 1, 6, 16, 15]<br/>class = SEKER>, fillcolor="#f7d8c2"] ;
72 -> 73 ;
74 [label=<gini = 0.764<br/>samples = 152<br/>value = [23, 0, 7, 22, 20, 20, 60]<br/>class = DERMASON>, fillcolor="#f8c6dc"] ;
72 -> 74 ;
75 [label=<num_preprocess__Solidity &le; 0.291<br/>gini = 0.652<br/>samples = 84<br/>value = [15, 0, 0, 11, 1, 44, 13]<br/>class = SIRA>, fillcolor="#deacf4"] ;
71 -> 75 ;
76 [label=<gini = 0.362<br/>samples = 43<br/>value = [3, 0, 0, 3, 1, 34, 2]<br/>class = SIRA>, fillcolor="#c366eb"] ;
75 -> 76 ;
77 [label=<gini = 0.745<br/>samples = 41<br/>value = [12, 0, 0, 8, 0, 10, 11]<br/>class = SEKER>, fillcolor="#fefbf8"] ;
75 -> 77 ;
78 [label=<num_preprocess__MajorAxisLength &le; 0.463<br/>gini = 0.761<br/>samples = 248<br/>value = [43, 3, 18, 20, 97, 18, 49]<br/>class = HOROZ>, fillcolor="#cfd6f9"] ;
70 -> 78 ;
79 [label=<num_preprocess__Area &le; 0.492<br/>gini = 0.796<br/>samples = 113<br/>value = [26, 0, 7, 15, 19, 12, 34]<br/>class = DERMASON>, fillcolor="#fdedf4"] ;
78 -> 79 ;
80 [label=<gini = 0.777<br/>samples = 86<br/>value = [10, 0, 5, 14, 19, 8, 30]<br/>class = DERMASON>, fillcolor="#fbdeeb"] ;
79 -> 80 ;
81 [label=<gini = 0.598<br/>samples = 27<br/>value = [16, 0, 2, 1, 0, 4, 4]<br/>class = SEKER>, fillcolor="#f1bd98"] ;
79 -> 81 ;
82 [label=<num_preprocess__Area &le; 0.642<br/>gini = 0.627<br/>samples = 135<br/>value = [17, 3, 11, 5, 78, 6, 15]<br/>class = HOROZ>, fillcolor="#99a8f2"] ;
78 -> 82 ;
83 [label=<gini = 0.516<br/>samples = 115<br/>value = [11, 1, 4, 5, 78, 4, 12]<br/>class = HOROZ>, fillcolor="#8093ee"] ;
82 -> 83 ;
84 [label=<gini = 0.745<br/>samples = 20<br/>value = [6, 2, 7, 0, 0, 2, 3]<br/>class = BOMBAY>, fillcolor="#f1fdf2"] ;
82 -> 84 ;
85 [label=<num_preprocess__Perimeter &le; 0.471<br/>gini = 0.766<br/>samples = 301<br/>value = [111, 65, 39, 9, 8, 52, 17]<br/>class = SEKER>, fillcolor="#fae6d8"] ;
69 -> 85 ;
86 [label=<num_preprocess__Solidity &le; 0.547<br/>gini = 0.773<br/>samples = 155<br/>value = [49, 4, 27, 9, 6, 44, 16]<br/>class = SEKER>, fillcolor="#fef9f6"] ;
85 -> 86 ;
87 [label=<num_preprocess__MinorAxisLength &le; 0.204<br/>gini = 0.631<br/>samples = 75<br/>value = [24, 0, 2, 6, 1, 38, 4]<br/>class = SIRA>, fillcolor="#eac9f8"] ;
86 -> 87 ;
88 [label=<gini = 0.542<br/>samples = 48<br/>value = [8, 0, 1, 5, 1, 31, 2]<br/>class = SIRA>, fillcolor="#d28df0"] ;
87 -> 88 ;
89 [label=<gini = 0.573<br/>samples = 27<br/>value = [16, 0, 1, 1, 0, 7, 2]<br/>class = SEKER>, fillcolor="#f3c6a6"] ;
87 -> 89 ;
90 [label=<num_preprocess__roundness &le; 0.752<br/>gini = 0.769<br/>samples = 80<br/>value = [25, 4, 25, 3, 5, 6, 12]<br/>class = SEKER>, fillcolor="#ffffff"] ;
86 -> 90 ;
91 [label=<gini = 0.735<br/>samples = 54<br/>value = [24, 4, 11, 3, 3, 4, 5]<br/>class = SEKER>, fillcolor="#f7d9c3"] ;
90 -> 91 ;
92 [label=<gini = 0.624<br/>samples = 26<br/>value = [1, 0, 14, 0, 2, 2, 7]<br/>class = BOMBAY>, fillcolor="#b6f5bd"] ;
90 -> 92 ;
93 [label=<num_preprocess__roundness &le; 0.282<br/>gini = 0.635<br/>samples = 146<br/>value = [62, 61, 12, 0, 2, 8, 1]<br/>class = SEKER>, fillcolor="#fffefd"] ;
85 -> 93 ;
94 [label=<num_preprocess__Solidity &le; 0.17<br/>gini = 0.327<br/>samples = 42<br/>value = [34, 4, 0, 0, 0, 4, 0]<br/>class = SEKER>, fillcolor="#ea9c63"] ;
93 -> 94 ;
95 [label=<gini = 0.32<br/>samples = 5<br/>value = [1, 0, 0, 0, 0, 4, 0]<br/>class = SIRA>, fillcolor="#c46aec"] ;
94 -> 95 ;
96 [label=<gini = 0.193<br/>samples = 37<br/>value = [33, 4, 0, 0, 0, 0, 0]<br/>class = SEKER>, fillcolor="#e89051"] ;
94 -> 96 ;
97 [label=<num_preprocess__Area &le; 0.379<br/>gini = 0.612<br/>samples = 104<br/>value = [28, 57, 12, 0, 2, 4, 1]<br/>class = BARBUNYA>, fillcolor="#e4f5b3"] ;
93 -> 97 ;
98 [label=<gini = 0.705<br/>samples = 42<br/>value = [19, 9, 8, 0, 2, 3, 1]<br/>class = SEKER>, fillcolor="#f7d9c3"] ;
97 -> 98 ;
99 [label=<gini = 0.375<br/>samples = 62<br/>value = [9, 48, 4, 0, 0, 1, 0]<br/>class = BARBUNYA>, fillcolor="#caec6d"] ;
97 -> 99 ;
100 [label=<num_preprocess__MajorAxisLength &le; 0.434<br/>gini = 0.672<br/>samples = 469<br/>value = [94, 12, 12, 26, 23, 241, 61]<br/>class = SIRA>, fillcolor="#e0b1f5"] ;
68 -> 100 ;
101 [label=<num_preprocess__ShapeFactor3 &le; 0.485<br/>gini = 0.434<br/>samples = 237<br/>value = [31, 4, 1, 4, 0, 174, 23]<br/>class = SIRA>, fillcolor="#c976ed"] ;
100 -> 101 ;
102 [label=<num_preprocess__Solidity &le; 0.47<br/>gini = 0.627<br/>samples = 111<br/>value = [23, 4, 1, 2, 0, 60, 21]<br/>class = SIRA>, fillcolor="#deacf4"] ;
101 -> 102 ;
103 [label=<num_preprocess__Area &le; 0.363<br/>gini = 0.336<br/>samples = 61<br/>value = [8, 1, 0, 1, 0, 49, 2]<br/>class = SIRA>, fillcolor="#c366eb"] ;
102 -> 103 ;
104 [label=<gini = 0.151<br/>samples = 50<br/>value = [2, 0, 0, 1, 0, 46, 1]<br/>class = SIRA>, fillcolor="#b749e7"] ;
103 -> 104 ;
105 [label=<gini = 0.612<br/>samples = 11<br/>value = [6, 1, 0, 0, 0, 3, 1]<br/>class = SEKER>, fillcolor="#f5d0b5"] ;
103 -> 105 ;
106 [label=<num_preprocess__ConvexArea &le; 0.628<br/>gini = 0.713<br/>samples = 50<br/>value = [15, 3, 1, 1, 0, 11, 19]<br/>class = DERMASON>, fillcolor="#fce8f1"] ;
102 -> 106 ;
107 [label=<gini = 0.628<br/>samples = 37<br/>value = [5, 0, 1, 1, 0, 11, 19]<br/>class = DERMASON>, fillcolor="#f7c2da"] ;
106 -> 107 ;
108 [label=<gini = 0.355<br/>samples = 13<br/>value = [10, 3, 0, 0, 0, 0, 0]<br/>class = SEKER>, fillcolor="#eda774"] ;
106 -> 108 ;
109 [label=<num_preprocess__MajorAxisLength &le; 0.34<br/>gini = 0.177<br/>samples = 126<br/>value = [8, 0, 0, 2, 0, 114, 2]<br/>class = SIRA>, fillcolor="#b94de8"] ;
101 -> 109 ;
110 [label=<num_preprocess__ShapeFactor4 &le; 0.998<br/>gini = 0.056<br/>samples = 104<br/>value = [3, 0, 0, 0, 0, 101, 0]<br/>class = SIRA>, fillcolor="#b33fe6"] ;
109 -> 110 ;
111 [label=<gini = 0.038<br/>samples = 103<br/>value = [2, 0, 0, 0, 0, 101, 0]<br/>class = SIRA>, fillcolor="#b33de6"] ;
110 -> 111 ;
112 [label=<gini = 0.0<br/>samples = 1<br/>value = [1, 0, 0, 0, 0, 0, 0]<br/>class = SEKER>, fillcolor="#e58139"] ;
110 -> 112 ;
113 [label=<num_preprocess__ConvexArea &le; 0.598<br/>gini = 0.583<br/>samples = 22<br/>value = [5, 0, 0, 2, 0, 13, 2]<br/>class = SIRA>, fillcolor="#daa2f3"] ;
109 -> 113 ;
114 [label=<gini = 0.338<br/>samples = 15<br/>value = [0, 0, 0, 2, 0, 12, 1]<br/>class = SIRA>, fillcolor="#c367eb"] ;
113 -> 114 ;
115 [label=<gini = 0.449<br/>samples = 7<br/>value = [5, 0, 0, 0, 0, 1, 1]<br/>class = SEKER>, fillcolor="#eeab7b"] ;
113 -> 115 ;
116 [label=<num_preprocess__ShapeFactor3 &le; 0.508<br/>gini = 0.794<br/>samples = 232<br/>value = [63, 8, 11, 22, 23, 67, 38]<br/>class = SIRA>, fillcolor="#fdfafe"] ;
100 -> 116 ;
117 [label=<num_preprocess__Perimeter &le; 0.569<br/>gini = 0.806<br/>samples = 122<br/>value = [38, 5, 9, 14, 20, 11, 25]<br/>class = SEKER>, fillcolor="#fceee4"] ;
116 -> 117 ;
118 [label=<num_preprocess__Solidity &le; 0.653<br/>gini = 0.82<br/>samples = 83<br/>value = [14, 1, 8, 13, 17, 9, 21]<br/>class = DERMASON>, fillcolor="#fdf3f8"] ;
117 -> 118 ;
119 [label=<gini = 0.765<br/>samples = 41<br/>value = [8, 0, 1, 11, 1, 8, 12]<br/>class = DERMASON>, fillcolor="#fef8fb"] ;
118 -> 119 ;
120 [label=<gini = 0.757<br/>samples = 42<br/>value = [6, 1, 7, 2, 16, 1, 9]<br/>class = HOROZ>, fillcolor="#d5dbf9"] ;
118 -> 120 ;
121 [label=<num_preprocess__Area &le; 0.137<br/>gini = 0.59<br/>samples = 39<br/>value = [24, 4, 1, 1, 3, 2, 4]<br/>class = SEKER>, fillcolor="#f0b78e"] ;
117 -> 121 ;
122 [label=<gini = 0.694<br/>samples = 7<br/>value = [1, 0, 0, 0, 2, 1, 3]<br/>class = DERMASON>, fillcolor="#fad7e7"] ;
121 -> 122 ;
123 [label=<gini = 0.463<br/>samples = 32<br/>value = [23, 4, 1, 1, 1, 1, 1]<br/>class = SEKER>, fillcolor="#edaa79"] ;
121 -> 123 ;
124 [label=<num_preprocess__ConvexArea &le; 0.772<br/>gini = 0.668<br/>samples = 110<br/>value = [25, 3, 2, 8, 3, 56, 13]<br/>class = SIRA>, fillcolor="#e3b7f6"] ;
116 -> 124 ;
125 [label=<num_preprocess__ShapeFactor4 &le; 0.646<br/>gini = 0.616<br/>samples = 95<br/>value = [14, 0, 2, 8, 3, 55, 13]<br/>class = SIRA>, fillcolor="#d89bf2"] ;
124 -> 125 ;
126 [label=<gini = 0.758<br/>samples = 16<br/>value = [4, 0, 1, 2, 1, 2, 6]<br/>class = DERMASON>, fillcolor="#fbdeeb"] ;
125 -> 126 ;
127 [label=<gini = 0.519<br/>samples = 79<br/>value = [10, 0, 1, 6, 2, 53, 7]<br/>class = SIRA>, fillcolor="#ce84ef"] ;
125 -> 127 ;
128 [label=<num_preprocess__Compactness &le; 0.317<br/>gini = 0.418<br/>samples = 15<br/>value = [11, 3, 0, 0, 0, 1, 0]<br/>class = SEKER>, fillcolor="#eeab7b"] ;
124 -> 128 ;
129 [label=<gini = 0.153<br/>samples = 12<br/>value = [11, 0, 0, 0, 0, 1, 0]<br/>class = SEKER>, fillcolor="#e78c4b"] ;
128 -> 129 ;
130 [label=<gini = 0.0<br/>samples = 3<br/>value = [0, 3, 0, 0, 0, 0, 0]<br/>class = BARBUNYA>, fillcolor="#b7e539"] ;
128 -> 130 ;
131 [label=<num_preprocess__Solidity &le; 0.636<br/>gini = 0.697<br/>samples = 1341<br/>value = [67, 4, 51, 653, 240, 156, 170]<br/>class = CALI>, fillcolor="#b5f5f4"] ;
3 -> 131 ;
132 [label=<num_preprocess__Area &le; 0.533<br/>gini = 0.59<br/>samples = 823<br/>value = [41, 2, 11, 500, 77, 123, 69]<br/>class = CALI>, fillcolor="#94f1ef"] ;
131 -> 132 ;
133 [label=<num_preprocess__Eccentricity &le; 0.387<br/>gini = 0.493<br/>samples = 644<br/>value = [13, 1, 4, 445, 56, 85, 40]<br/>class = CALI>, fillcolor="#7feeec"] ;
132 -> 133 ;
134 [label=<num_preprocess__ShapeFactor1 &le; 0.907<br/>gini = 0.693<br/>samples = 232<br/>value = [10, 1, 3, 111, 36, 47, 24]<br/>class = CALI>, fillcolor="#bbf6f5"] ;
133 -> 134 ;
135 [label=<num_preprocess__EquivDiameter &le; 0.44<br/>gini = 0.764<br/>samples = 152<br/>value = [9, 1, 3, 50, 30, 40, 19]<br/>class = CALI>, fillcolor="#edfdfc"] ;
134 -> 135 ;
136 [label=<num_preprocess__Perimeter &le; 0.205<br/>gini = 0.761<br/>samples = 81<br/>value = [5, 1, 3, 23, 28, 10, 11]<br/>class = HOROZ>, fillcolor="#eef0fd"] ;
135 -> 136 ;
137 [label=<gini = 0.676<br/>samples = 46<br/>value = [1, 0, 0, 22, 11, 8, 4]<br/>class = CALI>, fillcolor="#c1f7f6"] ;
136 -> 137 ;
138 [label=<gini = 0.699<br/>samples = 35<br/>value = [4, 1, 3, 1, 17, 2, 7]<br/>class = HOROZ>, fillcolor="#b8c3f6"] ;
136 -> 138 ;
139 [label=<num_preprocess__ConvexArea &le; 0.187<br/>gini = 0.66<br/>samples = 71<br/>value = [4, 0, 0, 27, 2, 30, 8]<br/>class = SIRA>, fillcolor="#faf2fd"] ;
135 -> 139 ;
140 [label=<gini = 0.54<br/>samples = 33<br/>value = [1, 0, 0, 21, 1, 7, 3]<br/>class = CALI>, fillcolor="#94f1ef"] ;
139 -> 140 ;
141 [label=<gini = 0.584<br/>samples = 38<br/>value = [3, 0, 0, 6, 1, 23, 5]<br/>class = SIRA>, fillcolor="#d696f1"] ;
139 -> 141 ;
142 [label=<num_preprocess__MinorAxisLength &le; 0.24<br/>gini = 0.401<br/>samples = 80<br/>value = [1, 0, 0, 61, 6, 7, 5]<br/>class = CALI>, fillcolor="#6decea"] ;
134 -> 142 ;
143 [label=<num_preprocess__EquivDiameter &le; 0.97<br/>gini = 0.299<br/>samples = 71<br/>value = [0, 0, 0, 59, 3, 6, 3]<br/>class = CALI>, fillcolor="#5eeae7"] ;
142 -> 143 ;
144 [label=<gini = 0.265<br/>samples = 68<br/>value = [0, 0, 0, 58, 3, 4, 3]<br/>class = CALI>, fillcolor="#58e9e7"] ;
143 -> 144 ;
145 [label=<gini = 0.444<br/>samples = 3<br/>value = [0, 0, 0, 1, 0, 2, 0]<br/>class = SIRA>, fillcolor="#d89cf2"] ;
143 -> 145 ;
146 [label=<num_preprocess__ShapeFactor2 &le; 0.254<br/>gini = 0.765<br/>samples = 9<br/>value = [1, 0, 0, 2, 3, 1, 2]<br/>class = HOROZ>, fillcolor="#e3e7fb"] ;
142 -> 146 ;
147 [label=<gini = 0.5<br/>samples = 4<br/>value = [0, 0, 0, 2, 0, 0, 2]<br/>class = CALI>, fillcolor="#ffffff"] ;
146 -> 147 ;
148 [label=<gini = 0.56<br/>samples = 5<br/>value = [1, 0, 0, 0, 3, 1, 0]<br/>class = HOROZ>, fillcolor="#9caaf2"] ;
146 -> 148 ;
149 [label=<num_preprocess__Perimeter &le; 0.325<br/>gini = 0.33<br/>samples = 412<br/>value = [3, 0, 1, 334, 20, 38, 16]<br/>class = CALI>, fillcolor="#62eae8"] ;
133 -> 149 ;
150 [label=<num_preprocess__ShapeFactor1 &le; 0.797<br/>gini = 0.189<br/>samples = 266<br/>value = [0, 0, 0, 239, 9, 10, 8]<br/>class = CALI>, fillcolor="#4ee8e5"] ;
149 -> 150 ;
151 [label=<num_preprocess__AspectRation &le; 0.942<br/>gini = 0.333<br/>samples = 89<br/>value = [0, 0, 0, 72, 4, 6, 7]<br/>class = CALI>, fillcolor="#62eae8"] ;
150 -> 151 ;
152 [label=<gini = 0.304<br/>samples = 87<br/>value = [0, 0, 0, 72, 4, 4, 7]<br/>class = CALI>, fillcolor="#5eeae7"] ;
151 -> 152 ;
153 [label=<gini = 0.0<br/>samples = 2<br/>value = [0, 0, 0, 0, 0, 2, 0]<br/>class = SIRA>, fillcolor="#b139e5"] ;
151 -> 153 ;
154 [label=<num_preprocess__Solidity &le; 0.622<br/>gini = 0.108<br/>samples = 177<br/>value = [0, 0, 0, 167, 5, 4, 1]<br/>class = CALI>, fillcolor="#45e7e4"] ;
150 -> 154 ;
155 [label=<gini = 0.099<br/>samples = 176<br/>value = [0, 0, 0, 167, 4, 4, 1]<br/>class = CALI>, fillcolor="#43e6e4"] ;
154 -> 155 ;
156 [label=<gini = 0.0<br/>samples = 1<br/>value = [0, 0, 0, 0, 1, 0, 0]<br/>class = HOROZ>, fillcolor="#3956e5"] ;
154 -> 156 ;
157 [label=<num_preprocess__ConvexArea &le; 0.402<br/>gini = 0.531<br/>samples = 146<br/>value = [3, 0, 1, 95, 11, 28, 8]<br/>class = CALI>, fillcolor="#8ff0ef"] ;
149 -> 157 ;
158 [label=<num_preprocess__Perimeter &le; 0.916<br/>gini = 0.306<br/>samples = 75<br/>value = [0, 0, 0, 62, 6, 3, 4]<br/>class = CALI>, fillcolor="#5eeae7"] ;
157 -> 158 ;
159 [label=<gini = 0.269<br/>samples = 73<br/>value = [0, 0, 0, 62, 6, 2, 3]<br/>class = CALI>, fillcolor="#5ae9e7"] ;
158 -> 159 ;
160 [label=<gini = 0.5<br/>samples = 2<br/>value = [0, 0, 0, 0, 0, 1, 1]<br/>class = SIRA>, fillcolor="#ffffff"] ;
158 -> 160 ;
161 [label=<num_preprocess__ShapeFactor4 &le; 0.85<br/>gini = 0.65<br/>samples = 71<br/>value = [3, 0, 1, 33, 5, 25, 4]<br/>class = CALI>, fillcolor="#ddfafa"] ;
157 -> 161 ;
162 [label=<gini = 0.625<br/>samples = 57<br/>value = [3, 0, 1, 32, 5, 12, 4]<br/>class = CALI>, fillcolor="#a7f3f2"] ;
161 -> 162 ;
163 [label=<gini = 0.133<br/>samples = 14<br/>value = [0, 0, 0, 1, 0, 13, 0]<br/>class = SIRA>, fillcolor="#b748e7"] ;
161 -> 163 ;
164 [label=<num_preprocess__ConvexArea &le; 0.415<br/>gini = 0.794<br/>samples = 179<br/>value = [28, 1, 7, 55, 21, 38, 29]<br/>class = CALI>, fillcolor="#e7fcfc"] ;
132 -> 164 ;
165 [label=<num_preprocess__ShapeFactor2 &le; 0.34<br/>gini = 0.713<br/>samples = 97<br/>value = [7, 0, 2, 45, 16, 12, 15]<br/>class = CALI>, fillcolor="#b8f6f5"] ;
164 -> 165 ;
166 [label=<num_preprocess__MajorAxisLength &le; 0.854<br/>gini = 0.774<br/>samples = 44<br/>value = [4, 0, 0, 11, 12, 6, 11]<br/>class = HOROZ>, fillcolor="#f9fafe"] ;
165 -> 166 ;
167 [label=<num_preprocess__ShapeFactor4 &le; 0.305<br/>gini = 0.772<br/>samples = 35<br/>value = [4, 0, 0, 9, 5, 6, 11]<br/>class = DERMASON>, fillcolor="#fdf0f6"] ;
166 -> 167 ;
168 [label=<gini = 0.58<br/>samples = 10<br/>value = [0, 0, 0, 4, 5, 0, 1]<br/>class = HOROZ>, fillcolor="#dee3fb"] ;
167 -> 168 ;
169 [label=<gini = 0.717<br/>samples = 25<br/>value = [4, 0, 0, 5, 0, 6, 10]<br/>class = DERMASON>, fillcolor="#fad5e6"] ;
167 -> 169 ;
170 [label=<num_preprocess__EquivDiameter &le; 0.382<br/>gini = 0.346<br/>samples = 9<br/>value = [0, 0, 0, 2, 7, 0, 0]<br/>class = HOROZ>, fillcolor="#7286ec"] ;
166 -> 170 ;
171 [label=<gini = 0.0<br/>samples = 6<br/>value = [0, 0, 0, 0, 6, 0, 0]<br/>class = HOROZ>, fillcolor="#3956e5"] ;
170 -> 171 ;
172 [label=<gini = 0.444<br/>samples = 3<br/>value = [0, 0, 0, 2, 1, 0, 0]<br/>class = CALI>, fillcolor="#9cf2f0"] ;
170 -> 172 ;
173 [label=<num_preprocess__Perimeter &le; 0.482<br/>gini = 0.56<br/>samples = 53<br/>value = [3, 0, 2, 34, 4, 6, 4]<br/>class = CALI>, fillcolor="#89f0ee"] ;
165 -> 173 ;
174 [label=<num_preprocess__Eccentricity &le; 0.307<br/>gini = 0.348<br/>samples = 39<br/>value = [0, 0, 0, 31, 1, 5, 2]<br/>class = CALI>, fillcolor="#68ebe9"] ;
173 -> 174 ;
175 [label=<gini = 0.625<br/>samples = 4<br/>value = [0, 0, 0, 1, 0, 2, 1]<br/>class = SIRA>, fillcolor="#e5bdf6"] ;
174 -> 175 ;
176 [label=<gini = 0.256<br/>samples = 35<br/>value = [0, 0, 0, 30, 1, 3, 1]<br/>class = CALI>, fillcolor="#58e9e7"] ;
174 -> 176 ;
177 [label=<num_preprocess__ShapeFactor4 &le; 0.416<br/>gini = 0.816<br/>samples = 14<br/>value = [3, 0, 2, 3, 3, 1, 2]<br/>class = SEKER>, fillcolor="#ffffff"] ;
173 -> 177 ;
178 [label=<gini = 0.375<br/>samples = 4<br/>value = [0, 0, 0, 0, 3, 0, 1]<br/>class = HOROZ>, fillcolor="#7b8eee"] ;
177 -> 178 ;
179 [label=<gini = 0.76<br/>samples = 10<br/>value = [3, 0, 2, 3, 0, 1, 1]<br/>class = SEKER>, fillcolor="#ffffff"] ;
177 -> 179 ;
180 [label=<num_preprocess__Perimeter &le; 0.401<br/>gini = 0.782<br/>samples = 82<br/>value = [21, 1, 5, 10, 5, 26, 14]<br/>class = SIRA>, fillcolor="#f9effd"] ;
164 -> 180 ;
181 [label=<num_preprocess__EquivDiameter &le; 0.769<br/>gini = 0.721<br/>samples = 50<br/>value = [5, 0, 0, 10, 2, 20, 13]<br/>class = SIRA>, fillcolor="#f0dafa"] ;
180 -> 181 ;
182 [label=<num_preprocess__ShapeFactor4 &le; 0.741<br/>gini = 0.759<br/>samples = 36<br/>value = [5, 0, 0, 9, 2, 9, 11]<br/>class = DERMASON>, fillcolor="#fdf0f6"] ;
181 -> 182 ;
183 [label=<gini = 0.71<br/>samples = 25<br/>value = [2, 0, 0, 8, 2, 3, 10]<br/>class = DERMASON>, fillcolor="#fce8f1"] ;
182 -> 183 ;
184 [label=<gini = 0.612<br/>samples = 11<br/>value = [3, 0, 0, 1, 0, 6, 1]<br/>class = SIRA>, fillcolor="#e2b5f5"] ;
182 -> 184 ;
185 [label=<num_preprocess__MajorAxisLength &le; 0.503<br/>gini = 0.357<br/>samples = 14<br/>value = [0, 0, 0, 1, 0, 11, 2]<br/>class = SIRA>, fillcolor="#c46bec"] ;
181 -> 185 ;
186 [label=<gini = 0.0<br/>samples = 9<br/>value = [0, 0, 0, 0, 0, 9, 0]<br/>class = SIRA>, fillcolor="#b139e5"] ;
185 -> 186 ;
187 [label=<gini = 0.64<br/>samples = 5<br/>value = [0, 0, 0, 1, 0, 2, 2]<br/>class = SIRA>, fillcolor="#ffffff"] ;
185 -> 187 ;
188 [label=<num_preprocess__roundness &le; 0.691<br/>gini = 0.68<br/>samples = 32<br/>value = [16, 1, 5, 0, 3, 6, 1]<br/>class = SEKER>, fillcolor="#f5cfb3"] ;
180 -> 188 ;
189 [label=<num_preprocess__Eccentricity &le; 0.844<br/>gini = 0.36<br/>samples = 19<br/>value = [15, 0, 1, 0, 0, 2, 1]<br/>class = SEKER>, fillcolor="#eb9f68"] ;
188 -> 189 ;
190 [label=<gini = 0.124<br/>samples = 15<br/>value = [14, 0, 1, 0, 0, 0, 0]<br/>class = SEKER>, fillcolor="#e78a47"] ;
189 -> 190 ;
191 [label=<gini = 0.625<br/>samples = 4<br/>value = [1, 0, 0, 0, 0, 2, 1]<br/>class = SIRA>, fillcolor="#e5bdf6"] ;
189 -> 191 ;
192 [label=<num_preprocess__MinorAxisLength &le; 0.359<br/>gini = 0.746<br/>samples = 13<br/>value = [1, 1, 4, 0, 3, 4, 0]<br/>class = BOMBAY>, fillcolor="#ffffff"] ;
188 -> 192 ;
193 [label=<gini = 0.667<br/>samples = 9<br/>value = [1, 1, 0, 0, 3, 4, 0]<br/>class = SIRA>, fillcolor="#f2defb"] ;
192 -> 193 ;
194 [label=<gini = 0.0<br/>samples = 4<br/>value = [0, 0, 4, 0, 0, 0, 0]<br/>class = BOMBAY>, fillcolor="#39e54d"] ;
192 -> 194 ;
195 [label=<num_preprocess__ShapeFactor4 &le; 0.54<br/>gini = 0.763<br/>samples = 518<br/>value = [26, 2, 40, 153, 163, 33, 101]<br/>class = HOROZ>, fillcolor="#fafafe"] ;
131 -> 195 ;
196 [label=<num_preprocess__MajorAxisLength &le; 0.603<br/>gini = 0.647<br/>samples = 240<br/>value = [5, 0, 22, 75, 118, 3, 17]<br/>class = HOROZ>, fillcolor="#cbd3f8"] ;
195 -> 196 ;
197 [label=<num_preprocess__Perimeter &le; 0.227<br/>gini = 0.685<br/>samples = 143<br/>value = [3, 0, 14, 63, 45, 3, 15]<br/>class = CALI>, fillcolor="#dbfafa"] ;
196 -> 197 ;
198 [label=<num_preprocess__ShapeFactor3 &le; 0.104<br/>gini = 0.49<br/>samples = 66<br/>value = [0, 0, 1, 45, 12, 1, 7]<br/>class = CALI>, fillcolor="#86efed"] ;
197 -> 198 ;
199 [label=<num_preprocess__roundness &le; 0.74<br/>gini = 0.43<br/>samples = 11<br/>value = [0, 0, 0, 2, 8, 0, 1]<br/>class = HOROZ>, fillcolor="#7b8eee"] ;
198 -> 199 ;
200 [label=<gini = 0.198<br/>samples = 9<br/>value = [0, 0, 0, 0, 8, 0, 1]<br/>class = HOROZ>, fillcolor="#526be8"] ;
199 -> 200 ;
201 [label=<gini = 0.0<br/>samples = 2<br/>value = [0, 0, 0, 2, 0, 0, 0]<br/>class = CALI>, fillcolor="#39e5e2"] ;
199 -> 201 ;
202 [label=<num_preprocess__MajorAxisLength &le; 0.424<br/>gini = 0.371<br/>samples = 55<br/>value = [0, 0, 1, 43, 4, 1, 6]<br/>class = CALI>, fillcolor="#69ebe9"] ;
198 -> 202 ;
203 [label=<gini = 0.267<br/>samples = 47<br/>value = [0, 0, 1, 40, 4, 1, 1]<br/>class = CALI>, fillcolor="#59e9e7"] ;
202 -> 203 ;
204 [label=<gini = 0.469<br/>samples = 8<br/>value = [0, 0, 0, 3, 0, 0, 5]<br/>class = DERMASON>, fillcolor="#f5b0cf"] ;
202 -> 204 ;
205 [label=<num_preprocess__Area &le; 0.434<br/>gini = 0.72<br/>samples = 77<br/>value = [3, 0, 13, 18, 33, 2, 8]<br/>class = HOROZ>, fillcolor="#cdd4f8"] ;
197 -> 205 ;
206 [label=<num_preprocess__ShapeFactor2 &le; 0.472<br/>gini = 0.558<br/>samples = 44<br/>value = [1, 0, 0, 13, 26, 1, 3]<br/>class = HOROZ>, fillcolor="#acb8f4"] ;
205 -> 206 ;
207 [label=<gini = 0.456<br/>samples = 35<br/>value = [1, 0, 0, 6, 25, 1, 2]<br/>class = HOROZ>, fillcolor="#7d90ee"] ;
206 -> 207 ;
208 [label=<gini = 0.37<br/>samples = 9<br/>value = [0, 0, 0, 7, 1, 0, 1]<br/>class = CALI>, fillcolor="#6aece9"] ;
206 -> 208 ;
209 [label=<num_preprocess__Eccentricity &le; 0.592<br/>gini = 0.749<br/>samples = 33<br/>value = [2, 0, 13, 5, 7, 1, 5]<br/>class = BOMBAY>, fillcolor="#d1f9d6"] ;
205 -> 209 ;
210 [label=<gini = 0.439<br/>samples = 14<br/>value = [0, 0, 10, 0, 3, 0, 1]<br/>class = BOMBAY>, fillcolor="#81ee8e"] ;
209 -> 210 ;
211 [label=<gini = 0.803<br/>samples = 19<br/>value = [2, 0, 3, 5, 4, 1, 4]<br/>class = CALI>, fillcolor="#f2fdfd"] ;
209 -> 211 ;
212 [label=<num_preprocess__EquivDiameter &le; 0.747<br/>gini = 0.411<br/>samples = 97<br/>value = [2, 0, 8, 12, 73, 0, 2]<br/>class = HOROZ>, fillcolor="#7186ec"] ;
196 -> 212 ;
213 [label=<num_preprocess__Area &le; 0.699<br/>gini = 0.247<br/>samples = 73<br/>value = [1, 0, 6, 2, 63, 0, 1]<br/>class = HOROZ>, fillcolor="#576fe9"] ;
212 -> 213 ;
214 [label=<num_preprocess__MinorAxisLength &le; 0.427<br/>gini = 0.103<br/>samples = 56<br/>value = [0, 0, 2, 1, 53, 0, 0]<br/>class = HOROZ>, fillcolor="#445fe6"] ;
213 -> 214 ;
215 [label=<gini = 0.071<br/>samples = 55<br/>value = [0, 0, 1, 1, 53, 0, 0]<br/>class = HOROZ>, fillcolor="#405ce6"] ;
214 -> 215 ;
216 [label=<gini = 0.0<br/>samples = 1<br/>value = [0, 0, 1, 0, 0, 0, 0]<br/>class = BOMBAY>, fillcolor="#39e54d"] ;
214 -> 216 ;
217 [label=<num_preprocess__ConvexArea &le; 0.681<br/>gini = 0.588<br/>samples = 17<br/>value = [1, 0, 4, 1, 10, 0, 1]<br/>class = HOROZ>, fillcolor="#a4b1f3"] ;
213 -> 217 ;
218 [label=<gini = 0.292<br/>samples = 12<br/>value = [0, 0, 0, 1, 10, 0, 1]<br/>class = HOROZ>, fillcolor="#5d75ea"] ;
217 -> 218 ;
219 [label=<gini = 0.32<br/>samples = 5<br/>value = [1, 0, 4, 0, 0, 0, 0]<br/>class = BOMBAY>, fillcolor="#6aec79"] ;
217 -> 219 ;
220 [label=<num_preprocess__ShapeFactor1 &le; 0.826<br/>gini = 0.642<br/>samples = 24<br/>value = [1, 0, 2, 10, 10, 0, 1]<br/>class = CALI>, fillcolor="#ffffff"] ;
212 -> 220 ;
221 [label=<num_preprocess__Solidity &le; 0.783<br/>gini = 0.48<br/>samples = 10<br/>value = [1, 0, 1, 0, 7, 0, 1]<br/>class = HOROZ>, fillcolor="#7b8eee"] ;
220 -> 221 ;
222 [label=<gini = 0.5<br/>samples = 2<br/>value = [1, 0, 0, 0, 0, 0, 1]<br/>class = SEKER>, fillcolor="#ffffff"] ;
221 -> 222 ;
223 [label=<gini = 0.219<br/>samples = 8<br/>value = [0, 0, 1, 0, 7, 0, 0]<br/>class = HOROZ>, fillcolor="#556ee9"] ;
221 -> 223 ;
224 [label=<num_preprocess__Solidity &le; 0.965<br/>gini = 0.439<br/>samples = 14<br/>value = [0, 0, 1, 10, 3, 0, 0]<br/>class = CALI>, fillcolor="#81eeed"] ;
220 -> 224 ;
225 [label=<gini = 0.165<br/>samples = 11<br/>value = [0, 0, 0, 10, 1, 0, 0]<br/>class = CALI>, fillcolor="#4de8e5"] ;
224 -> 225 ;
226 [label=<gini = 0.444<br/>samples = 3<br/>value = [0, 0, 1, 0, 2, 0, 0]<br/>class = HOROZ>, fillcolor="#9caaf2"] ;
224 -> 226 ;
227 [label=<num_preprocess__MajorAxisLength &le; 0.538<br/>gini = 0.782<br/>samples = 278<br/>value = [21, 2, 18, 78, 45, 30, 84]<br/>class = DERMASON>, fillcolor="#fef9fb"] ;
195 -> 227 ;
228 [label=<num_preprocess__ShapeFactor3 &le; 0.38<br/>gini = 0.741<br/>samples = 144<br/>value = [12, 1, 9, 36, 5, 24, 57]<br/>class = DERMASON>, fillcolor="#fad9e7"] ;
227 -> 228 ;
229 [label=<num_preprocess__Eccentricity &le; 0.002<br/>gini = 0.7<br/>samples = 51<br/>value = [8, 1, 7, 5, 4, 1, 25]<br/>class = DERMASON>, fillcolor="#f5b1cf"] ;
228 -> 229 ;
230 [label=<gini = 0.0<br/>samples = 3<br/>value = [0, 0, 0, 3, 0, 0, 0]<br/>class = CALI>, fillcolor="#39e5e2"] ;
229 -> 230 ;
231 [label=<num_preprocess__Compactness &le; 0.194<br/>gini = 0.67<br/>samples = 48<br/>value = [8, 1, 7, 2, 4, 1, 25]<br/>class = DERMASON>, fillcolor="#f4abcc"] ;
229 -> 231 ;
232 [label=<gini = 0.505<br/>samples = 28<br/>value = [1, 0, 3, 1, 4, 0, 19]<br/>class = DERMASON>, fillcolor="#ef83b3"] ;
231 -> 232 ;
233 [label=<gini = 0.74<br/>samples = 20<br/>value = [7, 1, 4, 1, 0, 1, 6]<br/>class = SEKER>, fillcolor="#fdf6f1"] ;
231 -> 233 ;
234 [label=<num_preprocess__Eccentricity &le; 0.259<br/>gini = 0.707<br/>samples = 93<br/>value = [4, 0, 2, 31, 1, 23, 32]<br/>class = DERMASON>, fillcolor="#fffcfd"] ;
228 -> 234 ;
235 [label=<num_preprocess__EquivDiameter &le; 0.737<br/>gini = 0.605<br/>samples = 25<br/>value = [1, 0, 1, 1, 0, 12, 10]<br/>class = SIRA>, fillcolor="#f5e5fc"] ;
234 -> 235 ;
236 [label=<gini = 0.615<br/>samples = 19<br/>value = [1, 0, 1, 1, 0, 6, 10]<br/>class = DERMASON>, fillcolor="#f7c2da"] ;
235 -> 236 ;
237 [label=<gini = 0.0<br/>samples = 6<br/>value = [0, 0, 0, 0, 0, 6, 0]<br/>class = SIRA>, fillcolor="#b139e5"] ;
235 -> 237 ;
238 [label=<num_preprocess__MinorAxisLength &le; 0.203<br/>gini = 0.672<br/>samples = 68<br/>value = [3, 0, 1, 30, 1, 11, 22]<br/>class = CALI>, fillcolor="#ddfafa"] ;
234 -> 238 ;
239 [label=<gini = 0.558<br/>samples = 41<br/>value = [0, 0, 0, 25, 1, 6, 9]<br/>class = CALI>, fillcolor="#9cf2f0"] ;
238 -> 239 ;
240 [label=<gini = 0.686<br/>samples = 27<br/>value = [3, 0, 1, 5, 0, 5, 13]<br/>class = DERMASON>, fillcolor="#f6b7d3"] ;
238 -> 240 ;
241 [label=<num_preprocess__EquivDiameter &le; 0.537<br/>gini = 0.761<br/>samples = 134<br/>value = [9, 1, 9, 42, 40, 6, 27]<br/>class = CALI>, fillcolor="#fbfefe"] ;
227 -> 241 ;
242 [label=<num_preprocess__ConvexArea &le; 0.392<br/>gini = 0.722<br/>samples = 73<br/>value = [5, 0, 8, 12, 32, 1, 15]<br/>class = HOROZ>, fillcolor="#c5cdf7"] ;
241 -> 242 ;
243 [label=<num_preprocess__ShapeFactor4 &le; 0.772<br/>gini = 0.51<br/>samples = 40<br/>value = [1, 0, 2, 5, 27, 0, 5]<br/>class = HOROZ>, fillcolor="#8395ef"] ;
242 -> 243 ;
244 [label=<gini = 0.185<br/>samples = 20<br/>value = [0, 0, 0, 1, 18, 0, 1]<br/>class = HOROZ>, fillcolor="#4e68e8"] ;
243 -> 244 ;
245 [label=<gini = 0.705<br/>samples = 20<br/>value = [1, 0, 2, 4, 9, 0, 4]<br/>class = HOROZ>, fillcolor="#c1caf7"] ;
243 -> 245 ;
246 [label=<num_preprocess__MinorAxisLength &le; 0.208<br/>gini = 0.792<br/>samples = 33<br/>value = [4, 0, 6, 7, 5, 1, 10]<br/>class = DERMASON>, fillcolor="#fce8f1"] ;
242 -> 246 ;
247 [label=<gini = 0.735<br/>samples = 14<br/>value = [3, 0, 0, 5, 4, 1, 1]<br/>class = CALI>, fillcolor="#ebfcfc"] ;
246 -> 247 ;
248 [label=<gini = 0.659<br/>samples = 19<br/>value = [1, 0, 6, 2, 1, 0, 9]<br/>class = DERMASON>, fillcolor="#f9d1e3"] ;
246 -> 248 ;
249 [label=<num_preprocess__ConvexArea &le; 0.75<br/>gini = 0.691<br/>samples = 61<br/>value = [4, 1, 1, 30, 8, 5, 12]<br/>class = CALI>, fillcolor="#b6f5f4"] ;
241 -> 249 ;
250 [label=<num_preprocess__ShapeFactor2 &le; 0.305<br/>gini = 0.602<br/>samples = 51<br/>value = [2, 1, 1, 30, 8, 1, 8]<br/>class = CALI>, fillcolor="#9af2f0"] ;
249 -> 250 ;
251 [label=<gini = 0.727<br/>samples = 17<br/>value = [1, 0, 1, 4, 6, 0, 5]<br/>class = HOROZ>, fillcolor="#eef1fd"] ;
250 -> 251 ;
252 [label=<gini = 0.401<br/>samples = 34<br/>value = [1, 1, 0, 26, 2, 1, 3]<br/>class = CALI>, fillcolor="#6cece9"] ;
250 -> 252 ;
253 [label=<num_preprocess__roundness &le; 0.547<br/>gini = 0.64<br/>samples = 10<br/>value = [2, 0, 0, 0, 0, 4, 4]<br/>class = SIRA>, fillcolor="#ffffff"] ;
249 -> 253 ;
254 [label=<gini = 0.571<br/>samples = 7<br/>value = [2, 0, 0, 0, 0, 4, 1]<br/>class = SIRA>, fillcolor="#e0b0f5"] ;
253 -> 254 ;
255 [label=<gini = 0.0<br/>samples = 3<br/>value = [0, 0, 0, 0, 0, 0, 3]<br/>class = DERMASON>, fillcolor="#e53986"] ;
253 -> 255 ;
256 [label=<num_preprocess__Perimeter &le; 0.369<br/>gini = 0.622<br/>samples = 2415<br/>value = [77, 7, 44, 1381, 316, 378, 212]<br/>class = CALI>, fillcolor="#9ef2f1"] ;
2 -> 256 ;
257 [label=<num_preprocess__Area &le; 0.6<br/>gini = 0.467<br/>samples = 1296<br/>value = [4, 0, 4, 920, 99, 172, 97]<br/>class = CALI>, fillcolor="#7beeec"] ;
256 -> 257 ;
258 [label=<num_preprocess__MajorAxisLength &le; 0.196<br/>gini = 0.389<br/>samples = 1017<br/>value = [1, 0, 0, 782, 76, 112, 46]<br/>class = CALI>, fillcolor="#6cecea"] ;
257 -> 258 ;
259 [label=<num_preprocess__ConvexArea &le; 0.394<br/>gini = 0.473<br/>samples = 324<br/>value = [0, 0, 0, 223, 8, 71, 22]<br/>class = CALI>, fillcolor="#88efee"] ;
258 -> 259 ;
260 [label=<num_preprocess__EquivDiameter &le; 0.775<br/>gini = 0.373<br/>samples = 240<br/>value = [0, 0, 0, 186, 8, 37, 9]<br/>class = CALI>, fillcolor="#6eecea"] ;
259 -> 260 ;
261 [label=<num_preprocess__ShapeFactor1 &le; 0.466<br/>gini = 0.317<br/>samples = 209<br/>value = [0, 0, 0, 171, 8, 21, 9]<br/>class = CALI>, fillcolor="#61eae8"] ;
260 -> 261 ;
262 [label=<num_preprocess__ShapeFactor2 &le; 0.572<br/>gini = 0.477<br/>samples = 103<br/>value = [0, 0, 0, 72, 7, 16, 8]<br/>class = CALI>, fillcolor="#80eeec"] ;
261 -> 262 ;
263 [label=<gini = 0.735<br/>samples = 18<br/>value = [0, 0, 0, 4, 5, 3, 6]<br/>class = DERMASON>, fillcolor="#fdf0f6"] ;
262 -> 263 ;
264 [label=<gini = 0.336<br/>samples = 85<br/>value = [0, 0, 0, 68, 2, 13, 2]<br/>class = CALI>, fillcolor="#68ebe9"] ;
262 -> 264 ;
265 [label=<num_preprocess__Solidity &le; 0.997<br/>gini = 0.125<br/>samples = 106<br/>value = [0, 0, 0, 99, 1, 5, 1]<br/>class = CALI>, fillcolor="#47e7e4"] ;
261 -> 265 ;
266 [label=<gini = 0.109<br/>samples = 105<br/>value = [0, 0, 0, 99, 0, 5, 1]<br/>class = CALI>, fillcolor="#45e7e4"] ;
265 -> 266 ;
267 [label=<gini = 0.0<br/>samples = 1<br/>value = [0, 0, 0, 0, 1, 0, 0]<br/>class = HOROZ>, fillcolor="#3956e5"] ;
265 -> 267 ;
268 [label=<num_preprocess__ShapeFactor1 &le; 0.557<br/>gini = 0.499<br/>samples = 31<br/>value = [0, 0, 0, 15, 0, 16, 0]<br/>class = SIRA>, fillcolor="#faf3fd"] ;
260 -> 268 ;
269 [label=<num_preprocess__ShapeFactor1 &le; 0.123<br/>gini = 0.363<br/>samples = 21<br/>value = [0, 0, 0, 5, 0, 16, 0]<br/>class = SIRA>, fillcolor="#c977ed"] ;
268 -> 269 ;
270 [label=<gini = 0.0<br/>samples = 2<br/>value = [0, 0, 0, 2, 0, 0, 0]<br/>class = CALI>, fillcolor="#39e5e2"] ;
269 -> 270 ;
271 [label=<gini = 0.266<br/>samples = 19<br/>value = [0, 0, 0, 3, 0, 16, 0]<br/>class = SIRA>, fillcolor="#c05eea"] ;
269 -> 271 ;
272 [label=<gini = 0.0<br/>samples = 10<br/>value = [0, 0, 0, 10, 0, 0, 0]<br/>class = CALI>, fillcolor="#39e5e2"] ;
268 -> 272 ;
273 [label=<num_preprocess__Solidity &le; 0.565<br/>gini = 0.618<br/>samples = 84<br/>value = [0, 0, 0, 37, 0, 34, 13]<br/>class = CALI>, fillcolor="#f3fdfd"] ;
259 -> 273 ;
274 [label=<num_preprocess__ShapeFactor1 &le; 0.777<br/>gini = 0.353<br/>samples = 35<br/>value = [0, 0, 0, 8, 0, 27, 0]<br/>class = SIRA>, fillcolor="#c874ed"] ;
273 -> 274 ;
275 [label=<num_preprocess__AspectRation &le; 0.926<br/>gini = 0.191<br/>samples = 28<br/>value = [0, 0, 0, 3, 0, 25, 0]<br/>class = SIRA>, fillcolor="#ba51e8"] ;
274 -> 275 ;
276 [label=<gini = 0.137<br/>samples = 27<br/>value = [0, 0, 0, 2, 0, 25, 0]<br/>class = SIRA>, fillcolor="#b749e7"] ;
275 -> 276 ;
277 [label=<gini = 0.0<br/>samples = 1<br/>value = [0, 0, 0, 1, 0, 0, 0]<br/>class = CALI>, fillcolor="#39e5e2"] ;
275 -> 277 ;
278 [label=<num_preprocess__MajorAxisLength &le; 0.021<br/>gini = 0.408<br/>samples = 7<br/>value = [0, 0, 0, 5, 0, 2, 0]<br/>class = CALI>, fillcolor="#88efee"] ;
274 -> 278 ;
279 [label=<gini = 0.444<br/>samples = 3<br/>value = [0, 0, 0, 1, 0, 2, 0]<br/>class = SIRA>, fillcolor="#d89cf2"] ;
278 -> 279 ;
280 [label=<gini = 0.0<br/>samples = 4<br/>value = [0, 0, 0, 4, 0, 0, 0]<br/>class = CALI>, fillcolor="#39e5e2"] ;
278 -> 280 ;
281 [label=<num_preprocess__ShapeFactor4 &le; 0.238<br/>gini = 0.559<br/>samples = 49<br/>value = [0, 0, 0, 29, 0, 7, 13]<br/>class = CALI>, fillcolor="#a7f3f2"] ;
273 -> 281 ;
282 [label=<gini = 0.0<br/>samples = 18<br/>value = [0, 0, 0, 18, 0, 0, 0]<br/>class = CALI>, fillcolor="#39e5e2"] ;
281 -> 282 ;
283 [label=<num_preprocess__ShapeFactor2 &le; 0.576<br/>gini = 0.647<br/>samples = 31<br/>value = [0, 0, 0, 11, 0, 7, 13]<br/>class = DERMASON>, fillcolor="#fcebf3"] ;
281 -> 283 ;
284 [label=<gini = 0.219<br/>samples = 8<br/>value = [0, 0, 0, 0, 0, 1, 7]<br/>class = DERMASON>, fillcolor="#e95597"] ;
283 -> 284 ;
285 [label=<gini = 0.635<br/>samples = 23<br/>value = [0, 0, 0, 11, 0, 6, 6]<br/>class = CALI>, fillcolor="#c5f7f6"] ;
283 -> 285 ;
286 [label=<num_preprocess__MinorAxisLength &le; 0.285<br/>gini = 0.335<br/>samples = 693<br/>value = [1, 0, 0, 559, 68, 41, 24]<br/>class = CALI>, fillcolor="#63ebe8"] ;
258 -> 286 ;
287 [label=<num_preprocess__ShapeFactor4 &le; 0.9<br/>gini = 0.272<br/>samples = 495<br/>value = [0, 0, 0, 420, 31, 30, 14]<br/>class = CALI>, fillcolor="#59e9e7"] ;
286 -> 287 ;
288 [label=<num_preprocess__ShapeFactor2 &le; 0.557<br/>gini = 0.241<br/>samples = 444<br/>value = [0, 0, 0, 385, 31, 15, 13]<br/>class = CALI>, fillcolor="#55e9e6"] ;
287 -> 288 ;
289 [label=<num_preprocess__ShapeFactor1 &le; 0.425<br/>gini = 0.449<br/>samples = 103<br/>value = [0, 0, 0, 74, 17, 4, 8]<br/>class = CALI>, fillcolor="#7ceeec"] ;
288 -> 289 ;
290 [label=<gini = 0.713<br/>samples = 27<br/>value = [0, 0, 0, 10, 8, 3, 6]<br/>class = CALI>, fillcolor="#eafcfc"] ;
289 -> 290 ;
291 [label=<gini = 0.276<br/>samples = 76<br/>value = [0, 0, 0, 64, 9, 1, 2]<br/>class = CALI>, fillcolor="#5ceae7"] ;
289 -> 291 ;
292 [label=<num_preprocess__AspectRation &le; 0.997<br/>gini = 0.165<br/>samples = 341<br/>value = [0, 0, 0, 311, 14, 11, 5]<br/>class = CALI>, fillcolor="#4be7e5"] ;
288 -> 292 ;
293 [label=<gini = 0.161<br/>samples = 340<br/>value = [0, 0, 0, 311, 13, 11, 5]<br/>class = CALI>, fillcolor="#4be7e5"] ;
292 -> 293 ;
294 [label=<gini = 0.0<br/>samples = 1<br/>value = [0, 0, 0, 0, 1, 0, 0]<br/>class = HOROZ>, fillcolor="#3956e5"] ;
292 -> 294 ;
295 [label=<num_preprocess__Compactness &le; 0.119<br/>gini = 0.442<br/>samples = 51<br/>value = [0, 0, 0, 35, 0, 15, 1]<br/>class = CALI>, fillcolor="#91f1ef"] ;
287 -> 295 ;
296 [label=<num_preprocess__Solidity &le; 0.01<br/>gini = 0.077<br/>samples = 25<br/>value = [0, 0, 0, 24, 0, 1, 0]<br/>class = CALI>, fillcolor="#41e6e3"] ;
295 -> 296 ;
297 [label=<gini = 0.0<br/>samples = 1<br/>value = [0, 0, 0, 0, 0, 1, 0]<br/>class = SIRA>, fillcolor="#b139e5"] ;
296 -> 297 ;
298 [label=<gini = 0.0<br/>samples = 24<br/>value = [0, 0, 0, 24, 0, 0, 0]<br/>class = CALI>, fillcolor="#39e5e2"] ;
296 -> 298 ;
299 [label=<num_preprocess__ConvexArea &le; 0.32<br/>gini = 0.53<br/>samples = 26<br/>value = [0, 0, 0, 11, 0, 14, 1]<br/>class = SIRA>, fillcolor="#efd7fa"] ;
295 -> 299 ;
300 [label=<gini = 0.298<br/>samples = 11<br/>value = [0, 0, 0, 9, 0, 2, 0]<br/>class = CALI>, fillcolor="#65ebe8"] ;
299 -> 300 ;
301 [label=<gini = 0.338<br/>samples = 15<br/>value = [0, 0, 0, 2, 0, 12, 1]<br/>class = SIRA>, fillcolor="#c367eb"] ;
299 -> 301 ;
302 [label=<num_preprocess__Solidity &le; 0.53<br/>gini = 0.467<br/>samples = 198<br/>value = [1, 0, 0, 139, 37, 11, 10]<br/>class = CALI>, fillcolor="#82efed"] ;
286 -> 302 ;
303 [label=<num_preprocess__ShapeFactor4 &le; 0.945<br/>gini = 0.285<br/>samples = 74<br/>value = [0, 0, 0, 62, 2, 8, 2]<br/>class = CALI>, fillcolor="#5deae7"] ;
302 -> 303 ;
304 [label=<num_preprocess__MinorAxisLength &le; 0.29<br/>gini = 0.237<br/>samples = 69<br/>value = [0, 0, 0, 60, 2, 5, 2]<br/>class = CALI>, fillcolor="#55e9e6"] ;
303 -> 304 ;
305 [label=<gini = 0.625<br/>samples = 4<br/>value = [0, 0, 0, 1, 0, 2, 1]<br/>class = SIRA>, fillcolor="#e5bdf6"] ;
304 -> 305 ;
306 [label=<gini = 0.173<br/>samples = 65<br/>value = [0, 0, 0, 59, 2, 3, 1]<br/>class = CALI>, fillcolor="#4ce8e5"] ;
304 -> 306 ;
307 [label=<num_preprocess__ShapeFactor1 &le; 0.698<br/>gini = 0.48<br/>samples = 5<br/>value = [0, 0, 0, 2, 0, 3, 0]<br/>class = SIRA>, fillcolor="#e5bdf6"] ;
303 -> 307 ;
308 [label=<gini = 0.0<br/>samples = 3<br/>value = [0, 0, 0, 0, 0, 3, 0]<br/>class = SIRA>, fillcolor="#b139e5"] ;
307 -> 308 ;
309 [label=<gini = 0.0<br/>samples = 2<br/>value = [0, 0, 0, 2, 0, 0, 0]<br/>class = CALI>, fillcolor="#39e5e2"] ;
307 -> 309 ;
310 [label=<num_preprocess__ShapeFactor2 &le; 0.767<br/>gini = 0.53<br/>samples = 124<br/>value = [1, 0, 0, 77, 35, 3, 8]<br/>class = CALI>, fillcolor="#a2f3f1"] ;
302 -> 310 ;
311 [label=<num_preprocess__ShapeFactor1 &le; 0.798<br/>gini = 0.581<br/>samples = 99<br/>value = [1, 0, 0, 53, 35, 2, 8]<br/>class = CALI>, fillcolor="#c7f8f7"] ;
310 -> 311 ;
312 [label=<gini = 0.622<br/>samples = 76<br/>value = [1, 0, 0, 31, 34, 2, 8]<br/>class = HOROZ>, fillcolor="#f2f4fd"] ;
311 -> 312 ;
313 [label=<gini = 0.083<br/>samples = 23<br/>value = [0, 0, 0, 22, 1, 0, 0]<br/>class = CALI>, fillcolor="#42e6e3"] ;
311 -> 313 ;
314 [label=<num_preprocess__roundness &le; 0.896<br/>gini = 0.077<br/>samples = 25<br/>value = [0, 0, 0, 24, 0, 1, 0]<br/>class = CALI>, fillcolor="#41e6e3"] ;
310 -> 314 ;
315 [label=<gini = 0.0<br/>samples = 24<br/>value = [0, 0, 0, 24, 0, 0, 0]<br/>class = CALI>, fillcolor="#39e5e2"] ;
314 -> 315 ;
316 [label=<gini = 0.0<br/>samples = 1<br/>value = [0, 0, 0, 0, 0, 1, 0]<br/>class = SIRA>, fillcolor="#b139e5"] ;
314 -> 316 ;
317 [label=<num_preprocess__ShapeFactor4 &le; 0.661<br/>gini = 0.669<br/>samples = 279<br/>value = [3, 0, 4, 138, 23, 60, 51]<br/>class = CALI>, fillcolor="#b8f6f5"] ;
257 -> 317 ;
318 [label=<num_preprocess__ShapeFactor1 &le; 0.544<br/>gini = 0.595<br/>samples = 166<br/>value = [2, 0, 4, 99, 21, 13, 27]<br/>class = CALI>, fillcolor="#98f2f0"] ;
317 -> 318 ;
319 [label=<num_preprocess__ShapeFactor2 &le; 0.742<br/>gini = 0.733<br/>samples = 74<br/>value = [2, 0, 4, 29, 9, 9, 21]<br/>class = CALI>, fillcolor="#e1fbfb"] ;
318 -> 319 ;
320 [label=<num_preprocess__Extent &le; 0.222<br/>gini = 0.765<br/>samples = 58<br/>value = [2, 0, 4, 15, 8, 9, 20]<br/>class = DERMASON>, fillcolor="#fce8f1"] ;
319 -> 320 ;
321 [label=<num_preprocess__ConvexArea &le; 0.668<br/>gini = 0.48<br/>samples = 10<br/>value = [1, 0, 0, 7, 0, 1, 1]<br/>class = CALI>, fillcolor="#7beeec"] ;
320 -> 321 ;
322 [label=<gini = 0.219<br/>samples = 8<br/>value = [0, 0, 0, 7, 0, 1, 0]<br/>class = CALI>, fillcolor="#55e9e6"] ;
321 -> 322 ;
323 [label=<gini = 0.5<br/>samples = 2<br/>value = [1, 0, 0, 0, 0, 0, 1]<br/>class = SEKER>, fillcolor="#ffffff"] ;
321 -> 323 ;
324 [label=<num_preprocess__ShapeFactor2 &le; 0.633<br/>gini = 0.753<br/>samples = 48<br/>value = [1, 0, 4, 8, 8, 8, 19]<br/>class = DERMASON>, fillcolor="#f8c9de"] ;
320 -> 324 ;
325 [label=<gini = 0.779<br/>samples = 33<br/>value = [0, 0, 4, 4, 8, 8, 9]<br/>class = DERMASON>, fillcolor="#fef7fa"] ;
324 -> 325 ;
326 [label=<gini = 0.48<br/>samples = 15<br/>value = [1, 0, 0, 4, 0, 0, 10]<br/>class = DERMASON>, fillcolor="#f193bd"] ;
324 -> 326 ;
327 [label=<num_preprocess__MajorAxisLength &le; 0.964<br/>gini = 0.227<br/>samples = 16<br/>value = [0, 0, 0, 14, 1, 0, 1]<br/>class = CALI>, fillcolor="#53e8e6"] ;
319 -> 327 ;
328 [label=<num_preprocess__Extent &le; 0.664<br/>gini = 0.124<br/>samples = 15<br/>value = [0, 0, 0, 14, 1, 0, 0]<br/>class = CALI>, fillcolor="#47e7e4"] ;
327 -> 328 ;
329 [label=<gini = 0.0<br/>samples = 13<br/>value = [0, 0, 0, 13, 0, 0, 0]<br/>class = CALI>, fillcolor="#39e5e2"] ;
328 -> 329 ;
330 [label=<gini = 0.5<br/>samples = 2<br/>value = [0, 0, 0, 1, 1, 0, 0]<br/>class = CALI>, fillcolor="#ffffff"] ;
328 -> 330 ;
331 [label=<gini = 0.0<br/>samples = 1<br/>value = [0, 0, 0, 0, 0, 0, 1]<br/>class = DERMASON>, fillcolor="#e53986"] ;
327 -> 331 ;
332 [label=<num_preprocess__Perimeter &le; 0.311<br/>gini = 0.398<br/>samples = 92<br/>value = [0, 0, 0, 70, 12, 4, 6]<br/>class = CALI>, fillcolor="#6fecea"] ;
318 -> 332 ;
333 [label=<num_preprocess__Solidity &le; 0.927<br/>gini = 0.32<br/>samples = 82<br/>value = [0, 0, 0, 67, 7, 4, 4]<br/>class = CALI>, fillcolor="#61eae8"] ;
332 -> 333 ;
334 [label=<num_preprocess__MajorAxisLength &le; 0.105<br/>gini = 0.244<br/>samples = 74<br/>value = [0, 0, 0, 64, 5, 4, 1]<br/>class = CALI>, fillcolor="#56e9e6"] ;
333 -> 334 ;
335 [label=<gini = 0.444<br/>samples = 3<br/>value = [0, 0, 0, 1, 0, 2, 0]<br/>class = SIRA>, fillcolor="#d89cf2"] ;
334 -> 335 ;
336 [label=<gini = 0.207<br/>samples = 71<br/>value = [0, 0, 0, 63, 5, 2, 1]<br/>class = CALI>, fillcolor="#51e8e6"] ;
334 -> 336 ;
337 [label=<num_preprocess__Perimeter &le; 0.096<br/>gini = 0.656<br/>samples = 8<br/>value = [0, 0, 0, 3, 2, 0, 3]<br/>class = CALI>, fillcolor="#ffffff"] ;
333 -> 337 ;
338 [label=<gini = 0.0<br/>samples = 3<br/>value = [0, 0, 0, 3, 0, 0, 0]<br/>class = CALI>, fillcolor="#39e5e2"] ;
337 -> 338 ;
339 [label=<gini = 0.48<br/>samples = 5<br/>value = [0, 0, 0, 0, 2, 0, 3]<br/>class = DERMASON>, fillcolor="#f6bdd7"] ;
337 -> 339 ;
340 [label=<num_preprocess__ShapeFactor4 &le; 0.246<br/>gini = 0.62<br/>samples = 10<br/>value = [0, 0, 0, 3, 5, 0, 2]<br/>class = HOROZ>, fillcolor="#c6cff8"] ;
332 -> 340 ;
341 [label=<gini = 0.0<br/>samples = 4<br/>value = [0, 0, 0, 0, 4, 0, 0]<br/>class = HOROZ>, fillcolor="#3956e5"] ;
340 -> 341 ;
342 [label=<num_preprocess__Area &le; 0.896<br/>gini = 0.611<br/>samples = 6<br/>value = [0, 0, 0, 3, 1, 0, 2]<br/>class = CALI>, fillcolor="#cef8f8"] ;
340 -> 342 ;
343 [label=<gini = 0.375<br/>samples = 4<br/>value = [0, 0, 0, 3, 1, 0, 0]<br/>class = CALI>, fillcolor="#7beeec"] ;
342 -> 343 ;
344 [label=<gini = 0.0<br/>samples = 2<br/>value = [0, 0, 0, 0, 0, 0, 2]<br/>class = DERMASON>, fillcolor="#e53986"] ;
342 -> 344 ;
345 [label=<num_preprocess__ConvexArea &le; 0.54<br/>gini = 0.662<br/>samples = 113<br/>value = [1, 0, 0, 39, 2, 47, 24]<br/>class = SIRA>, fillcolor="#f7eafc"] ;
317 -> 345 ;
346 [label=<num_preprocess__Compactness &le; 0.237<br/>gini = 0.656<br/>samples = 83<br/>value = [0, 0, 0, 38, 2, 22, 21]<br/>class = CALI>, fillcolor="#cbf8f7"] ;
345 -> 346 ;
347 [label=<num_preprocess__ShapeFactor1 &le; 0.392<br/>gini = 0.562<br/>samples = 54<br/>value = [0, 0, 0, 33, 2, 8, 11]<br/>class = CALI>, fillcolor="#9af2f0"] ;
346 -> 347 ;
348 [label=<num_preprocess__AspectRation &le; 0.743<br/>gini = 0.625<br/>samples = 12<br/>value = [0, 0, 0, 2, 0, 5, 5]<br/>class = SIRA>, fillcolor="#ffffff"] ;
347 -> 348 ;
349 [label=<gini = 0.278<br/>samples = 6<br/>value = [0, 0, 0, 1, 0, 0, 5]<br/>class = DERMASON>, fillcolor="#ea619e"] ;
348 -> 349 ;
350 [label=<gini = 0.278<br/>samples = 6<br/>value = [0, 0, 0, 1, 0, 5, 0]<br/>class = SIRA>, fillcolor="#c161ea"] ;
348 -> 350 ;
351 [label=<num_preprocess__ShapeFactor4 &le; 0.682<br/>gini = 0.427<br/>samples = 42<br/>value = [0, 0, 0, 31, 2, 3, 6]<br/>class = CALI>, fillcolor="#75edeb"] ;
347 -> 351 ;
352 [label=<gini = 0.625<br/>samples = 4<br/>value = [0, 0, 0, 0, 1, 2, 1]<br/>class = SIRA>, fillcolor="#e5bdf6"] ;
351 -> 352 ;
353 [label=<gini = 0.316<br/>samples = 38<br/>value = [0, 0, 0, 31, 1, 1, 5]<br/>class = CALI>, fillcolor="#63ebe8"] ;
351 -> 353 ;
354 [label=<num_preprocess__ShapeFactor4 &le; 0.835<br/>gini = 0.618<br/>samples = 29<br/>value = [0, 0, 0, 5, 0, 14, 10]<br/>class = SIRA>, fillcolor="#efd5fa"] ;
346 -> 354 ;
355 [label=<num_preprocess__Solidity &le; 0.604<br/>gini = 0.625<br/>samples = 20<br/>value = [0, 0, 0, 5, 0, 5, 10]<br/>class = DERMASON>, fillcolor="#f6bdd7"] ;
354 -> 355 ;
356 [label=<gini = 0.32<br/>samples = 5<br/>value = [0, 0, 0, 1, 0, 4, 0]<br/>class = SIRA>, fillcolor="#c46aec"] ;
355 -> 356 ;
357 [label=<gini = 0.48<br/>samples = 15<br/>value = [0, 0, 0, 4, 0, 1, 10]<br/>class = DERMASON>, fillcolor="#f193bd"] ;
355 -> 357 ;
358 [label=<gini = 0.0<br/>samples = 9<br/>value = [0, 0, 0, 0, 0, 9, 0]<br/>class = SIRA>, fillcolor="#b139e5"] ;
354 -> 358 ;
359 [label=<num_preprocess__ShapeFactor4 &le; 0.701<br/>gini = 0.293<br/>samples = 30<br/>value = [1, 0, 0, 1, 0, 25, 3]<br/>class = SIRA>, fillcolor="#bf5eea"] ;
345 -> 359 ;
360 [label=<num_preprocess__EquivDiameter &le; 0.218<br/>gini = 0.625<br/>samples = 4<br/>value = [0, 0, 0, 1, 0, 1, 2]<br/>class = DERMASON>, fillcolor="#f6bdd7"] ;
359 -> 360 ;
361 [label=<gini = 0.0<br/>samples = 2<br/>value = [0, 0, 0, 0, 0, 0, 2]<br/>class = DERMASON>, fillcolor="#e53986"] ;
360 -> 361 ;
362 [label=<num_preprocess__Area &le; 0.698<br/>gini = 0.5<br/>samples = 2<br/>value = [0, 0, 0, 1, 0, 1, 0]<br/>class = CALI>, fillcolor="#ffffff"] ;
360 -> 362 ;
363 [label=<gini = 0.0<br/>samples = 1<br/>value = [0, 0, 0, 0, 0, 1, 0]<br/>class = SIRA>, fillcolor="#b139e5"] ;
362 -> 363 ;
364 [label=<gini = 0.0<br/>samples = 1<br/>value = [0, 0, 0, 1, 0, 0, 0]<br/>class = CALI>, fillcolor="#39e5e2"] ;
362 -> 364 ;
365 [label=<num_preprocess__ShapeFactor4 &le; 0.979<br/>gini = 0.145<br/>samples = 26<br/>value = [1, 0, 0, 0, 0, 24, 1]<br/>class = SIRA>, fillcolor="#b749e7"] ;
359 -> 365 ;
366 [label=<num_preprocess__Perimeter &le; 0.344<br/>gini = 0.077<br/>samples = 25<br/>value = [0, 0, 0, 0, 0, 24, 1]<br/>class = SIRA>, fillcolor="#b441e6"] ;
365 -> 366 ;
367 [label=<gini = 0.0<br/>samples = 24<br/>value = [0, 0, 0, 0, 0, 24, 0]<br/>class = SIRA>, fillcolor="#b139e5"] ;
366 -> 367 ;
368 [label=<gini = 0.0<br/>samples = 1<br/>value = [0, 0, 0, 0, 0, 0, 1]<br/>class = DERMASON>, fillcolor="#e53986"] ;
366 -> 368 ;
369 [label=<gini = 0.0<br/>samples = 1<br/>value = [1, 0, 0, 0, 0, 0, 0]<br/>class = SEKER>, fillcolor="#e58139"] ;
365 -> 369 ;
370 [label=<num_preprocess__ShapeFactor4 &le; 0.494<br/>gini = 0.743<br/>samples = 1119<br/>value = [73, 7, 40, 461, 217, 206, 115]<br/>class = CALI>, fillcolor="#c9f8f7"] ;
256 -> 370 ;
371 [label=<num_preprocess__Solidity &le; 0.533<br/>gini = 0.717<br/>samples = 500<br/>value = [30, 2, 31, 190, 173, 35, 39]<br/>class = CALI>, fillcolor="#f5fefd"] ;
370 -> 371 ;
372 [label=<num_preprocess__Eccentricity &le; 0.44<br/>gini = 0.601<br/>samples = 187<br/>value = [12, 0, 4, 111, 29, 24, 7]<br/>class = CALI>, fillcolor="#98f2f0"] ;
371 -> 372 ;
373 [label=<num_preprocess__Area &le; 0.67<br/>gini = 0.768<br/>samples = 57<br/>value = [9, 0, 3, 18, 9, 16, 2]<br/>class = CALI>, fillcolor="#f5fefe"] ;
372 -> 373 ;
374 [label=<num_preprocess__Compactness &le; 0.295<br/>gini = 0.703<br/>samples = 45<br/>value = [2, 0, 0, 16, 9, 16, 2]<br/>class = CALI>, fillcolor="#ffffff"] ;
373 -> 374 ;
375 [label=<num_preprocess__ConvexArea &le; 0.629<br/>gini = 0.689<br/>samples = 34<br/>value = [2, 0, 0, 15, 9, 7, 1]<br/>class = CALI>, fillcolor="#cff9f8"] ;
374 -> 375 ;
376 [label=<gini = 0.617<br/>samples = 28<br/>value = [1, 0, 0, 15, 8, 3, 1]<br/>class = CALI>, fillcolor="#baf6f5"] ;
375 -> 376 ;
377 [label=<gini = 0.5<br/>samples = 6<br/>value = [1, 0, 0, 0, 1, 4, 0]<br/>class = SIRA>, fillcolor="#d088ef"] ;
375 -> 377 ;
378 [label=<num_preprocess__MajorAxisLength &le; 0.609<br/>gini = 0.314<br/>samples = 11<br/>value = [0, 0, 0, 1, 0, 9, 1]<br/>class = SIRA>, fillcolor="#c161ea"] ;
374 -> 378 ;
379 [label=<gini = 0.0<br/>samples = 9<br/>value = [0, 0, 0, 0, 0, 9, 0]<br/>class = SIRA>, fillcolor="#b139e5"] ;
378 -> 379 ;
380 [label=<gini = 0.5<br/>samples = 2<br/>value = [0, 0, 0, 1, 0, 0, 1]<br/>class = CALI>, fillcolor="#ffffff"] ;
378 -> 380 ;
381 [label=<num_preprocess__MajorAxisLength &le; 0.39<br/>gini = 0.569<br/>samples = 12<br/>value = [7, 0, 3, 2, 0, 0, 0]<br/>class = SEKER>, fillcolor="#f3c7a7"] ;
373 -> 381 ;
382 [label=<gini = 0.0<br/>samples = 3<br/>value = [0, 0, 3, 0, 0, 0, 0]<br/>class = BOMBAY>, fillcolor="#39e54d"] ;
381 -> 382 ;
383 [label=<num_preprocess__ShapeFactor1 &le; 0.762<br/>gini = 0.346<br/>samples = 9<br/>value = [7, 0, 0, 2, 0, 0, 0]<br/>class = SEKER>, fillcolor="#eca572"] ;
381 -> 383 ;
384 [label=<gini = 0.0<br/>samples = 7<br/>value = [7, 0, 0, 0, 0, 0, 0]<br/>class = SEKER>, fillcolor="#e58139"] ;
383 -> 384 ;
385 [label=<gini = 0.0<br/>samples = 2<br/>value = [0, 0, 0, 2, 0, 0, 0]<br/>class = CALI>, fillcolor="#39e5e2"] ;
383 -> 385 ;
386 [label=<num_preprocess__Extent &le; 0.76<br/>gini = 0.459<br/>samples = 130<br/>value = [3, 0, 1, 93, 20, 8, 5]<br/>class = CALI>, fillcolor="#7ceeec"] ;
372 -> 386 ;
387 [label=<num_preprocess__ConvexArea &le; 0.828<br/>gini = 0.356<br/>samples = 107<br/>value = [2, 0, 0, 85, 9, 7, 4]<br/>class = CALI>, fillcolor="#65ebe9"] ;
386 -> 387 ;
388 [label=<num_preprocess__Area &le; 0.611<br/>gini = 0.277<br/>samples = 97<br/>value = [1, 0, 0, 82, 8, 3, 3]<br/>class = CALI>, fillcolor="#5ae9e7"] ;
387 -> 388 ;
389 [label=<gini = 0.163<br/>samples = 79<br/>value = [0, 0, 0, 72, 6, 0, 1]<br/>class = CALI>, fillcolor="#4ce7e5"] ;
388 -> 389 ;
390 [label=<gini = 0.636<br/>samples = 18<br/>value = [1, 0, 0, 10, 2, 3, 2]<br/>class = CALI>, fillcolor="#a3f3f1"] ;
388 -> 390 ;
391 [label=<num_preprocess__roundness &le; 0.437<br/>gini = 0.72<br/>samples = 10<br/>value = [1, 0, 0, 3, 1, 4, 1]<br/>class = SIRA>, fillcolor="#f4e3fb"] ;
387 -> 391 ;
392 [label=<gini = 0.0<br/>samples = 4<br/>value = [0, 0, 0, 0, 0, 4, 0]<br/>class = SIRA>, fillcolor="#b139e5"] ;
391 -> 392 ;
393 [label=<gini = 0.667<br/>samples = 6<br/>value = [1, 0, 0, 3, 1, 0, 1]<br/>class = CALI>, fillcolor="#b0f5f3"] ;
391 -> 393 ;
394 [label=<num_preprocess__ConvexArea &le; 0.332<br/>gini = 0.643<br/>samples = 23<br/>value = [1, 0, 1, 8, 11, 1, 1]<br/>class = HOROZ>, fillcolor="#d7ddfa"] ;
386 -> 394 ;
395 [label=<num_preprocess__MinorAxisLength &le; 0.067<br/>gini = 0.292<br/>samples = 12<br/>value = [0, 0, 0, 1, 10, 0, 1]<br/>class = HOROZ>, fillcolor="#5d75ea"] ;
394 -> 395 ;
396 [label=<gini = 0.5<br/>samples = 2<br/>value = [0, 0, 0, 1, 0, 0, 1]<br/>class = CALI>, fillcolor="#ffffff"] ;
395 -> 396 ;
397 [label=<gini = 0.0<br/>samples = 10<br/>value = [0, 0, 0, 0, 10, 0, 0]<br/>class = HOROZ>, fillcolor="#3956e5"] ;
395 -> 397 ;
398 [label=<num_preprocess__Area &le; 0.402<br/>gini = 0.562<br/>samples = 11<br/>value = [1, 0, 1, 7, 1, 1, 0]<br/>class = CALI>, fillcolor="#88efee"] ;
394 -> 398 ;
399 [label=<gini = 0.0<br/>samples = 6<br/>value = [0, 0, 0, 6, 0, 0, 0]<br/>class = CALI>, fillcolor="#39e5e2"] ;
398 -> 399 ;
400 [label=<gini = 0.8<br/>samples = 5<br/>value = [1, 0, 1, 1, 1, 1, 0]<br/>class = SEKER>, fillcolor="#ffffff"] ;
398 -> 400 ;
401 [label=<num_preprocess__MajorAxisLength &le; 0.611<br/>gini = 0.702<br/>samples = 313<br/>value = [18, 2, 27, 79, 144, 11, 32]<br/>class = HOROZ>, fillcolor="#c8d0f8"] ;
371 -> 401 ;
402 [label=<num_preprocess__EquivDiameter &le; 0.691<br/>gini = 0.778<br/>samples = 155<br/>value = [12, 1, 18, 52, 37, 8, 27]<br/>class = CALI>, fillcolor="#e6fcfb"] ;
401 -> 402 ;
403 [label=<num_preprocess__Area &le; 0.653<br/>gini = 0.767<br/>samples = 102<br/>value = [10, 0, 18, 22, 35, 0, 17]<br/>class = HOROZ>, fillcolor="#dfe4fb"] ;
402 -> 403 ;
404 [label=<num_preprocess__ShapeFactor2 &le; 0.799<br/>gini = 0.683<br/>samples = 71<br/>value = [4, 0, 3, 17, 33, 0, 14]<br/>class = HOROZ>, fillcolor="#c4cdf7"] ;
403 -> 404 ;
405 [label=<gini = 0.661<br/>samples = 65<br/>value = [4, 0, 3, 11, 33, 0, 14]<br/>class = HOROZ>, fillcolor="#b5c0f5"] ;
404 -> 405 ;
406 [label=<gini = 0.0<br/>samples = 6<br/>value = [0, 0, 0, 6, 0, 0, 0]<br/>class = CALI>, fillcolor="#39e5e2"] ;
404 -> 406 ;
407 [label=<num_preprocess__ShapeFactor4 &le; 0.352<br/>gini = 0.689<br/>samples = 31<br/>value = [6, 0, 15, 5, 2, 0, 3]<br/>class = BOMBAY>, fillcolor="#b8f6bf"] ;
403 -> 407 ;
408 [label=<gini = 0.438<br/>samples = 19<br/>value = [1, 0, 14, 1, 2, 0, 1]<br/>class = BOMBAY>, fillcolor="#73ed81"] ;
407 -> 408 ;
409 [label=<gini = 0.681<br/>samples = 12<br/>value = [5, 0, 1, 4, 0, 0, 2]<br/>class = SEKER>, fillcolor="#fcefe6"] ;
407 -> 409 ;
410 [label=<num_preprocess__Compactness &le; 0.176<br/>gini = 0.618<br/>samples = 53<br/>value = [2, 1, 0, 30, 2, 8, 10]<br/>class = CALI>, fillcolor="#a3f3f2"] ;
402 -> 410 ;
411 [label=<num_preprocess__Eccentricity &le; 0.225<br/>gini = 0.339<br/>samples = 31<br/>value = [1, 0, 0, 25, 1, 2, 2]<br/>class = CALI>, fillcolor="#62eae8"] ;
410 -> 411 ;
412 [label=<gini = 0.5<br/>samples = 2<br/>value = [0, 0, 0, 0, 0, 1, 1]<br/>class = SIRA>, fillcolor="#ffffff"] ;
411 -> 412 ;
413 [label=<gini = 0.252<br/>samples = 29<br/>value = [1, 0, 0, 25, 1, 1, 1]<br/>class = CALI>, fillcolor="#55e9e6"] ;
411 -> 413 ;
414 [label=<num_preprocess__roundness &le; 0.369<br/>gini = 0.736<br/>samples = 22<br/>value = [1, 1, 0, 5, 1, 6, 8]<br/>class = DERMASON>, fillcolor="#fce6f0"] ;
410 -> 414 ;
415 [label=<gini = 0.278<br/>samples = 6<br/>value = [0, 0, 0, 1, 0, 5, 0]<br/>class = SIRA>, fillcolor="#c161ea"] ;
414 -> 415 ;
416 [label=<gini = 0.672<br/>samples = 16<br/>value = [1, 1, 0, 4, 1, 1, 8]<br/>class = DERMASON>, fillcolor="#f6bdd7"] ;
414 -> 416 ;
417 [label=<num_preprocess__Compactness &le; 0.156<br/>gini = 0.506<br/>samples = 158<br/>value = [6, 1, 9, 27, 107, 3, 5]<br/>class = HOROZ>, fillcolor="#8698ef"] ;
401 -> 417 ;
418 [label=<num_preprocess__ShapeFactor2 &le; 0.811<br/>gini = 0.246<br/>samples = 74<br/>value = [1, 1, 2, 5, 64, 1, 0]<br/>class = HOROZ>, fillcolor="#566ee9"] ;
417 -> 418 ;
419 [label=<num_preprocess__ConvexArea &le; 0.974<br/>gini = 0.171<br/>samples = 66<br/>value = [1, 1, 2, 2, 60, 0, 0]<br/>class = HOROZ>, fillcolor="#4c66e7"] ;
418 -> 419 ;
420 [label=<gini = 0.146<br/>samples = 65<br/>value = [1, 0, 2, 2, 60, 0, 0]<br/>class = HOROZ>, fillcolor="#4963e7"] ;
419 -> 420 ;
421 [label=<gini = 0.0<br/>samples = 1<br/>value = [0, 1, 0, 0, 0, 0, 0]<br/>class = BARBUNYA>, fillcolor="#b7e539"] ;
419 -> 421 ;
422 [label=<num_preprocess__EquivDiameter &le; 0.583<br/>gini = 0.594<br/>samples = 8<br/>value = [0, 0, 0, 3, 4, 1, 0]<br/>class = HOROZ>, fillcolor="#d7ddfa"] ;
418 -> 422 ;
423 [label=<gini = 0.0<br/>samples = 4<br/>value = [0, 0, 0, 0, 4, 0, 0]<br/>class = HOROZ>, fillcolor="#3956e5"] ;
422 -> 423 ;
424 [label=<gini = 0.375<br/>samples = 4<br/>value = [0, 0, 0, 3, 0, 1, 0]<br/>class = CALI>, fillcolor="#7beeec"] ;
422 -> 424 ;
425 [label=<num_preprocess__ShapeFactor4 &le; 0.331<br/>gini = 0.655<br/>samples = 84<br/>value = [5, 0, 7, 22, 43, 2, 5]<br/>class = HOROZ>, fillcolor="#bcc6f6"] ;
417 -> 425 ;
426 [label=<num_preprocess__ConvexArea &le; 0.628<br/>gini = 0.551<br/>samples = 56<br/>value = [2, 0, 7, 7, 36, 1, 3]<br/>class = HOROZ>, fillcolor="#8a9bf0"] ;
425 -> 426 ;
427 [label=<gini = 0.323<br/>samples = 43<br/>value = [1, 0, 4, 3, 35, 0, 0]<br/>class = HOROZ>, fillcolor="#6279ea"] ;
426 -> 427 ;
428 [label=<gini = 0.781<br/>samples = 13<br/>value = [1, 0, 3, 4, 1, 1, 3]<br/>class = CALI>, fillcolor="#ebfcfc"] ;
426 -> 428 ;
429 [label=<num_preprocess__AspectRation &le; 0.57<br/>gini = 0.633<br/>samples = 28<br/>value = [3, 0, 0, 15, 7, 1, 2]<br/>class = CALI>, fillcolor="#b4f5f4"] ;
425 -> 429 ;
430 [label=<gini = 0.432<br/>samples = 19<br/>value = [1, 0, 0, 14, 2, 0, 2]<br/>class = CALI>, fillcolor="#73edeb"] ;
429 -> 430 ;
431 [label=<gini = 0.617<br/>samples = 9<br/>value = [2, 0, 0, 1, 5, 1, 0]<br/>class = HOROZ>, fillcolor="#aab7f4"] ;
429 -> 431 ;
432 [label=<num_preprocess__ConvexArea &le; 0.499<br/>gini = 0.707<br/>samples = 619<br/>value = [43, 5, 9, 271, 44, 171, 76]<br/>class = CALI>, fillcolor="#d3f9f9"] ;
370 -> 432 ;
433 [label=<num_preprocess__Eccentricity &le; 0.268<br/>gini = 0.644<br/>samples = 409<br/>value = [11, 0, 4, 220, 40, 83, 51]<br/>class = CALI>, fillcolor="#acf4f3"] ;
432 -> 433 ;
434 [label=<num_preprocess__EquivDiameter &le; 0.674<br/>gini = 0.68<br/>samples = 68<br/>value = [2, 0, 4, 14, 2, 33, 13]<br/>class = SIRA>, fillcolor="#e4b9f6"] ;
433 -> 434 ;
435 [label=<num_preprocess__ShapeFactor1 &le; 0.624<br/>gini = 0.762<br/>samples = 45<br/>value = [2, 0, 4, 12, 2, 13, 12]<br/>class = SIRA>, fillcolor="#fdf9fe"] ;
434 -> 435 ;
436 [label=<num_preprocess__MinorAxisLength &le; 0.329<br/>gini = 0.719<br/>samples = 26<br/>value = [2, 0, 4, 3, 1, 12, 4]<br/>class = SIRA>, fillcolor="#e3b7f6"] ;
435 -> 436 ;
437 [label=<gini = 0.59<br/>samples = 20<br/>value = [1, 0, 0, 3, 1, 12, 3]<br/>class = SIRA>, fillcolor="#d696f1"] ;
436 -> 437 ;
438 [label=<gini = 0.5<br/>samples = 6<br/>value = [1, 0, 4, 0, 0, 0, 1]<br/>class = BOMBAY>, fillcolor="#88ef94"] ;
436 -> 438 ;
439 [label=<num_preprocess__ShapeFactor4 &le; 0.816<br/>gini = 0.593<br/>samples = 19<br/>value = [0, 0, 0, 9, 1, 1, 8]<br/>class = CALI>, fillcolor="#edfdfc"] ;
435 -> 439 ;
440 [label=<gini = 0.46<br/>samples = 10<br/>value = [0, 0, 0, 2, 1, 0, 7]<br/>class = DERMASON>, fillcolor="#ef83b3"] ;
439 -> 440 ;
441 [label=<gini = 0.37<br/>samples = 9<br/>value = [0, 0, 0, 7, 0, 1, 1]<br/>class = CALI>, fillcolor="#6aece9"] ;
439 -> 441 ;
442 [label=<num_preprocess__ShapeFactor4 &le; 0.545<br/>gini = 0.234<br/>samples = 23<br/>value = [0, 0, 0, 2, 0, 20, 1]<br/>class = SIRA>, fillcolor="#bc55e9"] ;
434 -> 442 ;
443 [label=<gini = 0.0<br/>samples = 1<br/>value = [0, 0, 0, 0, 0, 0, 1]<br/>class = DERMASON>, fillcolor="#e53986"] ;
442 -> 443 ;
444 [label=<num_preprocess__Compactness &le; 0.026<br/>gini = 0.165<br/>samples = 22<br/>value = [0, 0, 0, 2, 0, 20, 0]<br/>class = SIRA>, fillcolor="#b94de8"] ;
442 -> 444 ;
445 [label=<gini = 0.5<br/>samples = 4<br/>value = [0, 0, 0, 2, 0, 2, 0]<br/>class = CALI>, fillcolor="#ffffff"] ;
444 -> 445 ;
446 [label=<gini = 0.0<br/>samples = 18<br/>value = [0, 0, 0, 0, 0, 18, 0]<br/>class = SIRA>, fillcolor="#b139e5"] ;
444 -> 446 ;
447 [label=<num_preprocess__ShapeFactor2 &le; 0.648<br/>gini = 0.588<br/>samples = 341<br/>value = [9, 0, 0, 206, 38, 50, 38]<br/>class = CALI>, fillcolor="#95f1ef"] ;
433 -> 447 ;
448 [label=<num_preprocess__ShapeFactor1 &le; 0.732<br/>gini = 0.699<br/>samples = 177<br/>value = [8, 0, 0, 83, 30, 27, 29]<br/>class = CALI>, fillcolor="#b8f6f5"] ;
447 -> 448 ;
449 [label=<num_preprocess__Solidity &le; 0.554<br/>gini = 0.765<br/>samples = 120<br/>value = [8, 0, 0, 39, 26, 20, 27]<br/>class = CALI>, fillcolor="#e5fcfb"] ;
448 -> 449 ;
450 [label=<gini = 0.6<br/>samples = 49<br/>value = [2, 0, 0, 29, 4, 8, 6]<br/>class = CALI>, fillcolor="#9af2f0"] ;
449 -> 450 ;
451 [label=<gini = 0.761<br/>samples = 71<br/>value = [6, 0, 0, 10, 22, 12, 21]<br/>class = HOROZ>, fillcolor="#fbfcfe"] ;
449 -> 451 ;
452 [label=<num_preprocess__Compactness &le; 0.322<br/>gini = 0.383<br/>samples = 57<br/>value = [0, 0, 0, 44, 4, 7, 2]<br/>class = CALI>, fillcolor="#6cecea"] ;
448 -> 452 ;
453 [label=<gini = 0.285<br/>samples = 50<br/>value = [0, 0, 0, 42, 2, 4, 2]<br/>class = CALI>, fillcolor="#5beae7"] ;
452 -> 453 ;
454 [label=<gini = 0.653<br/>samples = 7<br/>value = [0, 0, 0, 2, 2, 3, 0]<br/>class = SIRA>, fillcolor="#efd7fa"] ;
452 -> 454 ;
455 [label=<num_preprocess__ShapeFactor3 &le; 0.846<br/>gini = 0.412<br/>samples = 164<br/>value = [1, 0, 0, 123, 8, 23, 9]<br/>class = CALI>, fillcolor="#73edea"] ;
447 -> 455 ;
456 [label=<num_preprocess__MinorAxisLength &le; 0.265<br/>gini = 0.346<br/>samples = 140<br/>value = [1, 0, 0, 112, 7, 14, 6]<br/>class = CALI>, fillcolor="#65ebe8"] ;
455 -> 456 ;
457 [label=<gini = 0.227<br/>samples = 104<br/>value = [0, 0, 0, 91, 3, 8, 2]<br/>class = CALI>, fillcolor="#54e9e6"] ;
456 -> 457 ;
458 [label=<gini = 0.606<br/>samples = 36<br/>value = [1, 0, 0, 21, 4, 6, 4]<br/>class = CALI>, fillcolor="#9cf2f0"] ;
456 -> 458 ;
459 [label=<num_preprocess__ShapeFactor4 &le; 0.888<br/>gini = 0.632<br/>samples = 24<br/>value = [0, 0, 0, 11, 1, 9, 3]<br/>class = CALI>, fillcolor="#e5fcfb"] ;
455 -> 459 ;
460 [label=<gini = 0.593<br/>samples = 19<br/>value = [0, 0, 0, 11, 1, 4, 3]<br/>class = CALI>, fillcolor="#a3f3f1"] ;
459 -> 460 ;
461 [label=<gini = 0.0<br/>samples = 5<br/>value = [0, 0, 0, 0, 0, 5, 0]<br/>class = SIRA>, fillcolor="#b139e5"] ;
459 -> 461 ;
462 [label=<num_preprocess__Solidity &le; 0.52<br/>gini = 0.727<br/>samples = 210<br/>value = [32, 5, 5, 51, 4, 88, 25]<br/>class = SIRA>, fillcolor="#edd1f9"] ;
432 -> 462 ;
463 [label=<num_preprocess__ShapeFactor4 &le; 0.581<br/>gini = 0.496<br/>samples = 85<br/>value = [12, 1, 0, 11, 0, 58, 3]<br/>class = SIRA>, fillcolor="#ce82ef"] ;
462 -> 463 ;
464 [label=<num_preprocess__Eccentricity &le; 0.732<br/>gini = 0.653<br/>samples = 14<br/>value = [4, 0, 0, 6, 0, 4, 0]<br/>class = CALI>, fillcolor="#d7faf9"] ;
463 -> 464 ;
465 [label=<num_preprocess__roundness &le; 0.645<br/>gini = 0.49<br/>samples = 7<br/>value = [4, 0, 0, 0, 0, 3, 0]<br/>class = SEKER>, fillcolor="#f8e0ce"] ;
464 -> 465 ;
466 [label=<gini = 0.0<br/>samples = 4<br/>value = [4, 0, 0, 0, 0, 0, 0]<br/>class = SEKER>, fillcolor="#e58139"] ;
465 -> 466 ;
467 [label=<gini = 0.0<br/>samples = 3<br/>value = [0, 0, 0, 0, 0, 3, 0]<br/>class = SIRA>, fillcolor="#b139e5"] ;
465 -> 467 ;
468 [label=<num_preprocess__ConvexArea &le; 0.512<br/>gini = 0.245<br/>samples = 7<br/>value = [0, 0, 0, 6, 0, 1, 0]<br/>class = CALI>, fillcolor="#5ae9e7"] ;
464 -> 468 ;
469 [label=<gini = 0.0<br/>samples = 1<br/>value = [0, 0, 0, 0, 0, 1, 0]<br/>class = SIRA>, fillcolor="#b139e5"] ;
468 -> 469 ;
470 [label=<gini = 0.0<br/>samples = 6<br/>value = [0, 0, 0, 6, 0, 0, 0]<br/>class = CALI>, fillcolor="#39e5e2"] ;
468 -> 470 ;
471 [label=<num_preprocess__ConvexArea &le; 0.514<br/>gini = 0.402<br/>samples = 71<br/>value = [8, 1, 0, 5, 0, 54, 3]<br/>class = SIRA>, fillcolor="#c66eec"] ;
463 -> 471 ;
472 [label=<num_preprocess__ConvexArea &le; 0.51<br/>gini = 0.444<br/>samples = 3<br/>value = [2, 0, 0, 1, 0, 0, 0]<br/>class = SEKER>, fillcolor="#f2c09c"] ;
471 -> 472 ;
473 [label=<gini = 0.0<br/>samples = 2<br/>value = [2, 0, 0, 0, 0, 0, 0]<br/>class = SEKER>, fillcolor="#e58139"] ;
472 -> 473 ;
474 [label=<gini = 0.0<br/>samples = 1<br/>value = [0, 0, 0, 1, 0, 0, 0]<br/>class = CALI>, fillcolor="#39e5e2"] ;
472 -> 474 ;
475 [label=<num_preprocess__EquivDiameter &le; 0.076<br/>gini = 0.356<br/>samples = 68<br/>value = [6, 1, 0, 4, 0, 54, 3]<br/>class = SIRA>, fillcolor="#c366eb"] ;
471 -> 475 ;
476 [label=<gini = 0.72<br/>samples = 5<br/>value = [1, 0, 0, 2, 0, 1, 1]<br/>class = CALI>, fillcolor="#cef8f8"] ;
475 -> 476 ;
477 [label=<gini = 0.284<br/>samples = 63<br/>value = [5, 1, 0, 2, 0, 53, 2]<br/>class = SIRA>, fillcolor="#be5be9"] ;
475 -> 477 ;
478 [label=<num_preprocess__Area &le; 0.723<br/>gini = 0.78<br/>samples = 125<br/>value = [20, 4, 5, 40, 4, 30, 22]<br/>class = CALI>, fillcolor="#eafcfc"] ;
462 -> 478 ;
479 [label=<num_preprocess__Eccentricity &le; 0.289<br/>gini = 0.726<br/>samples = 98<br/>value = [5, 2, 3, 39, 4, 27, 18]<br/>class = CALI>, fillcolor="#defbfa"] ;
478 -> 479 ;
480 [label=<num_preprocess__EquivDiameter &le; 0.18<br/>gini = 0.57<br/>samples = 22<br/>value = [1, 1, 1, 2, 1, 14, 2]<br/>class = SIRA>, fillcolor="#d088ef"] ;
479 -> 480 ;
481 [label=<gini = 0.778<br/>samples = 6<br/>value = [1, 1, 0, 1, 1, 0, 2]<br/>class = DERMASON>, fillcolor="#fad7e7"] ;
480 -> 481 ;
482 [label=<gini = 0.227<br/>samples = 16<br/>value = [0, 0, 1, 1, 0, 14, 0]<br/>class = SIRA>, fillcolor="#bb53e8"] ;
480 -> 482 ;
483 [label=<num_preprocess__ShapeFactor2 &le; 0.604<br/>gini = 0.684<br/>samples = 76<br/>value = [4, 1, 2, 37, 3, 13, 16]<br/>class = CALI>, fillcolor="#baf6f5"] ;
479 -> 483 ;
484 [label=<gini = 0.801<br/>samples = 28<br/>value = [4, 1, 2, 5, 2, 5, 9]<br/>class = DERMASON>, fillcolor="#faddea"] ;
483 -> 484 ;
485 [label=<gini = 0.506<br/>samples = 48<br/>value = [0, 0, 0, 32, 1, 8, 7]<br/>class = CALI>, fillcolor="#88efee"] ;
483 -> 485 ;
486 [label=<num_preprocess__Compactness &le; 0.12<br/>gini = 0.645<br/>samples = 27<br/>value = [15, 2, 2, 1, 0, 3, 4]<br/>class = SEKER>, fillcolor="#f3c3a0"] ;
478 -> 486 ;
487 [label=<num_preprocess__ShapeFactor1 &le; 0.615<br/>gini = 0.741<br/>samples = 9<br/>value = [1, 0, 1, 1, 0, 3, 3]<br/>class = SIRA>, fillcolor="#ffffff"] ;
486 -> 487 ;
488 [label=<gini = 0.56<br/>samples = 5<br/>value = [1, 0, 1, 0, 0, 3, 0]<br/>class = SIRA>, fillcolor="#d89cf2"] ;
487 -> 488 ;
489 [label=<gini = 0.375<br/>samples = 4<br/>value = [0, 0, 0, 1, 0, 0, 3]<br/>class = DERMASON>, fillcolor="#ee7bae"] ;
487 -> 489 ;
490 [label=<num_preprocess__ShapeFactor2 &le; 0.584<br/>gini = 0.377<br/>samples = 18<br/>value = [14, 2, 1, 0, 0, 0, 1]<br/>class = SEKER>, fillcolor="#eca06a"] ;
486 -> 490 ;
491 [label=<gini = 0.625<br/>samples = 4<br/>value = [1, 2, 1, 0, 0, 0, 0]<br/>class = BARBUNYA>, fillcolor="#e7f6bd"] ;
490 -> 491 ;
492 [label=<gini = 0.133<br/>samples = 14<br/>value = [13, 0, 0, 0, 0, 0, 1]<br/>class = SEKER>, fillcolor="#e78b48"] ;
490 -> 492 ;
493 [label=<num_preprocess__Solidity &le; 0.475<br/>gini = 0.771<br/>samples = 5351<br/>value = [1259, 390, 295, 817, 194, 1961, 435]<br/>class = SIRA>, fillcolor="#f2ddfb"] ;
1 -> 493 ;
494 [label=<num_preprocess__roundness &le; 0.476<br/>gini = 0.611<br/>samples = 2095<br/>value = [369, 68, 27, 309, 18, 1209, 95]<br/>class = SIRA>, fillcolor="#d99ff2"] ;
493 -> 494 ;
495 [label=<num_preprocess__Perimeter &le; 0.649<br/>gini = 0.462<br/>samples = 1147<br/>value = [192, 14, 1, 103, 6, 812, 19]<br/>class = SIRA>, fillcolor="#cc7eee"] ;
494 -> 495 ;
496 [label=<num_preprocess__EquivDiameter &le; 0.429<br/>gini = 0.404<br/>samples = 931<br/>value = [106, 4, 0, 98, 5, 704, 14]<br/>class = SIRA>, fillcolor="#c66fec"] ;
495 -> 496 ;
497 [label=<num_preprocess__MajorAxisLength &le; 0.432<br/>gini = 0.54<br/>samples = 461<br/>value = [70, 3, 0, 80, 5, 294, 9]<br/>class = SIRA>, fillcolor="#d390f0"] ;
496 -> 497 ;
498 [label=<num_preprocess__Solidity &le; 0.22<br/>gini = 0.377<br/>samples = 261<br/>value = [43, 1, 0, 13, 0, 201, 3]<br/>class = SIRA>, fillcolor="#c66fec"] ;
497 -> 498 ;
499 [label=<num_preprocess__AspectRation &le; 0.072<br/>gini = 0.248<br/>samples = 179<br/>value = [19, 1, 0, 4, 0, 154, 1]<br/>class = SIRA>, fillcolor="#bd58e9"] ;
498 -> 499 ;
500 [label=<num_preprocess__Compactness &le; 0.468<br/>gini = 0.411<br/>samples = 88<br/>value = [18, 1, 0, 3, 0, 65, 1]<br/>class = SIRA>, fillcolor="#cb7aee"] ;
499 -> 500 ;
501 [label=<gini = 0.58<br/>samples = 10<br/>value = [6, 0, 0, 1, 0, 2, 1]<br/>class = SEKER>, fillcolor="#f2c09c"] ;
500 -> 501 ;
502 [label=<gini = 0.323<br/>samples = 78<br/>value = [12, 1, 0, 2, 0, 63, 0]<br/>class = SIRA>, fillcolor="#c366eb"] ;
500 -> 502 ;
503 [label=<num_preprocess__Area &le; 0.893<br/>gini = 0.043<br/>samples = 91<br/>value = [1, 0, 0, 1, 0, 89, 0]<br/>class = SIRA>, fillcolor="#b33de6"] ;
499 -> 503 ;
504 [label=<gini = 0.022<br/>samples = 89<br/>value = [0, 0, 0, 1, 0, 88, 0]<br/>class = SIRA>, fillcolor="#b23be5"] ;
503 -> 504 ;
505 [label=<gini = 0.5<br/>samples = 2<br/>value = [1, 0, 0, 0, 0, 1, 0]<br/>class = SEKER>, fillcolor="#ffffff"] ;
503 -> 505 ;
506 [label=<num_preprocess__ConvexArea &le; 0.688<br/>gini = 0.573<br/>samples = 82<br/>value = [24, 0, 0, 9, 0, 47, 2]<br/>class = SIRA>, fillcolor="#e0b0f5"] ;
498 -> 506 ;
507 [label=<num_preprocess__AspectRation &le; 0.75<br/>gini = 0.537<br/>samples = 66<br/>value = [13, 0, 0, 9, 0, 42, 2]<br/>class = SIRA>, fillcolor="#d493f1"] ;
506 -> 507 ;
508 [label=<gini = 0.627<br/>samples = 45<br/>value = [12, 0, 0, 9, 0, 23, 1]<br/>class = SIRA>, fillcolor="#e5bdf6"] ;
507 -> 508 ;
509 [label=<gini = 0.177<br/>samples = 21<br/>value = [1, 0, 0, 0, 0, 19, 1]<br/>class = SIRA>, fillcolor="#b94de8"] ;
507 -> 509 ;
510 [label=<num_preprocess__Area &le; 0.191<br/>gini = 0.43<br/>samples = 16<br/>value = [11, 0, 0, 0, 0, 5, 0]<br/>class = SEKER>, fillcolor="#f1ba93"] ;
506 -> 510 ;
511 [label=<gini = 0.0<br/>samples = 4<br/>value = [0, 0, 0, 0, 0, 4, 0]<br/>class = SIRA>, fillcolor="#b139e5"] ;
510 -> 511 ;
512 [label=<gini = 0.153<br/>samples = 12<br/>value = [11, 0, 0, 0, 0, 1, 0]<br/>class = SEKER>, fillcolor="#e78c4b"] ;
510 -> 512 ;
513 [label=<num_preprocess__ShapeFactor4 &le; 0.544<br/>gini = 0.652<br/>samples = 200<br/>value = [27, 2, 0, 67, 5, 93, 6]<br/>class = SIRA>, fillcolor="#f0d8fa"] ;
497 -> 513 ;
514 [label=<num_preprocess__Compactness &le; 0.852<br/>gini = 0.632<br/>samples = 109<br/>value = [13, 2, 0, 59, 5, 26, 4]<br/>class = CALI>, fillcolor="#b0f5f3"] ;
513 -> 514 ;
515 [label=<num_preprocess__ConvexArea &le; 0.465<br/>gini = 0.545<br/>samples = 86<br/>value = [8, 2, 0, 56, 5, 11, 4]<br/>class = CALI>, fillcolor="#88efee"] ;
514 -> 515 ;
516 [label=<gini = 0.38<br/>samples = 63<br/>value = [1, 0, 0, 49, 5, 4, 4]<br/>class = CALI>, fillcolor="#69ebe9"] ;
515 -> 516 ;
517 [label=<gini = 0.715<br/>samples = 23<br/>value = [7, 2, 0, 7, 0, 7, 0]<br/>class = SEKER>, fillcolor="#ffffff"] ;
515 -> 517 ;
518 [label=<num_preprocess__Perimeter &le; 0.46<br/>gini = 0.51<br/>samples = 23<br/>value = [5, 0, 0, 3, 0, 15, 0]<br/>class = SIRA>, fillcolor="#d491f1"] ;
514 -> 518 ;
519 [label=<gini = 0.405<br/>samples = 20<br/>value = [2, 0, 0, 3, 0, 15, 0]<br/>class = SIRA>, fillcolor="#c873ed"] ;
518 -> 519 ;
520 [label=<gini = 0.0<br/>samples = 3<br/>value = [3, 0, 0, 0, 0, 0, 0]<br/>class = SEKER>, fillcolor="#e58139"] ;
518 -> 520 ;
521 [label=<num_preprocess__Area &le; 0.735<br/>gini = 0.426<br/>samples = 91<br/>value = [14, 0, 0, 8, 0, 67, 2]<br/>class = SIRA>, fillcolor="#c977ed"] ;
513 -> 521 ;
522 [label=<num_preprocess__Solidity &le; 0.469<br/>gini = 0.337<br/>samples = 82<br/>value = [7, 0, 0, 7, 0, 66, 2]<br/>class = SIRA>, fillcolor="#c263eb"] ;
521 -> 522 ;
523 [label=<gini = 0.306<br/>samples = 80<br/>value = [6, 0, 0, 7, 0, 66, 1]<br/>class = SIRA>, fillcolor="#c05fea"] ;
522 -> 523 ;
524 [label=<gini = 0.5<br/>samples = 2<br/>value = [1, 0, 0, 0, 0, 0, 1]<br/>class = SEKER>, fillcolor="#ffffff"] ;
522 -> 524 ;
525 [label=<num_preprocess__Perimeter &le; 0.129<br/>gini = 0.37<br/>samples = 9<br/>value = [7, 0, 0, 1, 0, 1, 0]<br/>class = SEKER>, fillcolor="#eca06a"] ;
521 -> 525 ;
526 [label=<gini = 0.5<br/>samples = 2<br/>value = [0, 0, 0, 1, 0, 1, 0]<br/>class = CALI>, fillcolor="#ffffff"] ;
525 -> 526 ;
527 [label=<gini = 0.0<br/>samples = 7<br/>value = [7, 0, 0, 0, 0, 0, 0]<br/>class = SEKER>, fillcolor="#e58139"] ;
525 -> 527 ;
528 [label=<num_preprocess__Area &le; 0.581<br/>gini = 0.232<br/>samples = 470<br/>value = [36, 1, 0, 18, 0, 410, 5]<br/>class = SIRA>, fillcolor="#bc54e9"] ;
496 -> 528 ;
529 [label=<num_preprocess__MajorAxisLength &le; 0.575<br/>gini = 0.172<br/>samples = 359<br/>value = [14, 0, 0, 15, 0, 326, 4]<br/>class = SIRA>, fillcolor="#b84ce7"] ;
528 -> 529 ;
530 [label=<num_preprocess__Solidity &le; 0.463<br/>gini = 0.072<br/>samples = 242<br/>value = [6, 0, 0, 2, 0, 233, 1]<br/>class = SIRA>, fillcolor="#b441e6"] ;
529 -> 530 ;
531 [label=<num_preprocess__Eccentricity &le; 0.99<br/>gini = 0.058<br/>samples = 236<br/>value = [4, 0, 0, 2, 0, 229, 1]<br/>class = SIRA>, fillcolor="#b33fe6"] ;
530 -> 531 ;
532 [label=<gini = 0.05<br/>samples = 234<br/>value = [4, 0, 0, 1, 0, 228, 1]<br/>class = SIRA>, fillcolor="#b33ee6"] ;
531 -> 532 ;
533 [label=<gini = 0.5<br/>samples = 2<br/>value = [0, 0, 0, 1, 0, 1, 0]<br/>class = CALI>, fillcolor="#ffffff"] ;
531 -> 533 ;
534 [label=<num_preprocess__ShapeFactor1 &le; 0.329<br/>gini = 0.444<br/>samples = 6<br/>value = [2, 0, 0, 0, 0, 4, 0]<br/>class = SIRA>, fillcolor="#d89cf2"] ;
530 -> 534 ;
535 [label=<gini = 0.0<br/>samples = 2<br/>value = [2, 0, 0, 0, 0, 0, 0]<br/>class = SEKER>, fillcolor="#e58139"] ;
534 -> 535 ;
536 [label=<gini = 0.0<br/>samples = 4<br/>value = [0, 0, 0, 0, 0, 4, 0]<br/>class = SIRA>, fillcolor="#b139e5"] ;
534 -> 536 ;
537 [label=<num_preprocess__Compactness &le; 0.519<br/>gini = 0.351<br/>samples = 117<br/>value = [8, 0, 0, 13, 0, 93, 3]<br/>class = SIRA>, fillcolor="#c367eb"] ;
529 -> 537 ;
538 [label=<num_preprocess__ShapeFactor4 &le; 0.344<br/>gini = 0.618<br/>samples = 26<br/>value = [2, 0, 0, 9, 0, 13, 2]<br/>class = SIRA>, fillcolor="#edd0f9"] ;
537 -> 538 ;
539 [label=<gini = 0.37<br/>samples = 9<br/>value = [0, 0, 0, 7, 0, 1, 1]<br/>class = CALI>, fillcolor="#6aece9"] ;
538 -> 539 ;
540 [label=<gini = 0.471<br/>samples = 17<br/>value = [2, 0, 0, 2, 0, 12, 1]<br/>class = SIRA>, fillcolor="#cb7bee"] ;
538 -> 540 ;
541 [label=<num_preprocess__MajorAxisLength &le; 0.594<br/>gini = 0.221<br/>samples = 91<br/>value = [6, 0, 0, 4, 0, 80, 1]<br/>class = SIRA>, fillcolor="#bb53e8"] ;
537 -> 541 ;
542 [label=<gini = 0.375<br/>samples = 4<br/>value = [3, 0, 0, 0, 0, 1, 0]<br/>class = SEKER>, fillcolor="#eeab7b"] ;
541 -> 542 ;
543 [label=<gini = 0.172<br/>samples = 87<br/>value = [3, 0, 0, 4, 0, 79, 1]<br/>class = SIRA>, fillcolor="#b94ce8"] ;
541 -> 543 ;
544 [label=<num_preprocess__ShapeFactor2 &le; 0.343<br/>gini = 0.387<br/>samples = 111<br/>value = [22, 1, 0, 3, 0, 84, 1]<br/>class = SIRA>, fillcolor="#c975ed"] ;
528 -> 544 ;
545 [label=<num_preprocess__Compactness &le; 0.785<br/>gini = 0.553<br/>samples = 35<br/>value = [16, 1, 0, 0, 0, 17, 1]<br/>class = SIRA>, fillcolor="#fbf5fe"] ;
544 -> 545 ;
546 [label=<num_preprocess__ConvexArea &le; 0.062<br/>gini = 0.503<br/>samples = 23<br/>value = [15, 1, 0, 0, 0, 6, 1]<br/>class = SEKER>, fillcolor="#f1bc96"] ;
545 -> 546 ;
547 [label=<gini = 0.0<br/>samples = 3<br/>value = [0, 0, 0, 0, 0, 3, 0]<br/>class = SIRA>, fillcolor="#b139e5"] ;
546 -> 547 ;
548 [label=<gini = 0.41<br/>samples = 20<br/>value = [15, 1, 0, 0, 0, 3, 1]<br/>class = SEKER>, fillcolor="#eda673"] ;
546 -> 548 ;
549 [label=<num_preprocess__MinorAxisLength &le; 0.393<br/>gini = 0.153<br/>samples = 12<br/>value = [1, 0, 0, 0, 0, 11, 0]<br/>class = SIRA>, fillcolor="#b84be7"] ;
545 -> 549 ;
550 [label=<gini = 0.0<br/>samples = 11<br/>value = [0, 0, 0, 0, 0, 11, 0]<br/>class = SIRA>, fillcolor="#b139e5"] ;
549 -> 550 ;
551 [label=<gini = 0.0<br/>samples = 1<br/>value = [1, 0, 0, 0, 0, 0, 0]<br/>class = SEKER>, fillcolor="#e58139"] ;
549 -> 551 ;
552 [label=<num_preprocess__MinorAxisLength &le; 0.012<br/>gini = 0.215<br/>samples = 76<br/>value = [6, 0, 0, 3, 0, 67, 0]<br/>class = SIRA>, fillcolor="#bb52e8"] ;
544 -> 552 ;
553 [label=<num_preprocess__EquivDiameter &le; 0.665<br/>gini = 0.5<br/>samples = 2<br/>value = [1, 0, 0, 1, 0, 0, 0]<br/>class = SEKER>, fillcolor="#ffffff"] ;
552 -> 553 ;
554 [label=<gini = 0.0<br/>samples = 1<br/>value = [0, 0, 0, 1, 0, 0, 0]<br/>class = CALI>, fillcolor="#39e5e2"] ;
553 -> 554 ;
555 [label=<gini = 0.0<br/>samples = 1<br/>value = [1, 0, 0, 0, 0, 0, 0]<br/>class = SEKER>, fillcolor="#e58139"] ;
553 -> 555 ;
556 [label=<num_preprocess__Eccentricity &le; 0.855<br/>gini = 0.175<br/>samples = 74<br/>value = [5, 0, 0, 2, 0, 67, 0]<br/>class = SIRA>, fillcolor="#b94de8"] ;
552 -> 556 ;
557 [label=<gini = 0.036<br/>samples = 54<br/>value = [1, 0, 0, 0, 0, 53, 0]<br/>class = SIRA>, fillcolor="#b23de5"] ;
556 -> 557 ;
558 [label=<gini = 0.46<br/>samples = 20<br/>value = [4, 0, 0, 2, 0, 14, 0]<br/>class = SIRA>, fillcolor="#ce83ef"] ;
556 -> 558 ;
559 [label=<num_preprocess__ShapeFactor2 &le; 0.363<br/>gini = 0.588<br/>samples = 216<br/>value = [86, 10, 1, 5, 1, 108, 5]<br/>class = SIRA>, fillcolor="#f2ddfb"] ;
495 -> 559 ;
560 [label=<num_preprocess__ShapeFactor1 &le; 0.725<br/>gini = 0.598<br/>samples = 94<br/>value = [54, 9, 1, 1, 1, 23, 5]<br/>class = SEKER>, fillcolor="#f4c8a9"] ;
559 -> 560 ;
561 [label=<num_preprocess__MajorAxisLength &le; 0.868<br/>gini = 0.505<br/>samples = 74<br/>value = [50, 7, 1, 0, 0, 12, 4]<br/>class = SEKER>, fillcolor="#efb286"] ;
560 -> 561 ;
562 [label=<num_preprocess__ConvexArea &le; 0.284<br/>gini = 0.46<br/>samples = 69<br/>value = [49, 3, 1, 0, 0, 12, 4]<br/>class = SEKER>, fillcolor="#eead7e"] ;
561 -> 562 ;
563 [label=<num_preprocess__MinorAxisLength &le; 0.174<br/>gini = 0.618<br/>samples = 34<br/>value = [18, 1, 1, 0, 0, 10, 4]<br/>class = SEKER>, fillcolor="#f6d5bd"] ;
562 -> 563 ;
564 [label=<gini = 0.635<br/>samples = 20<br/>value = [7, 0, 0, 0, 0, 9, 4]<br/>class = SIRA>, fillcolor="#f3e1fb"] ;
563 -> 564 ;
565 [label=<gini = 0.367<br/>samples = 14<br/>value = [11, 1, 1, 0, 0, 1, 0]<br/>class = SEKER>, fillcolor="#eb9e67"] ;
563 -> 565 ;
566 [label=<num_preprocess__ShapeFactor3 &le; 0.971<br/>gini = 0.209<br/>samples = 35<br/>value = [31, 2, 0, 0, 0, 2, 0]<br/>class = SEKER>, fillcolor="#e89051"] ;
562 -> 566 ;
567 [label=<gini = 0.164<br/>samples = 34<br/>value = [31, 2, 0, 0, 0, 1, 0]<br/>class = SEKER>, fillcolor="#e78d4c"] ;
566 -> 567 ;
568 [label=<gini = 0.0<br/>samples = 1<br/>value = [0, 0, 0, 0, 0, 1, 0]<br/>class = SIRA>, fillcolor="#b139e5"] ;
566 -> 568 ;
569 [label=<num_preprocess__ConvexArea &le; 0.054<br/>gini = 0.32<br/>samples = 5<br/>value = [1, 4, 0, 0, 0, 0, 0]<br/>class = BARBUNYA>, fillcolor="#c9ec6a"] ;
561 -> 569 ;
570 [label=<gini = 0.0<br/>samples = 1<br/>value = [1, 0, 0, 0, 0, 0, 0]<br/>class = SEKER>, fillcolor="#e58139"] ;
569 -> 570 ;
571 [label=<gini = 0.0<br/>samples = 4<br/>value = [0, 4, 0, 0, 0, 0, 0]<br/>class = BARBUNYA>, fillcolor="#b7e539"] ;
569 -> 571 ;
572 [label=<num_preprocess__EquivDiameter &le; 0.54<br/>gini = 0.64<br/>samples = 20<br/>value = [4, 2, 0, 1, 1, 11, 1]<br/>class = SIRA>, fillcolor="#dda8f4"] ;
560 -> 572 ;
573 [label=<num_preprocess__Area &le; 0.46<br/>gini = 0.777<br/>samples = 11<br/>value = [4, 2, 0, 1, 1, 2, 1]<br/>class = SEKER>, fillcolor="#f9e3d3"] ;
572 -> 573 ;
574 [label=<num_preprocess__ShapeFactor1 &le; 0.742<br/>gini = 0.72<br/>samples = 5<br/>value = [0, 0, 0, 1, 1, 2, 1]<br/>class = SIRA>, fillcolor="#eccef8"] ;
573 -> 574 ;
575 [label=<gini = 0.0<br/>samples = 2<br/>value = [0, 0, 0, 0, 0, 2, 0]<br/>class = SIRA>, fillcolor="#b139e5"] ;
574 -> 575 ;
576 [label=<gini = 0.667<br/>samples = 3<br/>value = [0, 0, 0, 1, 1, 0, 1]<br/>class = CALI>, fillcolor="#ffffff"] ;
574 -> 576 ;
577 [label=<num_preprocess__ShapeFactor2 &le; 0.027<br/>gini = 0.444<br/>samples = 6<br/>value = [4, 2, 0, 0, 0, 0, 0]<br/>class = SEKER>, fillcolor="#f2c09c"] ;
573 -> 577 ;
578 [label=<gini = 0.0<br/>samples = 2<br/>value = [0, 2, 0, 0, 0, 0, 0]<br/>class = BARBUNYA>, fillcolor="#b7e539"] ;
577 -> 578 ;
579 [label=<gini = 0.0<br/>samples = 4<br/>value = [4, 0, 0, 0, 0, 0, 0]<br/>class = SEKER>, fillcolor="#e58139"] ;
577 -> 579 ;
580 [label=<gini = 0.0<br/>samples = 9<br/>value = [0, 0, 0, 0, 0, 9, 0]<br/>class = SIRA>, fillcolor="#b139e5"] ;
572 -> 580 ;
581 [label=<num_preprocess__ShapeFactor1 &le; 0.333<br/>gini = 0.445<br/>samples = 122<br/>value = [32, 1, 0, 4, 0, 85, 0]<br/>class = SIRA>, fillcolor="#d18af0"] ;
559 -> 581 ;
582 [label=<num_preprocess__Compactness &le; 0.791<br/>gini = 0.48<br/>samples = 20<br/>value = [12, 0, 0, 0, 0, 8, 0]<br/>class = SEKER>, fillcolor="#f6d5bd"] ;
581 -> 582 ;
583 [label=<num_preprocess__Eccentricity &le; 0.783<br/>gini = 0.165<br/>samples = 11<br/>value = [10, 0, 0, 0, 0, 1, 0]<br/>class = SEKER>, fillcolor="#e88e4d"] ;
582 -> 583 ;
584 [label=<gini = 0.0<br/>samples = 10<br/>value = [10, 0, 0, 0, 0, 0, 0]<br/>class = SEKER>, fillcolor="#e58139"] ;
583 -> 584 ;
585 [label=<gini = 0.0<br/>samples = 1<br/>value = [0, 0, 0, 0, 0, 1, 0]<br/>class = SIRA>, fillcolor="#b139e5"] ;
583 -> 585 ;
586 [label=<num_preprocess__ShapeFactor1 &le; 0.295<br/>gini = 0.346<br/>samples = 9<br/>value = [2, 0, 0, 0, 0, 7, 0]<br/>class = SIRA>, fillcolor="#c772ec"] ;
582 -> 586 ;
587 [label=<gini = 0.0<br/>samples = 6<br/>value = [0, 0, 0, 0, 0, 6, 0]<br/>class = SIRA>, fillcolor="#b139e5"] ;
586 -> 587 ;
588 [label=<num_preprocess__Solidity &le; 0.095<br/>gini = 0.444<br/>samples = 3<br/>value = [2, 0, 0, 0, 0, 1, 0]<br/>class = SEKER>, fillcolor="#f2c09c"] ;
586 -> 588 ;
589 [label=<gini = 0.0<br/>samples = 1<br/>value = [0, 0, 0, 0, 0, 1, 0]<br/>class = SIRA>, fillcolor="#b139e5"] ;
588 -> 589 ;
590 [label=<gini = 0.0<br/>samples = 2<br/>value = [2, 0, 0, 0, 0, 0, 0]<br/>class = SEKER>, fillcolor="#e58139"] ;
588 -> 590 ;
591 [label=<num_preprocess__Area &le; 0.729<br/>gini = 0.39<br/>samples = 102<br/>value = [20, 1, 0, 4, 0, 77, 0]<br/>class = SIRA>, fillcolor="#c975ed"] ;
581 -> 591 ;
592 [label=<num_preprocess__Perimeter &le; 0.968<br/>gini = 0.293<br/>samples = 82<br/>value = [11, 0, 0, 3, 0, 68, 0]<br/>class = SIRA>, fillcolor="#c060ea"] ;
591 -> 592 ;
593 [label=<num_preprocess__Eccentricity &le; 0.985<br/>gini = 0.21<br/>samples = 69<br/>value = [6, 0, 0, 2, 0, 61, 0]<br/>class = SIRA>, fillcolor="#bb52e8"] ;
592 -> 593 ;
594 [label=<gini = 0.187<br/>samples = 68<br/>value = [6, 0, 0, 1, 0, 61, 0]<br/>class = SIRA>, fillcolor="#ba4fe8"] ;
593 -> 594 ;
595 [label=<gini = 0.0<br/>samples = 1<br/>value = [0, 0, 0, 1, 0, 0, 0]<br/>class = CALI>, fillcolor="#39e5e2"] ;
593 -> 595 ;
596 [label=<num_preprocess__ShapeFactor2 &le; 0.525<br/>gini = 0.556<br/>samples = 13<br/>value = [5, 0, 0, 1, 0, 7, 0]<br/>class = SIRA>, fillcolor="#eccef8"] ;
592 -> 596 ;
597 [label=<gini = 0.531<br/>samples = 8<br/>value = [5, 0, 0, 1, 0, 2, 0]<br/>class = SEKER>, fillcolor="#f2c09c"] ;
596 -> 597 ;
598 [label=<gini = 0.0<br/>samples = 5<br/>value = [0, 0, 0, 0, 0, 5, 0]<br/>class = SIRA>, fillcolor="#b139e5"] ;
596 -> 598 ;
599 [label=<num_preprocess__Extent &le; 0.12<br/>gini = 0.59<br/>samples = 20<br/>value = [9, 1, 0, 1, 0, 9, 0]<br/>class = SEKER>, fillcolor="#ffffff"] ;
591 -> 599 ;
600 [label=<gini = 0.0<br/>samples = 5<br/>value = [0, 0, 0, 0, 0, 5, 0]<br/>class = SIRA>, fillcolor="#b139e5"] ;
599 -> 600 ;
601 [label=<num_preprocess__MajorAxisLength &le; 0.664<br/>gini = 0.56<br/>samples = 15<br/>value = [9, 1, 0, 1, 0, 4, 0]<br/>class = SEKER>, fillcolor="#f3c6a5"] ;
599 -> 601 ;
602 [label=<gini = 0.314<br/>samples = 11<br/>value = [9, 1, 0, 0, 0, 1, 0]<br/>class = SEKER>, fillcolor="#ea9a61"] ;
601 -> 602 ;
603 [label=<gini = 0.375<br/>samples = 4<br/>value = [0, 0, 0, 1, 0, 3, 0]<br/>class = SIRA>, fillcolor="#cb7bee"] ;
601 -> 603 ;
604 [label=<num_preprocess__ShapeFactor4 &le; 0.7<br/>gini = 0.732<br/>samples = 948<br/>value = [177, 54, 26, 206, 12, 397, 76]<br/>class = SIRA>, fillcolor="#ebccf8"] ;
494 -> 604 ;
605 [label=<num_preprocess__Eccentricity &le; 0.586<br/>gini = 0.775<br/>samples = 650<br/>value = [121, 38, 24, 192, 12, 190, 73]<br/>class = CALI>, fillcolor="#feffff"] ;
604 -> 605 ;
606 [label=<num_preprocess__ShapeFactor2 &le; 0.459<br/>gini = 0.791<br/>samples = 315<br/>value = [79, 33, 18, 44, 8, 100, 33]<br/>class = SIRA>, fillcolor="#f8edfd"] ;
605 -> 606 ;
607 [label=<num_preprocess__Perimeter &le; 0.513<br/>gini = 0.79<br/>samples = 182<br/>value = [62, 31, 15, 7, 8, 35, 24]<br/>class = SEKER>, fillcolor="#fae8db"] ;
606 -> 607 ;
608 [label=<num_preprocess__Area &le; 0.363<br/>gini = 0.776<br/>samples = 114<br/>value = [35, 2, 9, 7, 7, 32, 22]<br/>class = SEKER>, fillcolor="#fefaf8"] ;
607 -> 608 ;
609 [label=<num_preprocess__AspectRation &le; 0.329<br/>gini = 0.749<br/>samples = 62<br/>value = [6, 1, 4, 6, 5, 25, 15]<br/>class = SIRA>, fillcolor="#eed5f9"] ;
608 -> 609 ;
610 [label=<gini = 0.805<br/>samples = 35<br/>value = [6, 1, 4, 6, 2, 5, 11]<br/>class = DERMASON>, fillcolor="#fbddea"] ;
609 -> 610 ;
611 [label=<gini = 0.417<br/>samples = 27<br/>value = [0, 0, 0, 0, 3, 20, 4]<br/>class = SIRA>, fillcolor="#c975ed"] ;
609 -> 611 ;
612 [label=<num_preprocess__ShapeFactor4 &le; 0.28<br/>gini = 0.641<br/>samples = 52<br/>value = [29, 1, 5, 1, 2, 7, 7]<br/>class = SEKER>, fillcolor="#f2c19e"] ;
608 -> 612 ;
613 [label=<gini = 0.8<br/>samples = 20<br/>value = [4, 1, 5, 0, 2, 3, 5]<br/>class = BOMBAY>, fillcolor="#ffffff"] ;
612 -> 613 ;
614 [label=<gini = 0.369<br/>samples = 32<br/>value = [25, 0, 0, 1, 0, 4, 2]<br/>class = SEKER>, fillcolor="#eca06a"] ;
612 -> 614 ;
615 [label=<num_preprocess__Area &le; 0.436<br/>gini = 0.65<br/>samples = 68<br/>value = [27, 29, 6, 0, 1, 3, 2]<br/>class = BARBUNYA>, fillcolor="#fbfef5"] ;
607 -> 615 ;
616 [label=<num_preprocess__Solidity &le; 0.204<br/>gini = 0.488<br/>samples = 23<br/>value = [16, 3, 1, 0, 1, 2, 0]<br/>class = SEKER>, fillcolor="#eead7e"] ;
615 -> 616 ;
617 [label=<gini = 0.124<br/>samples = 15<br/>value = [14, 0, 0, 0, 0, 1, 0]<br/>class = SEKER>, fillcolor="#e78a47"] ;
616 -> 617 ;
618 [label=<gini = 0.75<br/>samples = 8<br/>value = [2, 3, 1, 0, 1, 1, 0]<br/>class = BARBUNYA>, fillcolor="#f3fbde"] ;
616 -> 618 ;
619 [label=<num_preprocess__AspectRation &le; 0.363<br/>gini = 0.592<br/>samples = 45<br/>value = [11, 26, 5, 0, 0, 1, 2]<br/>class = BARBUNYA>, fillcolor="#dff4a8"] ;
615 -> 619 ;
620 [label=<gini = 0.365<br/>samples = 28<br/>value = [2, 22, 3, 0, 0, 0, 1]<br/>class = BARBUNYA>, fillcolor="#c8eb69"] ;
619 -> 620 ;
621 [label=<gini = 0.644<br/>samples = 17<br/>value = [9, 4, 2, 0, 0, 1, 1]<br/>class = SEKER>, fillcolor="#f5cfb3"] ;
619 -> 621 ;
622 [label=<num_preprocess__MajorAxisLength &le; 0.663<br/>gini = 0.662<br/>samples = 133<br/>value = [17, 2, 3, 37, 0, 65, 9]<br/>class = SIRA>, fillcolor="#e8c5f7"] ;
606 -> 622 ;
623 [label=<num_preprocess__Compactness &le; 0.535<br/>gini = 0.567<br/>samples = 87<br/>value = [10, 1, 1, 15, 0, 54, 6]<br/>class = SIRA>, fillcolor="#d594f1"] ;
622 -> 623 ;
624 [label=<num_preprocess__Perimeter &le; 0.606<br/>gini = 0.719<br/>samples = 16<br/>value = [2, 0, 1, 7, 0, 3, 3]<br/>class = CALI>, fillcolor="#c2f7f6"] ;
623 -> 624 ;
625 [label=<gini = 0.604<br/>samples = 13<br/>value = [0, 0, 0, 7, 0, 3, 3]<br/>class = CALI>, fillcolor="#b0f5f3"] ;
624 -> 625 ;
626 [label=<gini = 0.444<br/>samples = 3<br/>value = [2, 0, 1, 0, 0, 0, 0]<br/>class = SEKER>, fillcolor="#f2c09c"] ;
624 -> 626 ;
627 [label=<num_preprocess__ConvexArea &le; 0.106<br/>gini = 0.457<br/>samples = 71<br/>value = [8, 1, 0, 8, 0, 51, 3]<br/>class = SIRA>, fillcolor="#ca78ed"] ;
623 -> 627 ;
628 [label=<gini = 0.56<br/>samples = 15<br/>value = [0, 0, 0, 7, 0, 7, 1]<br/>class = CALI>, fillcolor="#ffffff"] ;
627 -> 628 ;
629 [label=<gini = 0.36<br/>samples = 56<br/>value = [8, 1, 0, 1, 0, 44, 2]<br/>class = SIRA>, fillcolor="#c46bec"] ;
627 -> 629 ;
630 [label=<num_preprocess__Area &le; 0.617<br/>gini = 0.684<br/>samples = 46<br/>value = [7, 1, 2, 22, 0, 11, 3]<br/>class = CALI>, fillcolor="#c1f7f6"] ;
622 -> 630 ;
631 [label=<num_preprocess__ShapeFactor1 &le; 0.293<br/>gini = 0.467<br/>samples = 30<br/>value = [1, 0, 1, 21, 0, 6, 1]<br/>class = CALI>, fillcolor="#83efed"] ;
630 -> 631 ;
632 [label=<gini = 0.444<br/>samples = 3<br/>value = [1, 0, 0, 0, 0, 2, 0]<br/>class = SIRA>, fillcolor="#d89cf2"] ;
631 -> 632 ;
633 [label=<gini = 0.37<br/>samples = 27<br/>value = [0, 0, 1, 21, 0, 4, 1]<br/>class = CALI>, fillcolor="#6decea"] ;
631 -> 633 ;
634 [label=<num_preprocess__ShapeFactor1 &le; 0.561<br/>gini = 0.734<br/>samples = 16<br/>value = [6, 1, 1, 1, 0, 5, 2]<br/>class = SEKER>, fillcolor="#fdf4ed"] ;
630 -> 634 ;
635 [label=<gini = 0.519<br/>samples = 9<br/>value = [6, 1, 1, 0, 0, 0, 1]<br/>class = SEKER>, fillcolor="#efb083"] ;
634 -> 635 ;
636 [label=<gini = 0.449<br/>samples = 7<br/>value = [0, 0, 0, 1, 0, 5, 1]<br/>class = SIRA>, fillcolor="#cb7bee"] ;
634 -> 636 ;
637 [label=<num_preprocess__ConvexArea &le; 0.645<br/>gini = 0.702<br/>samples = 335<br/>value = [42, 5, 6, 148, 4, 90, 40]<br/>class = CALI>, fillcolor="#d0f9f8"] ;
605 -> 637 ;
638 [label=<num_preprocess__Area &le; 0.286<br/>gini = 0.654<br/>samples = 262<br/>value = [23, 2, 5, 137, 4, 57, 34]<br/>class = CALI>, fillcolor="#b2f5f4"] ;
637 -> 638 ;
639 [label=<num_preprocess__MajorAxisLength &le; 0.561<br/>gini = 0.469<br/>samples = 130<br/>value = [1, 0, 1, 91, 1, 23, 13]<br/>class = CALI>, fillcolor="#81eeed"] ;
638 -> 639 ;
640 [label=<num_preprocess__Compactness &le; 0.765<br/>gini = 0.608<br/>samples = 59<br/>value = [0, 0, 1, 30, 0, 20, 8]<br/>class = CALI>, fillcolor="#ccf8f8"] ;
639 -> 640 ;
641 [label=<gini = 0.491<br/>samples = 40<br/>value = [0, 0, 0, 27, 0, 7, 6]<br/>class = CALI>, fillcolor="#87efed"] ;
640 -> 641 ;
642 [label=<gini = 0.493<br/>samples = 19<br/>value = [0, 0, 1, 3, 0, 13, 2]<br/>class = SIRA>, fillcolor="#ce83ef"] ;
640 -> 642 ;
643 [label=<num_preprocess__ShapeFactor3 &le; 0.912<br/>gini = 0.255<br/>samples = 71<br/>value = [1, 0, 0, 61, 1, 3, 5]<br/>class = CALI>, fillcolor="#57e9e6"] ;
639 -> 643 ;
644 [label=<gini = 0.174<br/>samples = 65<br/>value = [1, 0, 0, 59, 1, 2, 2]<br/>class = CALI>, fillcolor="#4ce7e5"] ;
643 -> 644 ;
645 [label=<gini = 0.611<br/>samples = 6<br/>value = [0, 0, 0, 2, 0, 1, 3]<br/>class = DERMASON>, fillcolor="#f8cee1"] ;
643 -> 645 ;
646 [label=<num_preprocess__ShapeFactor2 &le; 0.246<br/>gini = 0.757<br/>samples = 132<br/>value = [22, 2, 4, 46, 3, 34, 21]<br/>class = CALI>, fillcolor="#e7fcfb"] ;
638 -> 646 ;
