digraph Tree {
node [shape=box, style="filled, rounded", color="black", fontname="helvetica"] ;
edge [fontname="helvetica"] ;
0 [label=<MinorAxisLength &le; 262.532<br/>gini = 0.856<br/>samples = 1362<br/>value = [205, 218, 200, 168, 195, 193, 183]<br/>class = BARBUNYA>, fillcolor="#fefffd"] ;
1 [label=<Compactness &le; 0.778<br/>gini = 0.814<br/>samples = 603<br/>value = [75, 31, 23, 143, 83, 160, 88]<br/>class = SIRA>, fillcolor="#fcf8fe"] ;
0 -> 1 [labeldistance=2.5, labelangle=45, headlabel="True"] ;
2 [label=<ShapeFactor2 &le; 0.002<br/>gini = 0.78<br/>samples = 325<br/>value = [23, 6, 8, 106, 75, 51, 56]<br/>class = CALI>, fillcolor="#e6fcfb"] ;
1 -> 2 ;
3 [label=<Solidity &le; 0.949<br/>gini = 0.802<br/>samples = 198<br/>value = [21, 6, 8, 35, 60, 28, 40]<br/>class = HOROZ>, fillcolor="#e6eafc"] ;
2 -> 3 ;
4 [label=<ShapeFactor1 &le; 0.008<br/>gini = 0.738<br/>samples = 60<br/>value = [6, 0, 0, 19, 5, 21, 9]<br/>class = SIRA>, fillcolor="#fbf5fe"] ;
3 -> 4 ;
5 [label=<ShapeFactor4 &le; 0.986<br/>gini = 0.707<br/>samples = 39<br/>value = [4, 0, 0, 4, 5, 18, 8]<br/>class = SIRA>, fillcolor="#e6bff7"] ;
4 -> 5 ;
6 [label=<ConvexArea &le; 152184.0<br/>gini = 0.771<br/>samples = 29<br/>value = [4, 0, 0, 4, 4, 9, 8]<br/>class = SIRA>, fillcolor="#fbf6fe"] ;
5 -> 6 ;
7 [label=<ShapeFactor4 &le; 0.948<br/>gini = 0.72<br/>samples = 20<br/>value = [0, 0, 0, 4, 4, 4, 8]<br/>class = DERMASON>, fillcolor="#f8cee1"] ;
6 -> 7 ;
8 [label=<Solidity &le; 0.942<br/>gini = 0.5<br/>samples = 6<br/>value = [0, 0, 0, 1, 0, 4, 1]<br/>class = SIRA>, fillcolor="#d088ef"] ;
7 -> 8 ;
9 [label=<Extent &le; 0.561<br/>gini = 0.32<br/>samples = 5<br/>value = [0, 0, 0, 1, 0, 4, 0]<br/>class = SIRA>, fillcolor="#c46aec"] ;
8 -> 9 ;
10 [label=<gini = 0.0<br/>samples = 1<br/>value = [0, 0, 0, 1, 0, 0, 0]<br/>class = CALI>, fillcolor="#39e5e2"] ;
9 -> 10 ;
11 [label=<gini = 0.0<br/>samples = 4<br/>value = [0, 0, 0, 0, 0, 4, 0]<br/>class = SIRA>, fillcolor="#b139e5"] ;
9 -> 11 ;
12 [label=<gini = 0.0<br/>samples = 1<br/>value = [0, 0, 0, 0, 0, 0, 1]<br/>class = DERMASON>, fillcolor="#e53986"] ;
8 -> 12 ;
13 [label=<EquivDiameter &le; 302.704<br/>gini = 0.622<br/>samples = 14<br/>value = [0, 0, 0, 3, 4, 0, 7]<br/>class = DERMASON>, fillcolor="#f7c4db"] ;
7 -> 13 ;
14 [label=<MajorAxisLength &le; 313.323<br/>gini = 0.32<br/>samples = 5<br/>value = [0, 0, 0, 0, 4, 0, 1]<br/>class = HOROZ>, fillcolor="#6a80ec"] ;
13 -> 14 ;
15 [label=<gini = 0.0<br/>samples = 1<br/>value = [0, 0, 0, 0, 0, 0, 1]<br/>class = DERMASON>, fillcolor="#e53986"] ;
14 -> 15 ;
16 [label=<gini = 0.0<br/>samples = 4<br/>value = [0, 0, 0, 0, 4, 0, 0]<br/>class = HOROZ>, fillcolor="#3956e5"] ;
14 -> 16 ;
17 [label=<ShapeFactor2 &le; 0.002<br/>gini = 0.444<br/>samples = 9<br/>value = [0, 0, 0, 3, 0, 0, 6]<br/>class = DERMASON>, fillcolor="#f29cc2"] ;
13 -> 17 ;
18 [label=<gini = 0.0<br/>samples = 5<br/>value = [0, 0, 0, 0, 0, 0, 5]<br/>class = DERMASON>, fillcolor="#e53986"] ;
17 -> 18 ;
19 [label=<MinorAxisLength &le; 214.564<br/>gini = 0.375<br/>samples = 4<br/>value = [0, 0, 0, 3, 0, 0, 1]<br/>class = CALI>, fillcolor="#7beeec"] ;
17 -> 19 ;
20 [label=<gini = 0.0<br/>samples = 3<br/>value = [0, 0, 0, 3, 0, 0, 0]<br/>class = CALI>, fillcolor="#39e5e2"] ;
19 -> 20 ;
21 [label=<gini = 0.0<br/>samples = 1<br/>value = [0, 0, 0, 0, 0, 0, 1]<br/>class = DERMASON>, fillcolor="#e53986"] ;
19 -> 21 ;
22 [label=<Compactness &le; 0.723<br/>gini = 0.494<br/>samples = 9<br/>value = [4, 0, 0, 0, 0, 5, 0]<br/>class = SIRA>, fillcolor="#efd7fa"] ;
6 -> 22 ;
23 [label=<gini = 0.0<br/>samples = 5<br/>value = [0, 0, 0, 0, 0, 5, 0]<br/>class = SIRA>, fillcolor="#b139e5"] ;
22 -> 23 ;
24 [label=<gini = 0.0<br/>samples = 4<br/>value = [4, 0, 0, 0, 0, 0, 0]<br/>class = SEKER>, fillcolor="#e58139"] ;
22 -> 24 ;
25 [label=<EquivDiameter &le; 219.239<br/>gini = 0.18<br/>samples = 10<br/>value = [0, 0, 0, 0, 1, 9, 0]<br/>class = SIRA>, fillcolor="#ba4fe8"] ;
5 -> 25 ;
26 [label=<gini = 0.0<br/>samples = 1<br/>value = [0, 0, 0, 0, 1, 0, 0]<br/>class = HOROZ>, fillcolor="#3956e5"] ;
25 -> 26 ;
27 [label=<gini = 0.0<br/>samples = 9<br/>value = [0, 0, 0, 0, 0, 9, 0]<br/>class = SIRA>, fillcolor="#b139e5"] ;
25 -> 27 ;
28 [label=<Perimeter &le; 1356.932<br/>gini = 0.458<br/>samples = 21<br/>value = [2, 0, 0, 15, 0, 3, 1]<br/>class = CALI>, fillcolor="#7beeec"] ;
4 -> 28 ;
29 [label=<ShapeFactor4 &le; 0.993<br/>gini = 0.208<br/>samples = 17<br/>value = [0, 0, 0, 15, 0, 2, 0]<br/>class = CALI>, fillcolor="#53e8e6"] ;
28 -> 29 ;
30 [label=<gini = 0.0<br/>samples = 14<br/>value = [0, 0, 0, 14, 0, 0, 0]<br/>class = CALI>, fillcolor="#39e5e2"] ;
29 -> 30 ;
31 [label=<ConvexArea &le; 73678.5<br/>gini = 0.444<br/>samples = 3<br/>value = [0, 0, 0, 1, 0, 2, 0]<br/>class = SIRA>, fillcolor="#d89cf2"] ;
29 -> 31 ;
32 [label=<gini = 0.0<br/>samples = 1<br/>value = [0, 0, 0, 1, 0, 0, 0]<br/>class = CALI>, fillcolor="#39e5e2"] ;
31 -> 32 ;
33 [label=<gini = 0.0<br/>samples = 2<br/>value = [0, 0, 0, 0, 0, 2, 0]<br/>class = SIRA>, fillcolor="#b139e5"] ;
31 -> 33 ;
34 [label=<ShapeFactor1 &le; 0.008<br/>gini = 0.625<br/>samples = 4<br/>value = [2, 0, 0, 0, 0, 1, 1]<br/>class = SEKER>, fillcolor="#f6d5bd"] ;
28 -> 34 ;
35 [label=<gini = 0.0<br/>samples = 2<br/>value = [2, 0, 0, 0, 0, 0, 0]<br/>class = SEKER>, fillcolor="#e58139"] ;
34 -> 35 ;
36 [label=<Area &le; 53580.0<br/>gini = 0.5<br/>samples = 2<br/>value = [0, 0, 0, 0, 0, 1, 1]<br/>class = SIRA>, fillcolor="#ffffff"] ;
34 -> 36 ;
37 [label=<gini = 0.0<br/>samples = 1<br/>value = [0, 0, 0, 0, 0, 1, 0]<br/>class = SIRA>, fillcolor="#b139e5"] ;
36 -> 37 ;
38 [label=<gini = 0.0<br/>samples = 1<br/>value = [0, 0, 0, 0, 0, 0, 1]<br/>class = DERMASON>, fillcolor="#e53986"] ;
36 -> 38 ;
39 [label=<MajorAxisLength &le; 431.718<br/>gini = 0.758<br/>samples = 138<br/>value = [15, 6, 8, 16, 55, 7, 31]<br/>class = HOROZ>, fillcolor="#d3d9f9"] ;
3 -> 39 ;
40 [label=<ConvexArea &le; 173409.0<br/>gini = 0.79<br/>samples = 67<br/>value = [8, 3, 5, 10, 12, 5, 24]<br/>class = DERMASON>, fillcolor="#f9d4e5"] ;
39 -> 40 ;
41 [label=<EquivDiameter &le; 221.724<br/>gini = 0.694<br/>samples = 52<br/>value = [5, 0, 1, 9, 12, 1, 24]<br/>class = DERMASON>, fillcolor="#f7c4db"] ;
40 -> 41 ;
42 [label=<ShapeFactor1 &le; 0.008<br/>gini = 0.602<br/>samples = 16<br/>value = [0, 0, 1, 2, 9, 0, 4]<br/>class = HOROZ>, fillcolor="#acb9f4"] ;
41 -> 42 ;
43 [label=<Eccentricity &le; 0.271<br/>gini = 0.5<br/>samples = 14<br/>value = [0, 0, 1, 0, 9, 0, 4]<br/>class = HOROZ>, fillcolor="#9caaf2"] ;
42 -> 43 ;
44 [label=<ShapeFactor4 &le; 0.971<br/>gini = 0.56<br/>samples = 5<br/>value = [0, 0, 1, 0, 1, 0, 3]<br/>class = DERMASON>, fillcolor="#f29cc2"] ;
43 -> 44 ;
45 [label=<gini = 0.0<br/>samples = 3<br/>value = [0, 0, 0, 0, 0, 0, 3]<br/>class = DERMASON>, fillcolor="#e53986"] ;
44 -> 45 ;
46 [label=<Compactness &le; 0.683<br/>gini = 0.5<br/>samples = 2<br/>value = [0, 0, 1, 0, 1, 0, 0]<br/>class = BOMBAY>, fillcolor="#ffffff"] ;
44 -> 46 ;
47 [label=<gini = 0.0<br/>samples = 1<br/>value = [0, 0, 0, 0, 1, 0, 0]<br/>class = HOROZ>, fillcolor="#3956e5"] ;
46 -> 47 ;
48 [label=<gini = 0.0<br/>samples = 1<br/>value = [0, 0, 1, 0, 0, 0, 0]<br/>class = BOMBAY>, fillcolor="#39e54d"] ;
46 -> 48 ;
49 [label=<Extent &le; 0.857<br/>gini = 0.198<br/>samples = 9<br/>value = [0, 0, 0, 0, 8, 0, 1]<br/>class = HOROZ>, fillcolor="#526be8"] ;
43 -> 49 ;
50 [label=<gini = 0.0<br/>samples = 8<br/>value = [0, 0, 0, 0, 8, 0, 0]<br/>class = HOROZ>, fillcolor="#3956e5"] ;
49 -> 50 ;
51 [label=<gini = 0.0<br/>samples = 1<br/>value = [0, 0, 0, 0, 0, 0, 1]<br/>class = DERMASON>, fillcolor="#e53986"] ;
49 -> 51 ;
52 [label=<gini = 0.0<br/>samples = 2<br/>value = [0, 0, 0, 2, 0, 0, 0]<br/>class = CALI>, fillcolor="#39e5e2"] ;
42 -> 52 ;
53 [label=<Eccentricity &le; 0.555<br/>gini = 0.627<br/>samples = 36<br/>value = [5, 0, 0, 7, 3, 1, 20]<br/>class = DERMASON>, fillcolor="#f3a6c9"] ;
41 -> 53 ;
54 [label=<Area &le; 192161.0<br/>gini = 0.227<br/>samples = 16<br/>value = [1, 0, 0, 1, 0, 0, 14]<br/>class = DERMASON>, fillcolor="#e85396"] ;
53 -> 54 ;
55 [label=<ConvexArea &le; 21909.0<br/>gini = 0.124<br/>samples = 15<br/>value = [0, 0, 0, 1, 0, 0, 14]<br/>class = DERMASON>, fillcolor="#e7478f"] ;
54 -> 55 ;
56 [label=<gini = 0.0<br/>samples = 1<br/>value = [0, 0, 0, 1, 0, 0, 0]<br/>class = CALI>, fillcolor="#39e5e2"] ;
55 -> 56 ;
57 [label=<gini = 0.0<br/>samples = 14<br/>value = [0, 0, 0, 0, 0, 0, 14]<br/>class = DERMASON>, fillcolor="#e53986"] ;
55 -> 57 ;
58 [label=<gini = 0.0<br/>samples = 1<br/>value = [1, 0, 0, 0, 0, 0, 0]<br/>class = SEKER>, fillcolor="#e58139"] ;
54 -> 58 ;
59 [label=<Extent &le; 0.817<br/>gini = 0.755<br/>samples = 20<br/>value = [4, 0, 0, 6, 3, 1, 6]<br/>class = CALI>, fillcolor="#ffffff"] ;
53 -> 59 ;
60 [label=<roundness &le; 0.963<br/>gini = 0.742<br/>samples = 16<br/>value = [4, 0, 0, 2, 3, 1, 6]<br/>class = DERMASON>, fillcolor="#fbdeeb"] ;
59 -> 60 ;
61 [label=<EquivDiameter &le; 287.391<br/>gini = 0.684<br/>samples = 14<br/>value = [4, 0, 0, 0, 3, 1, 6]<br/>class = DERMASON>, fillcolor="#fad7e7"] ;
60 -> 61 ;
62 [label=<gini = 0.0<br/>samples = 4<br/>value = [0, 0, 0, 0, 0, 0, 4]<br/>class = DERMASON>, fillcolor="#e53986"] ;
61 -> 62 ;
63 [label=<MajorAxisLength &le; 416.878<br/>gini = 0.7<br/>samples = 10<br/>value = [4, 0, 0, 0, 3, 1, 2]<br/>class = SEKER>, fillcolor="#fbede3"] ;
61 -> 63 ;
64 [label=<Solidity &le; 0.97<br/>gini = 0.594<br/>samples = 8<br/>value = [4, 0, 0, 0, 3, 1, 0]<br/>class = SEKER>, fillcolor="#fae6d7"] ;
63 -> 64 ;
65 [label=<Area &le; 47112.0<br/>gini = 0.56<br/>samples = 5<br/>value = [1, 0, 0, 0, 3, 1, 0]<br/>class = HOROZ>, fillcolor="#9caaf2"] ;
64 -> 65 ;
66 [label=<gini = 0.0<br/>samples = 3<br/>value = [0, 0, 0, 0, 3, 0, 0]<br/>class = HOROZ>, fillcolor="#3956e5"] ;
65 -> 66 ;
67 [label=<ShapeFactor4 &le; 0.976<br/>gini = 0.5<br/>samples = 2<br/>value = [1, 0, 0, 0, 0, 1, 0]<br/>class = SEKER>, fillcolor="#ffffff"] ;
65 -> 67 ;
68 [label=<gini = 0.0<br/>samples = 1<br/>value = [1, 0, 0, 0, 0, 0, 0]<br/>class = SEKER>, fillcolor="#e58139"] ;
67 -> 68 ;
69 [label=<gini = 0.0<br/>samples = 1<br/>value = [0, 0, 0, 0, 0, 1, 0]<br/>class = SIRA>, fillcolor="#b139e5"] ;
67 -> 69 ;
70 [label=<gini = 0.0<br/>samples = 3<br/>value = [3, 0, 0, 0, 0, 0, 0]<br/>class = SEKER>, fillcolor="#e58139"] ;
64 -> 70 ;
71 [label=<gini = 0.0<br/>samples = 2<br/>value = [0, 0, 0, 0, 0, 0, 2]<br/>class = DERMASON>, fillcolor="#e53986"] ;
63 -> 71 ;
72 [label=<gini = 0.0<br/>samples = 2<br/>value = [0, 0, 0, 2, 0, 0, 0]<br/>class = CALI>, fillcolor="#39e5e2"] ;
60 -> 72 ;
73 [label=<gini = 0.0<br/>samples = 4<br/>value = [0, 0, 0, 4, 0, 0, 0]<br/>class = CALI>, fillcolor="#39e5e2"] ;
59 -> 73 ;
74 [label=<Area &le; 81220.0<br/>gini = 0.773<br/>samples = 15<br/>value = [3, 3, 4, 1, 0, 4, 0]<br/>class = BOMBAY>, fillcolor="#ffffff"] ;
40 -> 74 ;
75 [label=<AspectRation &le; 1.715<br/>gini = 0.571<br/>samples = 7<br/>value = [2, 0, 0, 1, 0, 4, 0]<br/>class = SIRA>, fillcolor="#e0b0f5"] ;
74 -> 75 ;
76 [label=<Solidity &le; 0.978<br/>gini = 0.444<br/>samples = 3<br/>value = [2, 0, 0, 1, 0, 0, 0]<br/>class = SEKER>, fillcolor="#f2c09c"] ;
75 -> 76 ;
77 [label=<gini = 0.0<br/>samples = 2<br/>value = [2, 0, 0, 0, 0, 0, 0]<br/>class = SEKER>, fillcolor="#e58139"] ;
76 -> 77 ;
78 [label=<gini = 0.0<br/>samples = 1<br/>value = [0, 0, 0, 1, 0, 0, 0]<br/>class = CALI>, fillcolor="#39e5e2"] ;
76 -> 78 ;
79 [label=<gini = 0.0<br/>samples = 4<br/>value = [0, 0, 0, 0, 0, 4, 0]<br/>class = SIRA>, fillcolor="#b139e5"] ;
75 -> 79 ;
80 [label=<ConvexArea &le; 202930.5<br/>gini = 0.594<br/>samples = 8<br/>value = [1, 3, 4, 0, 0, 0, 0]<br/>class = BOMBAY>, fillcolor="#d7fadb"] ;
74 -> 80 ;
81 [label=<gini = 0.0<br/>samples = 3<br/>value = [0, 0, 3, 0, 0, 0, 0]<br/>class = BOMBAY>, fillcolor="#39e54d"] ;
80 -> 81 ;
82 [label=<ShapeFactor1 &le; 0.008<br/>gini = 0.56<br/>samples = 5<br/>value = [1, 3, 1, 0, 0, 0, 0]<br/>class = BARBUNYA>, fillcolor="#dbf29c"] ;
80 -> 82 ;
83 [label=<gini = 0.0<br/>samples = 3<br/>value = [0, 3, 0, 0, 0, 0, 0]<br/>class = BARBUNYA>, fillcolor="#b7e539"] ;
82 -> 83 ;
84 [label=<Extent &le; 0.63<br/>gini = 0.5<br/>samples = 2<br/>value = [1, 0, 1, 0, 0, 0, 0]<br/>class = SEKER>, fillcolor="#ffffff"] ;
82 -> 84 ;
85 [label=<gini = 0.0<br/>samples = 1<br/>value = [0, 0, 1, 0, 0, 0, 0]<br/>class = BOMBAY>, fillcolor="#39e54d"] ;
84 -> 85 ;
86 [label=<gini = 0.0<br/>samples = 1<br/>value = [1, 0, 0, 0, 0, 0, 0]<br/>class = SEKER>, fillcolor="#e58139"] ;
84 -> 86 ;
87 [label=<ConvexArea &le; 200665.0<br/>gini = 0.602<br/>samples = 71<br/>value = [7, 3, 3, 6, 43, 2, 7]<br/>class = HOROZ>, fillcolor="#90a0f0"] ;
39 -> 87 ;
88 [label=<Area &le; 216772.5<br/>gini = 0.467<br/>samples = 60<br/>value = [2, 1, 1, 5, 43, 2, 6]<br/>class = HOROZ>, fillcolor="#778bed"] ;
87 -> 88 ;
89 [label=<Solidity &le; 0.978<br/>gini = 0.393<br/>samples = 56<br/>value = [2, 0, 0, 5, 43, 1, 5]<br/>class = HOROZ>, fillcolor="#6b81ec"] ;
88 -> 89 ;
90 [label=<Compactness &le; 0.676<br/>gini = 0.656<br/>samples = 25<br/>value = [2, 0, 0, 4, 13, 1, 5]<br/>class = HOROZ>, fillcolor="#b0bbf5"] ;
89 -> 90 ;
91 [label=<ShapeFactor4 &le; 1.0<br/>gini = 0.198<br/>samples = 9<br/>value = [0, 0, 0, 1, 8, 0, 0]<br/>class = HOROZ>, fillcolor="#526be8"] ;
90 -> 91 ;
92 [label=<gini = 0.0<br/>samples = 8<br/>value = [0, 0, 0, 0, 8, 0, 0]<br/>class = HOROZ>, fillcolor="#3956e5"] ;
91 -> 92 ;
93 [label=<gini = 0.0<br/>samples = 1<br/>value = [0, 0, 0, 1, 0, 0, 0]<br/>class = CALI>, fillcolor="#39e5e2"] ;
91 -> 93 ;
94 [label=<Eccentricity &le; 0.766<br/>gini = 0.75<br/>samples = 16<br/>value = [2, 0, 0, 3, 5, 1, 5]<br/>class = HOROZ>, fillcolor="#ffffff"] ;
90 -> 94 ;
95 [label=<ConvexArea &le; 98423.0<br/>gini = 0.617<br/>samples = 9<br/>value = [1, 0, 0, 2, 0, 1, 5]<br/>class = DERMASON>, fillcolor="#f4aacb"] ;
94 -> 95 ;
96 [label=<MajorAxisLength &le; 648.208<br/>gini = 0.625<br/>samples = 4<br/>value = [1, 0, 0, 2, 0, 1, 0]<br/>class = CALI>, fillcolor="#bdf6f5"] ;
95 -> 96 ;
97 [label=<gini = 0.0<br/>samples = 2<br/>value = [0, 0, 0, 2, 0, 0, 0]<br/>class = CALI>, fillcolor="#39e5e2"] ;
96 -> 97 ;
98 [label=<ShapeFactor4 &le; 0.994<br/>gini = 0.5<br/>samples = 2<br/>value = [1, 0, 0, 0, 0, 1, 0]<br/>class = SEKER>, fillcolor="#ffffff"] ;
96 -> 98 ;
99 [label=<gini = 0.0<br/>samples = 1<br/>value = [1, 0, 0, 0, 0, 0, 0]<br/>class = SEKER>, fillcolor="#e58139"] ;
98 -> 99 ;
100 [label=<gini = 0.0<br/>samples = 1<br/>value = [0, 0, 0, 0, 0, 1, 0]<br/>class = SIRA>, fillcolor="#b139e5"] ;
98 -> 100 ;
101 [label=<gini = 0.0<br/>samples = 5<br/>value = [0, 0, 0, 0, 0, 0, 5]<br/>class = DERMASON>, fillcolor="#e53986"] ;
95 -> 101 ;
102 [label=<roundness &le; 0.69<br/>gini = 0.449<br/>samples = 7<br/>value = [1, 0, 0, 1, 5, 0, 0]<br/>class = HOROZ>, fillcolor="#7b8eee"] ;
94 -> 102 ;
103 [label=<Extent &le; 0.681<br/>gini = 0.5<br/>samples = 2<br/>value = [1, 0, 0, 1, 0, 0, 0]<br/>class = SEKER>, fillcolor="#ffffff"] ;
102 -> 103 ;
104 [label=<gini = 0.0<br/>samples = 1<br/>value = [0, 0, 0, 1, 0, 0, 0]<br/>class = CALI>, fillcolor="#39e5e2"] ;
103 -> 104 ;
105 [label=<gini = 0.0<br/>samples = 1<br/>value = [1, 0, 0, 0, 0, 0, 0]<br/>class = SEKER>, fillcolor="#e58139"] ;
103 -> 105 ;
106 [label=<gini = 0.0<br/>samples = 5<br/>value = [0, 0, 0, 0, 5, 0, 0]<br/>class = HOROZ>, fillcolor="#3956e5"] ;
102 -> 106 ;
107 [label=<Compactness &le; 0.762<br/>gini = 0.062<br/>samples = 31<br/>value = [0, 0, 0, 1, 30, 0, 0]<br/>class = HOROZ>, fillcolor="#405ce6"] ;
89 -> 107 ;
108 [label=<gini = 0.0<br/>samples = 30<br/>value = [0, 0, 0, 0, 30, 0, 0]<br/>class = HOROZ>, fillcolor="#3956e5"] ;
107 -> 108 ;
109 [label=<gini = 0.0<br/>samples = 1<br/>value = [0, 0, 0, 1, 0, 0, 0]<br/>class = CALI>, fillcolor="#39e5e2"] ;
107 -> 109 ;
110 [label=<Eccentricity &le; 0.368<br/>gini = 0.75<br/>samples = 4<br/>value = [0, 1, 1, 0, 0, 1, 1]<br/>class = BARBUNYA>, fillcolor="#ffffff"] ;
88 -> 110 ;
111 [label=<gini = 0.0<br/>samples = 1<br/>value = [0, 0, 0, 0, 0, 1, 0]<br/>class = SIRA>, fillcolor="#b139e5"] ;
110 -> 111 ;
112 [label=<Extent &le; 0.767<br/>gini = 0.667<br/>samples = 3<br/>value = [0, 1, 1, 0, 0, 0, 1]<br/>class = BARBUNYA>, fillcolor="#ffffff"] ;
110 -> 112 ;
113 [label=<gini = 0.0<br/>samples = 1<br/>value = [0, 1, 0, 0, 0, 0, 0]<br/>class = BARBUNYA>, fillcolor="#b7e539"] ;
112 -> 113 ;
114 [label=<ShapeFactor3 &le; 0.809<br/>gini = 0.5<br/>samples = 2<br/>value = [0, 0, 1, 0, 0, 0, 1]<br/>class = BOMBAY>, fillcolor="#ffffff"] ;
112 -> 114 ;
115 [label=<gini = 0.0<br/>samples = 1<br/>value = [0, 0, 1, 0, 0, 0, 0]<br/>class = BOMBAY>, fillcolor="#39e54d"] ;
114 -> 115 ;
116 [label=<gini = 0.0<br/>samples = 1<br/>value = [0, 0, 0, 0, 0, 0, 1]<br/>class = DERMASON>, fillcolor="#e53986"] ;
114 -> 116 ;
117 [label=<ShapeFactor2 &le; 0.001<br/>gini = 0.711<br/>samples = 11<br/>value = [5, 2, 2, 1, 0, 0, 1]<br/>class = SEKER>, fillcolor="#f6d5bd"] ;
87 -> 117 ;
118 [label=<Eccentricity &le; 0.798<br/>gini = 0.278<br/>samples = 6<br/>value = [5, 1, 0, 0, 0, 0, 0]<br/>class = SEKER>, fillcolor="#ea9a61"] ;
117 -> 118 ;
119 [label=<gini = 0.0<br/>samples = 5<br/>value = [5, 0, 0, 0, 0, 0, 0]<br/>class = SEKER>, fillcolor="#e58139"] ;
118 -> 119 ;
120 [label=<gini = 0.0<br/>samples = 1<br/>value = [0, 1, 0, 0, 0, 0, 0]<br/>class = BARBUNYA>, fillcolor="#b7e539"] ;
118 -> 120 ;
121 [label=<ConvexArea &le; 234457.0<br/>gini = 0.72<br/>samples = 5<br/>value = [0, 1, 2, 1, 0, 0, 1]<br/>class = BOMBAY>, fillcolor="#cef8d2"] ;
117 -> 121 ;
122 [label=<MinorAxisLength &le; 151.545<br/>gini = 0.667<br/>samples = 3<br/>value = [0, 1, 0, 1, 0, 0, 1]<br/>class = BARBUNYA>, fillcolor="#ffffff"] ;
121 -> 122 ;
123 [label=<gini = 0.0<br/>samples = 1<br/>value = [0, 0, 0, 0, 0, 0, 1]<br/>class = DERMASON>, fillcolor="#e53986"] ;
122 -> 123 ;
124 [label=<Solidity &le; 0.976<br/>gini = 0.5<br/>samples = 2<br/>value = [0, 1, 0, 1, 0, 0, 0]<br/>class = BARBUNYA>, fillcolor="#ffffff"] ;
122 -> 124 ;
125 [label=<gini = 0.0<br/>samples = 1<br/>value = [0, 0, 0, 1, 0, 0, 0]<br/>class = CALI>, fillcolor="#39e5e2"] ;
124 -> 125 ;
126 [label=<gini = 0.0<br/>samples = 1<br/>value = [0, 1, 0, 0, 0, 0, 0]<br/>class = BARBUNYA>, fillcolor="#b7e539"] ;
124 -> 126 ;
127 [label=<gini = 0.0<br/>samples = 2<br/>value = [0, 0, 2, 0, 0, 0, 0]<br/>class = BOMBAY>, fillcolor="#39e54d"] ;
121 -> 127 ;
128 [label=<EquivDiameter &le; 410.787<br/>gini = 0.625<br/>samples = 127<br/>value = [2, 0, 0, 71, 15, 23, 16]<br/>class = CALI>, fillcolor="#a4f3f2"] ;
2 -> 128 ;
129 [label=<ShapeFactor2 &le; 0.003<br/>gini = 0.544<br/>samples = 91<br/>value = [1, 0, 0, 58, 14, 4, 14]<br/>class = CALI>, fillcolor="#8ef0ee"] ;
128 -> 129 ;
130 [label=<roundness &le; 0.921<br/>gini = 0.67<br/>samples = 55<br/>value = [1, 0, 0, 26, 12, 3, 13]<br/>class = CALI>, fillcolor="#c2f7f6"] ;
129 -> 130 ;
131 [label=<Solidity &le; 0.968<br/>gini = 0.717<br/>samples = 44<br/>value = [1, 0, 0, 15, 12, 3, 13]<br/>class = CALI>, fillcolor="#f2fdfd"] ;
130 -> 131 ;
132 [label=<ShapeFactor1 &le; 0.007<br/>gini = 0.64<br/>samples = 22<br/>value = [1, 0, 0, 12, 4, 2, 3]<br/>class = CALI>, fillcolor="#a7f3f2"] ;
131 -> 132 ;
133 [label=<Area &le; 85478.0<br/>gini = 0.667<br/>samples = 6<br/>value = [1, 0, 0, 1, 1, 0, 3]<br/>class = DERMASON>, fillcolor="#f5b0cf"] ;
132 -> 133 ;
134 [label=<Extent &le; 0.661<br/>gini = 0.667<br/>samples = 3<br/>value = [1, 0, 0, 1, 1, 0, 0]<br/>class = SEKER>, fillcolor="#ffffff"] ;
133 -> 134 ;
135 [label=<gini = 0.0<br/>samples = 1<br/>value = [0, 0, 0, 0, 1, 0, 0]<br/>class = HOROZ>, fillcolor="#3956e5"] ;
134 -> 135 ;
136 [label=<ShapeFactor2 &le; 0.002<br/>gini = 0.5<br/>samples = 2<br/>value = [1, 0, 0, 1, 0, 0, 0]<br/>class = SEKER>, fillcolor="#ffffff"] ;
134 -> 136 ;
137 [label=<gini = 0.0<br/>samples = 1<br/>value = [1, 0, 0, 0, 0, 0, 0]<br/>class = SEKER>, fillcolor="#e58139"] ;
136 -> 137 ;
138 [label=<gini = 0.0<br/>samples = 1<br/>value = [0, 0, 0, 1, 0, 0, 0]<br/>class = CALI>, fillcolor="#39e5e2"] ;
136 -> 138 ;
139 [label=<gini = 0.0<br/>samples = 3<br/>value = [0, 0, 0, 0, 0, 0, 3]<br/>class = DERMASON>, fillcolor="#e53986"] ;
133 -> 139 ;
140 [label=<Perimeter &le; 964.471<br/>gini = 0.477<br/>samples = 16<br/>value = [0, 0, 0, 11, 3, 2, 0]<br/>class = CALI>, fillcolor="#85efed"] ;
132 -> 140 ;
141 [label=<gini = 0.0<br/>samples = 8<br/>value = [0, 0, 0, 8, 0, 0, 0]<br/>class = CALI>, fillcolor="#39e5e2"] ;
140 -> 141 ;
142 [label=<Compactness &le; 0.711<br/>gini = 0.656<br/>samples = 8<br/>value = [0, 0, 0, 3, 3, 2, 0]<br/>class = CALI>, fillcolor="#ffffff"] ;
140 -> 142 ;
143 [label=<gini = 0.0<br/>samples = 3<br/>value = [0, 0, 0, 0, 3, 0, 0]<br/>class = HOROZ>, fillcolor="#3956e5"] ;
142 -> 143 ;
144 [label=<ShapeFactor4 &le; 0.99<br/>gini = 0.48<br/>samples = 5<br/>value = [0, 0, 0, 3, 0, 2, 0]<br/>class = CALI>, fillcolor="#bdf6f5"] ;
142 -> 144 ;
145 [label=<gini = 0.0<br/>samples = 3<br/>value = [0, 0, 0, 3, 0, 0, 0]<br/>class = CALI>, fillcolor="#39e5e2"] ;
144 -> 145 ;
146 [label=<gini = 0.0<br/>samples = 2<br/>value = [0, 0, 0, 0, 0, 2, 0]<br/>class = SIRA>, fillcolor="#b139e5"] ;
144 -> 146 ;
147 [label=<ShapeFactor4 &le; 0.967<br/>gini = 0.64<br/>samples = 22<br/>value = [0, 0, 0, 3, 8, 1, 10]<br/>class = DERMASON>, fillcolor="#fbe3ee"] ;
131 -> 147 ;
148 [label=<MinorAxisLength &le; 129.097<br/>gini = 0.531<br/>samples = 8<br/>value = [0, 0, 0, 2, 5, 0, 1]<br/>class = HOROZ>, fillcolor="#9caaf2"] ;
147 -> 148 ;
149 [label=<gini = 0.0<br/>samples = 2<br/>value = [0, 0, 0, 2, 0, 0, 0]<br/>class = CALI>, fillcolor="#39e5e2"] ;
148 -> 149 ;
150 [label=<EquivDiameter &le; 387.992<br/>gini = 0.278<br/>samples = 6<br/>value = [0, 0, 0, 0, 5, 0, 1]<br/>class = HOROZ>, fillcolor="#6178ea"] ;
148 -> 150 ;
151 [label=<gini = 0.0<br/>samples = 5<br/>value = [0, 0, 0, 0, 5, 0, 0]<br/>class = HOROZ>, fillcolor="#3956e5"] ;
150 -> 151 ;
152 [label=<gini = 0.0<br/>samples = 1<br/>value = [0, 0, 0, 0, 0, 0, 1]<br/>class = DERMASON>, fillcolor="#e53986"] ;
150 -> 152 ;
153 [label=<EquivDiameter &le; 343.075<br/>gini = 0.531<br/>samples = 14<br/>value = [0, 0, 0, 1, 3, 1, 9]<br/>class = DERMASON>, fillcolor="#f193bd"] ;
147 -> 153 ;
154 [label=<AspectRation &le; 2.276<br/>gini = 0.417<br/>samples = 12<br/>value = [0, 0, 0, 1, 1, 1, 9]<br/>class = DERMASON>, fillcolor="#ec6fa7"] ;
153 -> 154 ;
155 [label=<ShapeFactor1 &le; 0.01<br/>gini = 0.314<br/>samples = 11<br/>value = [0, 0, 0, 0, 1, 1, 9]<br/>class = DERMASON>, fillcolor="#ea619e"] ;
154 -> 155 ;
156 [label=<EquivDiameter &le; 306.487<br/>gini = 0.18<br/>samples = 10<br/>value = [0, 0, 0, 0, 0, 1, 9]<br/>class = DERMASON>, fillcolor="#e84f93"] ;
155 -> 156 ;
157 [label=<gini = 0.0<br/>samples = 8<br/>value = [0, 0, 0, 0, 0, 0, 8]<br/>class = DERMASON>, fillcolor="#e53986"] ;
156 -> 157 ;
158 [label=<roundness &le; 0.808<br/>gini = 0.5<br/>samples = 2<br/>value = [0, 0, 0, 0, 0, 1, 1]<br/>class = SIRA>, fillcolor="#ffffff"] ;
156 -> 158 ;
159 [label=<gini = 0.0<br/>samples = 1<br/>value = [0, 0, 0, 0, 0, 1, 0]<br/>class = SIRA>, fillcolor="#b139e5"] ;
158 -> 159 ;
160 [label=<gini = 0.0<br/>samples = 1<br/>value = [0, 0, 0, 0, 0, 0, 1]<br/>class = DERMASON>, fillcolor="#e53986"] ;
158 -> 160 ;
161 [label=<gini = 0.0<br/>samples = 1<br/>value = [0, 0, 0, 0, 1, 0, 0]<br/>class = HOROZ>, fillcolor="#3956e5"] ;
155 -> 161 ;
162 [label=<gini = 0.0<br/>samples = 1<br/>value = [0, 0, 0, 1, 0, 0, 0]<br/>class = CALI>, fillcolor="#39e5e2"] ;
154 -> 162 ;
163 [label=<gini = 0.0<br/>samples = 2<br/>value = [0, 0, 0, 0, 2, 0, 0]<br/>class = HOROZ>, fillcolor="#3956e5"] ;
153 -> 163 ;
164 [label=<gini = 0.0<br/>samples = 11<br/>value = [0, 0, 0, 11, 0, 0, 0]<br/>class = CALI>, fillcolor="#39e5e2"] ;
130 -> 164 ;
165 [label=<roundness &le; 0.976<br/>gini = 0.205<br/>samples = 36<br/>value = [0, 0, 0, 32, 2, 1, 1]<br/>class = CALI>, fillcolor="#50e8e5"] ;
129 -> 165 ;
166 [label=<Extent &le; 0.863<br/>gini = 0.112<br/>samples = 34<br/>value = [0, 0, 0, 32, 1, 0, 1]<br/>class = CALI>, fillcolor="#45e7e4"] ;
165 -> 166 ;
167 [label=<Solidity &le; 0.993<br/>gini = 0.059<br/>samples = 33<br/>value = [0, 0, 0, 32, 0, 0, 1]<br/>class = CALI>, fillcolor="#3fe6e3"] ;
166 -> 167 ;
168 [label=<gini = 0.0<br/>samples = 30<br/>value = [0, 0, 0, 30, 0, 0, 0]<br/>class = CALI>, fillcolor="#39e5e2"] ;
167 -> 168 ;
169 [label=<Compactness &le; 0.677<br/>gini = 0.444<br/>samples = 3<br/>value = [0, 0, 0, 2, 0, 0, 1]<br/>class = CALI>, fillcolor="#9cf2f0"] ;
167 -> 169 ;
170 [label=<gini = 0.0<br/>samples = 2<br/>value = [0, 0, 0, 2, 0, 0, 0]<br/>class = CALI>, fillcolor="#39e5e2"] ;
169 -> 170 ;
171 [label=<gini = 0.0<br/>samples = 1<br/>value = [0, 0, 0, 0, 0, 0, 1]<br/>class = DERMASON>, fillcolor="#e53986"] ;
169 -> 171 ;
172 [label=<gini = 0.0<br/>samples = 1<br/>value = [0, 0, 0, 0, 1, 0, 0]<br/>class = HOROZ>, fillcolor="#3956e5"] ;
166 -> 172 ;
173 [label=<Eccentricity &le; 0.52<br/>gini = 0.5<br/>samples = 2<br/>value = [0, 0, 0, 0, 1, 1, 0]<br/>class = HOROZ>, fillcolor="#ffffff"] ;
165 -> 173 ;
174 [label=<gini = 0.0<br/>samples = 1<br/>value = [0, 0, 0, 0, 1, 0, 0]<br/>class = HOROZ>, fillcolor="#3956e5"] ;
173 -> 174 ;
175 [label=<gini = 0.0<br/>samples = 1<br/>value = [0, 0, 0, 0, 0, 1, 0]<br/>class = SIRA>, fillcolor="#b139e5"] ;
173 -> 175 ;
176 [label=<ShapeFactor4 &le; 0.986<br/>gini = 0.586<br/>samples = 36<br/>value = [1, 0, 0, 13, 1, 19, 2]<br/>class = SIRA>, fillcolor="#ebcbf8"] ;
128 -> 176 ;
177 [label=<Compactness &le; 0.755<br/>gini = 0.54<br/>samples = 17<br/>value = [1, 0, 0, 11, 1, 3, 1]<br/>class = CALI>, fillcolor="#8ef0ee"] ;
176 -> 177 ;
178 [label=<MinorAxisLength &le; 251.89<br/>gini = 0.165<br/>samples = 11<br/>value = [0, 0, 0, 10, 1, 0, 0]<br/>class = CALI>, fillcolor="#4de8e5"] ;
177 -> 178 ;
179 [label=<gini = 0.0<br/>samples = 10<br/>value = [0, 0, 0, 10, 0, 0, 0]<br/>class = CALI>, fillcolor="#39e5e2"] ;
178 -> 179 ;
180 [label=<gini = 0.0<br/>samples = 1<br/>value = [0, 0, 0, 0, 1, 0, 0]<br/>class = HOROZ>, fillcolor="#3956e5"] ;
178 -> 180 ;
181 [label=<MajorAxisLength &le; 439.214<br/>gini = 0.667<br/>samples = 6<br/>value = [1, 0, 0, 1, 0, 3, 1]<br/>class = SIRA>, fillcolor="#e0b0f5"] ;
177 -> 181 ;
182 [label=<gini = 0.0<br/>samples = 3<br/>value = [0, 0, 0, 0, 0, 3, 0]<br/>class = SIRA>, fillcolor="#b139e5"] ;
181 -> 182 ;
183 [label=<Extent &le; 0.613<br/>gini = 0.667<br/>samples = 3<br/>value = [1, 0, 0, 1, 0, 0, 1]<br/>class = SEKER>, fillcolor="#ffffff"] ;
181 -> 183 ;
184 [label=<gini = 0.0<br/>samples = 1<br/>value = [0, 0, 0, 0, 0, 0, 1]<br/>class = DERMASON>, fillcolor="#e53986"] ;
183 -> 184 ;
185 [label=<Eccentricity &le; 0.829<br/>gini = 0.5<br/>samples = 2<br/>value = [1, 0, 0, 1, 0, 0, 0]<br/>class = SEKER>, fillcolor="#ffffff"] ;
183 -> 185 ;
186 [label=<gini = 0.0<br/>samples = 1<br/>value = [0, 0, 0, 1, 0, 0, 0]<br/>class = CALI>, fillcolor="#39e5e2"] ;
185 -> 186 ;
187 [label=<gini = 0.0<br/>samples = 1<br/>value = [1, 0, 0, 0, 0, 0, 0]<br/>class = SEKER>, fillcolor="#e58139"] ;
185 -> 187 ;
188 [label=<MinorAxisLength &le; 258.817<br/>gini = 0.277<br/>samples = 19<br/>value = [0, 0, 0, 2, 0, 16, 1]<br/>class = SIRA>, fillcolor="#bf5cea"] ;
176 -> 188 ;
189 [label=<ShapeFactor2 &le; 0.003<br/>gini = 0.198<br/>samples = 18<br/>value = [0, 0, 0, 2, 0, 16, 0]<br/>class = SIRA>, fillcolor="#bb52e8"] ;
188 -> 189 ;
190 [label=<gini = 0.0<br/>samples = 14<br/>value = [0, 0, 0, 0, 0, 14, 0]<br/>class = SIRA>, fillcolor="#b139e5"] ;
189 -> 190 ;
191 [label=<ShapeFactor2 &le; 0.003<br/>gini = 0.5<br/>samples = 4<br/>value = [0, 0, 0, 2, 0, 2, 0]<br/>class = CALI>, fillcolor="#ffffff"] ;
189 -> 191 ;
192 [label=<gini = 0.0<br/>samples = 2<br/>value = [0, 0, 0, 2, 0, 0, 0]<br/>class = CALI>, fillcolor="#39e5e2"] ;
191 -> 192 ;
193 [label=<gini = 0.0<br/>samples = 2<br/>value = [0, 0, 0, 0, 0, 2, 0]<br/>class = SIRA>, fillcolor="#b139e5"] ;
191 -> 193 ;
194 [label=<gini = 0.0<br/>samples = 1<br/>value = [0, 0, 0, 0, 0, 0, 1]<br/>class = DERMASON>, fillcolor="#e53986"] ;
188 -> 194 ;
195 [label=<EquivDiameter &le; 325.792<br/>gini = 0.768<br/>samples = 278<br/>value = [52, 25, 15, 37, 8, 109, 32]<br/>class = SIRA>, fillcolor="#ebcdf8"] ;
1 -> 195 ;
196 [label=<Perimeter &le; 704.667<br/>gini = 0.84<br/>samples = 114<br/>value = [25, 18, 9, 21, 8, 17, 16]<br/>class = SEKER>, fillcolor="#fefaf6"] ;
195 -> 196 ;
197 [label=<ShapeFactor4 &le; 0.994<br/>gini = 0.678<br/>samples = 32<br/>value = [0, 0, 2, 15, 1, 8, 6]<br/>class = CALI>, fillcolor="#c5f7f7"] ;
196 -> 197 ;
198 [label=<Area &le; 73480.0<br/>gini = 0.601<br/>samples = 26<br/>value = [0, 0, 2, 15, 1, 2, 6]<br/>class = CALI>, fillcolor="#a6f3f2"] ;
197 -> 198 ;
199 [label=<ShapeFactor2 &le; 0.001<br/>gini = 0.338<br/>samples = 15<br/>value = [0, 0, 0, 12, 0, 2, 1]<br/>class = CALI>, fillcolor="#67ebe9"] ;
198 -> 199 ;
200 [label=<EquivDiameter &le; 204.467<br/>gini = 0.625<br/>samples = 4<br/>value = [0, 0, 0, 1, 0, 2, 1]<br/>class = SIRA>, fillcolor="#e5bdf6"] ;
199 -> 200 ;
201 [label=<ShapeFactor1 &le; 0.008<br/>gini = 0.5<br/>samples = 2<br/>value = [0, 0, 0, 1, 0, 0, 1]<br/>class = CALI>, fillcolor="#ffffff"] ;
200 -> 201 ;
202 [label=<gini = 0.0<br/>samples = 1<br/>value = [0, 0, 0, 0, 0, 0, 1]<br/>class = DERMASON>, fillcolor="#e53986"] ;
201 -> 202 ;
203 [label=<gini = 0.0<br/>samples = 1<br/>value = [0, 0, 0, 1, 0, 0, 0]<br/>class = CALI>, fillcolor="#39e5e2"] ;
201 -> 203 ;
204 [label=<gini = 0.0<br/>samples = 2<br/>value = [0, 0, 0, 0, 0, 2, 0]<br/>class = SIRA>, fillcolor="#b139e5"] ;
200 -> 204 ;
205 [label=<gini = 0.0<br/>samples = 11<br/>value = [0, 0, 0, 11, 0, 0, 0]<br/>class = CALI>, fillcolor="#39e5e2"] ;
199 -> 205 ;
206 [label=<EquivDiameter &le; 216.284<br/>gini = 0.678<br/>samples = 11<br/>value = [0, 0, 2, 3, 1, 0, 5]<br/>class = DERMASON>, fillcolor="#f8cee1"] ;
198 -> 206 ;
207 [label=<Perimeter &le; 567.824<br/>gini = 0.375<br/>samples = 4<br/>value = [0, 0, 1, 3, 0, 0, 0]<br/>class = CALI>, fillcolor="#7beeec"] ;
206 -> 207 ;
208 [label=<gini = 0.0<br/>samples = 1<br/>value = [0, 0, 1, 0, 0, 0, 0]<br/>class = BOMBAY>, fillcolor="#39e54d"] ;
207 -> 208 ;
209 [label=<gini = 0.0<br/>samples = 3<br/>value = [0, 0, 0, 3, 0, 0, 0]<br/>class = CALI>, fillcolor="#39e5e2"] ;
207 -> 209 ;
210 [label=<ConvexArea &le; 174748.0<br/>gini = 0.449<br/>samples = 7<br/>value = [0, 0, 1, 0, 1, 0, 5]<br/>class = DERMASON>, fillcolor="#ee7bae"] ;
206 -> 210 ;
211 [label=<gini = 0.0<br/>samples = 5<br/>value = [0, 0, 0, 0, 0, 0, 5]<br/>class = DERMASON>, fillcolor="#e53986"] ;
210 -> 211 ;
212 [label=<ShapeFactor2 &le; 0.001<br/>gini = 0.5<br/>samples = 2<br/>value = [0, 0, 1, 0, 1, 0, 0]<br/>class = BOMBAY>, fillcolor="#ffffff"] ;
210 -> 212 ;
213 [label=<gini = 0.0<br/>samples = 1<br/>value = [0, 0, 1, 0, 0, 0, 0]<br/>class = BOMBAY>, fillcolor="#39e54d"] ;
212 -> 213 ;
214 [label=<gini = 0.0<br/>samples = 1<br/>value = [0, 0, 0, 0, 1, 0, 0]<br/>class = HOROZ>, fillcolor="#3956e5"] ;
212 -> 214 ;
215 [label=<gini = 0.0<br/>samples = 6<br/>value = [0, 0, 0, 0, 0, 6, 0]<br/>class = SIRA>, fillcolor="#b139e5"] ;
197 -> 215 ;
216 [label=<ShapeFactor4 &le; 0.984<br/>gini = 0.812<br/>samples = 82<br/>value = [25, 18, 7, 6, 7, 9, 10]<br/>class = SEKER>, fillcolor="#fcf1e9"] ;
196 -> 216 ;
217 [label=<Perimeter &le; 1847.094<br/>gini = 0.842<br/>samples = 51<br/>value = [9, 10, 6, 6, 7, 3, 10]<br/>class = BARBUNYA>, fillcolor="#ffffff"] ;
216 -> 217 ;
218 [label=<ShapeFactor2 &le; 0.002<br/>gini = 0.839<br/>samples = 45<br/>value = [4, 9, 6, 6, 7, 3, 10]<br/>class = DERMASON>, fillcolor="#fefafc"] ;
217 -> 218 ;
219 [label=<ShapeFactor1 &le; 0.008<br/>gini = 0.805<br/>samples = 37<br/>value = [3, 9, 6, 1, 6, 2, 10]<br/>class = DERMASON>, fillcolor="#fef8fb"] ;
218 -> 219 ;
220 [label=<Compactness &le; 0.92<br/>gini = 0.787<br/>samples = 29<br/>value = [3, 9, 6, 0, 6, 1, 4]<br/>class = BARBUNYA>, fillcolor="#f6fce5"] ;
219 -> 220 ;
221 [label=<ShapeFactor4 &le; 0.968<br/>gini = 0.735<br/>samples = 18<br/>value = [0, 2, 6, 0, 6, 1, 3]<br/>class = BOMBAY>, fillcolor="#ffffff"] ;
220 -> 221 ;
222 [label=<Eccentricity &le; 0.82<br/>gini = 0.49<br/>samples = 7<br/>value = [0, 0, 0, 0, 4, 0, 3]<br/>class = HOROZ>, fillcolor="#ced5f8"] ;
221 -> 222 ;
223 [label=<ShapeFactor3 &le; 0.97<br/>gini = 0.32<br/>samples = 5<br/>value = [0, 0, 0, 0, 4, 0, 1]<br/>class = HOROZ>, fillcolor="#6a80ec"] ;
222 -> 223 ;
224 [label=<gini = 0.0<br/>samples = 4<br/>value = [0, 0, 0, 0, 4, 0, 0]<br/>class = HOROZ>, fillcolor="#3956e5"] ;
223 -> 224 ;
225 [label=<gini = 0.0<br/>samples = 1<br/>value = [0, 0, 0, 0, 0, 0, 1]<br/>class = DERMASON>, fillcolor="#e53986"] ;
223 -> 225 ;
226 [label=<gini = 0.0<br/>samples = 2<br/>value = [0, 0, 0, 0, 0, 0, 2]<br/>class = DERMASON>, fillcolor="#e53986"] ;
222 -> 226 ;
227 [label=<ShapeFactor2 &le; 0.002<br/>gini = 0.628<br/>samples = 11<br/>value = [0, 2, 6, 0, 2, 1, 0]<br/>class = BOMBAY>, fillcolor="#a7f3b0"] ;
221 -> 227 ;
228 [label=<ShapeFactor3 &le; 0.636<br/>gini = 0.494<br/>samples = 9<br/>value = [0, 2, 6, 0, 0, 1, 0]<br/>class = BOMBAY>, fillcolor="#8ef099"] ;
227 -> 228 ;
229 [label=<gini = 0.0<br/>samples = 5<br/>value = [0, 0, 5, 0, 0, 0, 0]<br/>class = BOMBAY>, fillcolor="#39e54d"] ;
228 -> 229 ;
230 [label=<Area &le; 102967.5<br/>gini = 0.625<br/>samples = 4<br/>value = [0, 2, 1, 0, 0, 1, 0]<br/>class = BARBUNYA>, fillcolor="#e7f6bd"] ;
228 -> 230 ;
231 [label=<ShapeFactor3 &le; 0.806<br/>gini = 0.5<br/>samples = 2<br/>value = [0, 0, 1, 0, 0, 1, 0]<br/>class = BOMBAY>, fillcolor="#ffffff"] ;
230 -> 231 ;
232 [label=<gini = 0.0<br/>samples = 1<br/>value = [0, 0, 1, 0, 0, 0, 0]<br/>class = BOMBAY>, fillcolor="#39e54d"] ;
231 -> 232 ;
233 [label=<gini = 0.0<br/>samples = 1<br/>value = [0, 0, 0, 0, 0, 1, 0]<br/>class = SIRA>, fillcolor="#b139e5"] ;
231 -> 233 ;
234 [label=<gini = 0.0<br/>samples = 2<br/>value = [0, 2, 0, 0, 0, 0, 0]<br/>class = BARBUNYA>, fillcolor="#b7e539"] ;
230 -> 234 ;
235 [label=<gini = 0.0<br/>samples = 2<br/>value = [0, 0, 0, 0, 2, 0, 0]<br/>class = HOROZ>, fillcolor="#3956e5"] ;
227 -> 235 ;
236 [label=<MinorAxisLength &le; 218.692<br/>gini = 0.512<br/>samples = 11<br/>value = [3, 7, 0, 0, 0, 0, 1]<br/>class = BARBUNYA>, fillcolor="#dbf29c"] ;
220 -> 236 ;
237 [label=<ShapeFactor4 &le; 0.971<br/>gini = 0.56<br/>samples = 5<br/>value = [3, 1, 0, 0, 0, 0, 1]<br/>class = SEKER>, fillcolor="#f2c09c"] ;
236 -> 237 ;
238 [label=<ShapeFactor1 &le; 0.007<br/>gini = 0.5<br/>samples = 2<br/>value = [0, 1, 0, 0, 0, 0, 1]<br/>class = BARBUNYA>, fillcolor="#ffffff"] ;
237 -> 238 ;
239 [label=<gini = 0.0<br/>samples = 1<br/>value = [0, 1, 0, 0, 0, 0, 0]<br/>class = BARBUNYA>, fillcolor="#b7e539"] ;
238 -> 239 ;
240 [label=<gini = 0.0<br/>samples = 1<br/>value = [0, 0, 0, 0, 0, 0, 1]<br/>class = DERMASON>, fillcolor="#e53986"] ;
238 -> 240 ;
241 [label=<gini = 0.0<br/>samples = 3<br/>value = [3, 0, 0, 0, 0, 0, 0]<br/>class = SEKER>, fillcolor="#e58139"] ;
237 -> 241 ;
242 [label=<gini = 0.0<br/>samples = 6<br/>value = [0, 6, 0, 0, 0, 0, 0]<br/>class = BARBUNYA>, fillcolor="#b7e539"] ;
236 -> 242 ;
243 [label=<ShapeFactor1 &le; 0.009<br/>gini = 0.406<br/>samples = 8<br/>value = [0, 0, 0, 1, 0, 1, 6]<br/>class = DERMASON>, fillcolor="#ec72a9"] ;
219 -> 243 ;
244 [label=<gini = 0.0<br/>samples = 6<br/>value = [0, 0, 0, 0, 0, 0, 6]<br/>class = DERMASON>, fillcolor="#e53986"] ;
243 -> 244 ;
245 [label=<ShapeFactor3 &le; 0.732<br/>gini = 0.5<br/>samples = 2<br/>value = [0, 0, 0, 1, 0, 1, 0]<br/>class = CALI>, fillcolor="#ffffff"] ;
243 -> 245 ;
246 [label=<gini = 0.0<br/>samples = 1<br/>value = [0, 0, 0, 0, 0, 1, 0]<br/>class = SIRA>, fillcolor="#b139e5"] ;
245 -> 246 ;
247 [label=<gini = 0.0<br/>samples = 1<br/>value = [0, 0, 0, 1, 0, 0, 0]<br/>class = CALI>, fillcolor="#39e5e2"] ;
245 -> 247 ;
248 [label=<roundness &le; 0.657<br/>gini = 0.562<br/>samples = 8<br/>value = [1, 0, 0, 5, 1, 1, 0]<br/>class = CALI>, fillcolor="#8ef0ee"] ;
218 -> 248 ;
249 [label=<Area &le; 105778.5<br/>gini = 0.5<br/>samples = 2<br/>value = [1, 0, 0, 0, 0, 1, 0]<br/>class = SEKER>, fillcolor="#ffffff"] ;
248 -> 249 ;
250 [label=<gini = 0.0<br/>samples = 1<br/>value = [0, 0, 0, 0, 0, 1, 0]<br/>class = SIRA>, fillcolor="#b139e5"] ;
249 -> 250 ;
251 [label=<gini = 0.0<br/>samples = 1<br/>value = [1, 0, 0, 0, 0, 0, 0]<br/>class = SEKER>, fillcolor="#e58139"] ;
249 -> 251 ;
252 [label=<Solidity &le; 0.989<br/>gini = 0.278<br/>samples = 6<br/>value = [0, 0, 0, 5, 1, 0, 0]<br/>class = CALI>, fillcolor="#61eae8"] ;
248 -> 252 ;
253 [label=<gini = 0.0<br/>samples = 5<br/>value = [0, 0, 0, 5, 0, 0, 0]<br/>class = CALI>, fillcolor="#39e5e2"] ;
252 -> 253 ;
254 [label=<gini = 0.0<br/>samples = 1<br/>value = [0, 0, 0, 0, 1, 0, 0]<br/>class = HOROZ>, fillcolor="#3956e5"] ;
252 -> 254 ;
255 [label=<MinorAxisLength &le; 238.102<br/>gini = 0.278<br/>samples = 6<br/>value = [5, 1, 0, 0, 0, 0, 0]<br/>class = SEKER>, fillcolor="#ea9a61"] ;
217 -> 255 ;
256 [label=<gini = 0.0<br/>samples = 5<br/>value = [5, 0, 0, 0, 0, 0, 0]<br/>class = SEKER>, fillcolor="#e58139"] ;
255 -> 256 ;
257 [label=<gini = 0.0<br/>samples = 1<br/>value = [0, 1, 0, 0, 0, 0, 0]<br/>class = BARBUNYA>, fillcolor="#b7e539"] ;
255 -> 257 ;
258 [label=<ShapeFactor1 &le; 0.008<br/>gini = 0.629<br/>samples = 31<br/>value = [16, 8, 1, 0, 0, 6, 0]<br/>class = SEKER>, fillcolor="#f6d3ba"] ;
216 -> 258 ;
259 [label=<ConvexArea &le; 252857.0<br/>gini = 0.444<br/>samples = 21<br/>value = [14, 7, 0, 0, 0, 0, 0]<br/>class = SEKER>, fillcolor="#f2c09c"] ;
258 -> 259 ;
260 [label=<Perimeter &le; 1549.885<br/>gini = 0.291<br/>samples = 17<br/>value = [14, 3, 0, 0, 0, 0, 0]<br/>class = SEKER>, fillcolor="#eb9c63"] ;
259 -> 260 ;
261 [label=<gini = 0.0<br/>samples = 11<br/>value = [11, 0, 0, 0, 0, 0, 0]<br/>class = SEKER>, fillcolor="#e58139"] ;
260 -> 261 ;
262 [label=<ShapeFactor2 &le; 0.001<br/>gini = 0.5<br/>samples = 6<br/>value = [3, 3, 0, 0, 0, 0, 0]<br/>class = SEKER>, fillcolor="#ffffff"] ;
260 -> 262 ;
263 [label=<gini = 0.0<br/>samples = 3<br/>value = [0, 3, 0, 0, 0, 0, 0]<br/>class = BARBUNYA>, fillcolor="#b7e539"] ;
262 -> 263 ;
264 [label=<gini = 0.0<br/>samples = 3<br/>value = [3, 0, 0, 0, 0, 0, 0]<br/>class = SEKER>, fillcolor="#e58139"] ;
262 -> 264 ;
265 [label=<gini = 0.0<br/>samples = 4<br/>value = [0, 4, 0, 0, 0, 0, 0]<br/>class = BARBUNYA>, fillcolor="#b7e539"] ;
259 -> 265 ;
266 [label=<MinorAxisLength &le; 215.98<br/>gini = 0.58<br/>samples = 10<br/>value = [2, 1, 1, 0, 0, 6, 0]<br/>class = SIRA>, fillcolor="#d89cf2"] ;
258 -> 266 ;
267 [label=<MajorAxisLength &le; 736.397<br/>gini = 0.245<br/>samples = 7<br/>value = [0, 0, 1, 0, 0, 6, 0]<br/>class = SIRA>, fillcolor="#be5ae9"] ;
266 -> 267 ;
268 [label=<gini = 0.0<br/>samples = 6<br/>value = [0, 0, 0, 0, 0, 6, 0]<br/>class = SIRA>, fillcolor="#b139e5"] ;
267 -> 268 ;
269 [label=<gini = 0.0<br/>samples = 1<br/>value = [0, 0, 1, 0, 0, 0, 0]<br/>class = BOMBAY>, fillcolor="#39e54d"] ;
267 -> 269 ;
270 [label=<Eccentricity &le; 0.624<br/>gini = 0.444<br/>samples = 3<br/>value = [2, 1, 0, 0, 0, 0, 0]<br/>class = SEKER>, fillcolor="#f2c09c"] ;
266 -> 270 ;
271 [label=<gini = 0.0<br/>samples = 1<br/>value = [0, 1, 0, 0, 0, 0, 0]<br/>class = BARBUNYA>, fillcolor="#b7e539"] ;
270 -> 271 ;
272 [label=<gini = 0.0<br/>samples = 2<br/>value = [2, 0, 0, 0, 0, 0, 0]<br/>class = SEKER>, fillcolor="#e58139"] ;
270 -> 272 ;
273 [label=<AspectRation &le; 1.764<br/>gini = 0.636<br/>samples = 164<br/>value = [27, 7, 6, 16, 0, 92, 16]<br/>class = SIRA>, fillcolor="#daa1f3"] ;
195 -> 273 ;
274 [label=<ShapeFactor1 &le; 0.008<br/>gini = 0.747<br/>samples = 104<br/>value = [25, 5, 6, 13, 0, 41, 14]<br/>class = SIRA>, fillcolor="#efd7fa"] ;
273 -> 274 ;
275 [label=<Solidity &le; 0.943<br/>gini = 0.681<br/>samples = 70<br/>value = [21, 5, 5, 0, 0, 32, 7]<br/>class = SIRA>, fillcolor="#edd3f9"] ;
274 -> 275 ;
276 [label=<Area &le; 201744.0<br/>gini = 0.208<br/>samples = 17<br/>value = [2, 0, 0, 0, 0, 15, 0]<br/>class = SIRA>, fillcolor="#bb53e8"] ;
275 -> 276 ;
277 [label=<gini = 0.0<br/>samples = 14<br/>value = [0, 0, 0, 0, 0, 14, 0]<br/>class = SIRA>, fillcolor="#b139e5"] ;
276 -> 277 ;
278 [label=<MinorAxisLength &le; 213.651<br/>gini = 0.444<br/>samples = 3<br/>value = [2, 0, 0, 0, 0, 1, 0]<br/>class = SEKER>, fillcolor="#f2c09c"] ;
276 -> 278 ;
279 [label=<gini = 0.0<br/>samples = 2<br/>value = [2, 0, 0, 0, 0, 0, 0]<br/>class = SEKER>, fillcolor="#e58139"] ;
278 -> 279 ;
280 [label=<gini = 0.0<br/>samples = 1<br/>value = [0, 0, 0, 0, 0, 1, 0]<br/>class = SIRA>, fillcolor="#b139e5"] ;
278 -> 280 ;
281 [label=<ShapeFactor2 &le; 0.002<br/>gini = 0.733<br/>samples = 53<br/>value = [19, 5, 5, 0, 0, 17, 7]<br/>class = SEKER>, fillcolor="#fef8f4"] ;
275 -> 281 ;
282 [label=<MajorAxisLength &le; 495.596<br/>gini = 0.639<br/>samples = 21<br/>value = [11, 3, 5, 0, 0, 0, 2]<br/>class = SEKER>, fillcolor="#f5d0b5"] ;
281 -> 282 ;
283 [label=<Perimeter &le; 668.898<br/>gini = 0.473<br/>samples = 13<br/>value = [9, 2, 0, 0, 0, 0, 2]<br/>class = SEKER>, fillcolor="#eeaf81"] ;
282 -> 283 ;
284 [label=<gini = 0.0<br/>samples = 2<br/>value = [0, 0, 0, 0, 0, 0, 2]<br/>class = DERMASON>, fillcolor="#e53986"] ;
283 -> 284 ;
285 [label=<Extent &le; 0.809<br/>gini = 0.298<br/>samples = 11<br/>value = [9, 2, 0, 0, 0, 0, 0]<br/>class = SEKER>, fillcolor="#eb9d65"] ;
283 -> 285 ;
286 [label=<gini = 0.0<br/>samples = 8<br/>value = [8, 0, 0, 0, 0, 0, 0]<br/>class = SEKER>, fillcolor="#e58139"] ;
285 -> 286 ;
287 [label=<ShapeFactor1 &le; 0.008<br/>gini = 0.444<br/>samples = 3<br/>value = [1, 2, 0, 0, 0, 0, 0]<br/>class = BARBUNYA>, fillcolor="#dbf29c"] ;
285 -> 287 ;
288 [label=<gini = 0.0<br/>samples = 2<br/>value = [0, 2, 0, 0, 0, 0, 0]<br/>class = BARBUNYA>, fillcolor="#b7e539"] ;
287 -> 288 ;
289 [label=<gini = 0.0<br/>samples = 1<br/>value = [1, 0, 0, 0, 0, 0, 0]<br/>class = SEKER>, fillcolor="#e58139"] ;
287 -> 289 ;
290 [label=<Perimeter &le; 1704.009<br/>gini = 0.531<br/>samples = 8<br/>value = [2, 1, 5, 0, 0, 0, 0]<br/>class = BOMBAY>, fillcolor="#9cf2a6"] ;
282 -> 290 ;
291 [label=<gini = 0.0<br/>samples = 5<br/>value = [0, 0, 5, 0, 0, 0, 0]<br/>class = BOMBAY>, fillcolor="#39e54d"] ;
290 -> 291 ;
292 [label=<ShapeFactor4 &le; 0.983<br/>gini = 0.444<br/>samples = 3<br/>value = [2, 1, 0, 0, 0, 0, 0]<br/>class = SEKER>, fillcolor="#f2c09c"] ;
290 -> 292 ;
293 [label=<gini = 0.0<br/>samples = 1<br/>value = [0, 1, 0, 0, 0, 0, 0]<br/>class = BARBUNYA>, fillcolor="#b7e539"] ;
292 -> 293 ;
294 [label=<gini = 0.0<br/>samples = 2<br/>value = [2, 0, 0, 0, 0, 0, 0]<br/>class = SEKER>, fillcolor="#e58139"] ;
292 -> 294 ;
295 [label=<Perimeter &le; 1314.708<br/>gini = 0.627<br/>samples = 32<br/>value = [8, 2, 0, 0, 0, 17, 5]<br/>class = SIRA>, fillcolor="#e2b5f5"] ;
281 -> 295 ;
296 [label=<ShapeFactor4 &le; 0.97<br/>gini = 0.304<br/>samples = 17<br/>value = [2, 0, 0, 0, 0, 14, 1]<br/>class = SIRA>, fillcolor="#c161ea"] ;
295 -> 296 ;
297 [label=<gini = 0.0<br/>samples = 1<br/>value = [0, 0, 0, 0, 0, 0, 1]<br/>class = DERMASON>, fillcolor="#e53986"] ;
296 -> 297 ;
298 [label=<ShapeFactor1 &le; 0.004<br/>gini = 0.219<br/>samples = 16<br/>value = [2, 0, 0, 0, 0, 14, 0]<br/>class = SIRA>, fillcolor="#bc55e9"] ;
296 -> 298 ;
299 [label=<gini = 0.0<br/>samples = 1<br/>value = [1, 0, 0, 0, 0, 0, 0]<br/>class = SEKER>, fillcolor="#e58139"] ;
298 -> 299 ;
300 [label=<ConvexArea &le; 196871.0<br/>gini = 0.124<br/>samples = 15<br/>value = [1, 0, 0, 0, 0, 14, 0]<br/>class = SIRA>, fillcolor="#b747e7"] ;
298 -> 300 ;
301 [label=<gini = 0.0<br/>samples = 13<br/>value = [0, 0, 0, 0, 0, 13, 0]<br/>class = SIRA>, fillcolor="#b139e5"] ;
300 -> 301 ;
302 [label=<Perimeter &le; 1052.882<br/>gini = 0.5<br/>samples = 2<br/>value = [1, 0, 0, 0, 0, 1, 0]<br/>class = SEKER>, fillcolor="#ffffff"] ;
300 -> 302 ;
303 [label=<gini = 0.0<br/>samples = 1<br/>value = [1, 0, 0, 0, 0, 0, 0]<br/>class = SEKER>, fillcolor="#e58139"] ;
302 -> 303 ;
304 [label=<gini = 0.0<br/>samples = 1<br/>value = [0, 0, 0, 0, 0, 1, 0]<br/>class = SIRA>, fillcolor="#b139e5"] ;
302 -> 304 ;
305 [label=<roundness &le; 0.741<br/>gini = 0.711<br/>samples = 15<br/>value = [6, 2, 0, 0, 0, 3, 4]<br/>class = SEKER>, fillcolor="#fae8db"] ;
295 -> 305 ;
306 [label=<MinorAxisLength &le; 134.863<br/>gini = 0.494<br/>samples = 9<br/>value = [6, 1, 0, 0, 0, 2, 0]<br/>class = SEKER>, fillcolor="#f0b78e"] ;
305 -> 306 ;
307 [label=<gini = 0.0<br/>samples = 2<br/>value = [0, 0, 0, 0, 0, 2, 0]<br/>class = SIRA>, fillcolor="#b139e5"] ;
306 -> 307 ;
308 [label=<ShapeFactor4 &le; 0.952<br/>gini = 0.245<br/>samples = 7<br/>value = [6, 1, 0, 0, 0, 0, 0]<br/>class = SEKER>, fillcolor="#e9965a"] ;
306 -> 308 ;
309 [label=<gini = 0.0<br/>samples = 1<br/>value = [0, 1, 0, 0, 0, 0, 0]<br/>class = BARBUNYA>, fillcolor="#b7e539"] ;
308 -> 309 ;
310 [label=<gini = 0.0<br/>samples = 6<br/>value = [6, 0, 0, 0, 0, 0, 0]<br/>class = SEKER>, fillcolor="#e58139"] ;
308 -> 310 ;
311 [label=<ShapeFactor4 &le; 0.992<br/>gini = 0.5<br/>samples = 6<br/>value = [0, 1, 0, 0, 0, 1, 4]<br/>class = DERMASON>, fillcolor="#ef88b6"] ;
305 -> 311 ;
312 [label=<AspectRation &le; 1.16<br/>gini = 0.32<br/>samples = 5<br/>value = [0, 1, 0, 0, 0, 0, 4]<br/>class = DERMASON>, fillcolor="#ec6aa4"] ;
311 -> 312 ;
313 [label=<gini = 0.0<br/>samples = 1<br/>value = [0, 1, 0, 0, 0, 0, 0]<br/>class = BARBUNYA>, fillcolor="#b7e539"] ;
312 -> 313 ;
314 [label=<gini = 0.0<br/>samples = 4<br/>value = [0, 0, 0, 0, 0, 0, 4]<br/>class = DERMASON>, fillcolor="#e53986"] ;
312 -> 314 ;
315 [label=<gini = 0.0<br/>samples = 1<br/>value = [0, 0, 0, 0, 0, 1, 0]<br/>class = SIRA>, fillcolor="#b139e5"] ;
311 -> 315 ;
316 [label=<ShapeFactor3 &le; 0.707<br/>gini = 0.727<br/>samples = 34<br/>value = [4, 0, 1, 13, 0, 9, 7]<br/>class = CALI>, fillcolor="#dffbfa"] ;
274 -> 316 ;
317 [label=<Eccentricity &le; 0.441<br/>gini = 0.604<br/>samples = 19<br/>value = [1, 0, 1, 11, 0, 2, 4]<br/>class = CALI>, fillcolor="#a3f3f1"] ;
316 -> 317 ;
318 [label=<ConvexArea &le; 85093.5<br/>gini = 0.625<br/>samples = 4<br/>value = [1, 0, 1, 0, 0, 0, 2]<br/>class = DERMASON>, fillcolor="#f6bdd7"] ;
317 -> 318 ;
319 [label=<gini = 0.0<br/>samples = 2<br/>value = [0, 0, 0, 0, 0, 0, 2]<br/>class = DERMASON>, fillcolor="#e53986"] ;
318 -> 319 ;
320 [label=<MinorAxisLength &le; 196.964<br/>gini = 0.5<br/>samples = 2<br/>value = [1, 0, 1, 0, 0, 0, 0]<br/>class = SEKER>, fillcolor="#ffffff"] ;
318 -> 320 ;
321 [label=<gini = 0.0<br/>samples = 1<br/>value = [1, 0, 0, 0, 0, 0, 0]<br/>class = SEKER>, fillcolor="#e58139"] ;
320 -> 321 ;
322 [label=<gini = 0.0<br/>samples = 1<br/>value = [0, 0, 1, 0, 0, 0, 0]<br/>class = BOMBAY>, fillcolor="#39e54d"] ;
320 -> 322 ;
323 [label=<EquivDiameter &le; 539.426<br/>gini = 0.427<br/>samples = 15<br/>value = [0, 0, 0, 11, 0, 2, 2]<br/>class = CALI>, fillcolor="#76edeb"] ;
317 -> 323 ;
324 [label=<Perimeter &le; 1860.577<br/>gini = 0.272<br/>samples = 13<br/>value = [0, 0, 0, 11, 0, 1, 1]<br/>class = CALI>, fillcolor="#5ae9e7"] ;
323 -> 324 ;
325 [label=<AspectRation &le; 1.693<br/>gini = 0.153<br/>samples = 12<br/>value = [0, 0, 0, 11, 0, 1, 0]<br/>class = CALI>, fillcolor="#4be7e5"] ;
324 -> 325 ;
326 [label=<gini = 0.0<br/>samples = 11<br/>value = [0, 0, 0, 11, 0, 0, 0]<br/>class = CALI>, fillcolor="#39e5e2"] ;
325 -> 326 ;
327 [label=<gini = 0.0<br/>samples = 1<br/>value = [0, 0, 0, 0, 0, 1, 0]<br/>class = SIRA>, fillcolor="#b139e5"] ;
325 -> 327 ;
328 [label=<gini = 0.0<br/>samples = 1<br/>value = [0, 0, 0, 0, 0, 0, 1]<br/>class = DERMASON>, fillcolor="#e53986"] ;
324 -> 328 ;
329 [label=<roundness &le; 0.681<br/>gini = 0.5<br/>samples = 2<br/>value = [0, 0, 0, 0, 0, 1, 1]<br/>class = SIRA>, fillcolor="#ffffff"] ;
323 -> 329 ;
330 [label=<gini = 0.0<br/>samples = 1<br/>value = [0, 0, 0, 0, 0, 0, 1]<br/>class = DERMASON>, fillcolor="#e53986"] ;
329 -> 330 ;
331 [label=<gini = 0.0<br/>samples = 1<br/>value = [0, 0, 0, 0, 0, 1, 0]<br/>class = SIRA>, fillcolor="#b139e5"] ;
329 -> 331 ;
332 [label=<Solidity &le; 0.977<br/>gini = 0.684<br/>samples = 15<br/>value = [3, 0, 0, 2, 0, 7, 3]<br/>class = SIRA>, fillcolor="#e5bdf6"] ;
316 -> 332 ;
333 [label=<EquivDiameter &le; 403.338<br/>gini = 0.37<br/>samples = 9<br/>value = [1, 0, 0, 0, 0, 7, 1]<br/>class = SIRA>, fillcolor="#c46aec"] ;
332 -> 333 ;
334 [label=<gini = 0.0<br/>samples = 1<br/>value = [1, 0, 0, 0, 0, 0, 0]<br/>class = SEKER>, fillcolor="#e58139"] ;
333 -> 334 ;
335 [label=<Compactness &le; 0.965<br/>gini = 0.219<br/>samples = 8<br/>value = [0, 0, 0, 0, 0, 7, 1]<br/>class = SIRA>, fillcolor="#bc55e9"] ;
333 -> 335 ;
336 [label=<gini = 0.0<br/>samples = 7<br/>value = [0, 0, 0, 0, 0, 7, 0]<br/>class = SIRA>, fillcolor="#b139e5"] ;
335 -> 336 ;
337 [label=<gini = 0.0<br/>samples = 1<br/>value = [0, 0, 0, 0, 0, 0, 1]<br/>class = DERMASON>, fillcolor="#e53986"] ;
335 -> 337 ;
338 [label=<roundness &le; 0.93<br/>gini = 0.667<br/>samples = 6<br/>value = [2, 0, 0, 2, 0, 0, 2]<br/>class = SEKER>, fillcolor="#ffffff"] ;
332 -> 338 ;
339 [label=<Perimeter &le; 1384.219<br/>gini = 0.5<br/>samples = 4<br/>value = [2, 0, 0, 2, 0, 0, 0]<br/>class = SEKER>, fillcolor="#ffffff"] ;
338 -> 339 ;
340 [label=<gini = 0.0<br/>samples = 2<br/>value = [0, 0, 0, 2, 0, 0, 0]<br/>class = CALI>, fillcolor="#39e5e2"] ;
339 -> 340 ;
341 [label=<gini = 0.0<br/>samples = 2<br/>value = [2, 0, 0, 0, 0, 0, 0]<br/>class = SEKER>, fillcolor="#e58139"] ;
339 -> 341 ;
342 [label=<gini = 0.0<br/>samples = 2<br/>value = [0, 0, 0, 0, 0, 0, 2]<br/>class = DERMASON>, fillcolor="#e53986"] ;
338 -> 342 ;
343 [label=<roundness &le; 0.981<br/>gini = 0.272<br/>samples = 60<br/>value = [2, 2, 0, 3, 0, 51, 2]<br/>class = SIRA>, fillcolor="#bd58e9"] ;
273 -> 343 ;
344 [label=<Eccentricity &le; 0.905<br/>gini = 0.223<br/>samples = 58<br/>value = [2, 2, 0, 2, 0, 51, 1]<br/>class = SIRA>, fillcolor="#bb52e8"] ;
343 -> 344 ;
345 [label=<Extent &le; 0.864<br/>gini = 0.196<br/>samples = 57<br/>value = [2, 2, 0, 1, 0, 51, 1]<br/>class = SIRA>, fillcolor="#ba4fe8"] ;
344 -> 345 ;
346 [label=<AspectRation &le; 2.419<br/>gini = 0.168<br/>samples = 56<br/>value = [1, 2, 0, 1, 0, 51, 1]<br/>class = SIRA>, fillcolor="#b84be7"] ;
345 -> 346 ;
347 [label=<MinorAxisLength &le; 228.45<br/>gini = 0.141<br/>samples = 54<br/>value = [0, 2, 0, 1, 0, 50, 1]<br/>class = SIRA>, fillcolor="#b748e7"] ;
346 -> 347 ;
348 [label=<MajorAxisLength &le; 717.911<br/>gini = 0.082<br/>samples = 47<br/>value = [0, 0, 0, 1, 0, 45, 1]<br/>class = SIRA>, fillcolor="#b442e6"] ;
347 -> 348 ;
349 [label=<MinorAxisLength &le; 126.312<br/>gini = 0.044<br/>samples = 44<br/>value = [0, 0, 0, 1, 0, 43, 0]<br/>class = SIRA>, fillcolor="#b33ee6"] ;
348 -> 349 ;
350 [label=<MinorAxisLength &le; 123.699<br/>gini = 0.278<br/>samples = 6<br/>value = [0, 0, 0, 1, 0, 5, 0]<br/>class = SIRA>, fillcolor="#c161ea"] ;
349 -> 350 ;
351 [label=<gini = 0.0<br/>samples = 5<br/>value = [0, 0, 0, 0, 0, 5, 0]<br/>class = SIRA>, fillcolor="#b139e5"] ;
350 -> 351 ;
352 [label=<gini = 0.0<br/>samples = 1<br/>value = [0, 0, 0, 1, 0, 0, 0]<br/>class = CALI>, fillcolor="#39e5e2"] ;
350 -> 352 ;
353 [label=<gini = 0.0<br/>samples = 38<br/>value = [0, 0, 0, 0, 0, 38, 0]<br/>class = SIRA>, fillcolor="#b139e5"] ;
349 -> 353 ;
354 [label=<ShapeFactor4 &le; 0.984<br/>gini = 0.444<br/>samples = 3<br/>value = [0, 0, 0, 0, 0, 2, 1]<br/>class = SIRA>, fillcolor="#d89cf2"] ;
348 -> 354 ;
355 [label=<gini = 0.0<br/>samples = 1<br/>value = [0, 0, 0, 0, 0, 0, 1]<br/>class = DERMASON>, fillcolor="#e53986"] ;
354 -> 355 ;
356 [label=<gini = 0.0<br/>samples = 2<br/>value = [0, 0, 0, 0, 0, 2, 0]<br/>class = SIRA>, fillcolor="#b139e5"] ;
354 -> 356 ;
357 [label=<ShapeFactor2 &le; 0.001<br/>gini = 0.408<br/>samples = 7<br/>value = [0, 2, 0, 0, 0, 5, 0]<br/>class = SIRA>, fillcolor="#d088ef"] ;
347 -> 357 ;
358 [label=<gini = 0.0<br/>samples = 2<br/>value = [0, 2, 0, 0, 0, 0, 0]<br/>class = BARBUNYA>, fillcolor="#b7e539"] ;
357 -> 358 ;
359 [label=<gini = 0.0<br/>samples = 5<br/>value = [0, 0, 0, 0, 0, 5, 0]<br/>class = SIRA>, fillcolor="#b139e5"] ;
357 -> 359 ;
360 [label=<ShapeFactor2 &le; 0.002<br/>gini = 0.5<br/>samples = 2<br/>value = [1, 0, 0, 0, 0, 1, 0]<br/>class = SEKER>, fillcolor="#ffffff"] ;
346 -> 360 ;
361 [label=<gini = 0.0<br/>samples = 1<br/>value = [1, 0, 0, 0, 0, 0, 0]<br/>class = SEKER>, fillcolor="#e58139"] ;
360 -> 361 ;
362 [label=<gini = 0.0<br/>samples = 1<br/>value = [0, 0, 0, 0, 0, 1, 0]<br/>class = SIRA>, fillcolor="#b139e5"] ;
360 -> 362 ;
363 [label=<gini = 0.0<br/>samples = 1<br/>value = [1, 0, 0, 0, 0, 0, 0]<br/>class = SEKER>, fillcolor="#e58139"] ;
345 -> 363 ;
364 [label=<gini = 0.0<br/>samples = 1<br/>value = [0, 0, 0, 1, 0, 0, 0]<br/>class = CALI>, fillcolor="#39e5e2"] ;
344 -> 364 ;
365 [label=<Compactness &le; 0.843<br/>gini = 0.5<br/>samples = 2<br/>value = [0, 0, 0, 1, 0, 0, 1]<br/>class = CALI>, fillcolor="#ffffff"] ;
343 -> 365 ;
366 [label=<gini = 0.0<br/>samples = 1<br/>value = [0, 0, 0, 1, 0, 0, 0]<br/>class = CALI>, fillcolor="#39e5e2"] ;
365 -> 366 ;
367 [label=<gini = 0.0<br/>samples = 1<br/>value = [0, 0, 0, 0, 0, 0, 1]<br/>class = DERMASON>, fillcolor="#e53986"] ;
365 -> 367 ;
368 [label=<ConvexArea &le; 126955.0<br/>gini = 0.815<br/>samples = 759<br/>value = [130, 187, 177, 25, 112, 33, 95]<br/>class = BARBUNYA>, fillcolor="#fefffc"] ;
0 -> 368 [labeldistance=2.5, labelangle=-45, headlabel="False"] ;
369 [label=<ShapeFactor4 &le; 0.977<br/>gini = 0.82<br/>samples = 351<br/>value = [55, 30, 70, 21, 90, 18, 67]<br/>class = HOROZ>, fillcolor="#f1f3fd"] ;
368 -> 369 ;
370 [label=<Compactness &le; 0.824<br/>gini = 0.724<br/>samples = 153<br/>value = [7, 5, 29, 12, 67, 3, 30]<br/>class = HOROZ>, fillcolor="#c3ccf7"] ;
369 -> 370 ;
371 [label=<ConvexArea &le; 36856.0<br/>gini = 0.619<br/>samples = 105<br/>value = [3, 1, 9, 8, 60, 3, 21]<br/>class = HOROZ>, fillcolor="#a3b1f3"] ;
370 -> 371 ;
372 [label=<MajorAxisLength &le; 526.127<br/>gini = 0.554<br/>samples = 17<br/>value = [0, 0, 0, 2, 5, 0, 10]<br/>class = DERMASON>, fillcolor="#f4accd"] ;
371 -> 372 ;
373 [label=<Solidity &le; 0.988<br/>gini = 0.403<br/>samples = 12<br/>value = [0, 0, 0, 2, 1, 0, 9]<br/>class = DERMASON>, fillcolor="#ed74aa"] ;
372 -> 373 ;
374 [label=<EquivDiameter &le; 168.21<br/>gini = 0.18<br/>samples = 10<br/>value = [0, 0, 0, 0, 1, 0, 9]<br/>class = DERMASON>, fillcolor="#e84f93"] ;
373 -> 374 ;
375 [label=<gini = 0.0<br/>samples = 1<br/>value = [0, 0, 0, 0, 1, 0, 0]<br/>class = HOROZ>, fillcolor="#3956e5"] ;
374 -> 375 ;
376 [label=<gini = 0.0<br/>samples = 9<br/>value = [0, 0, 0, 0, 0, 0, 9]<br/>class = DERMASON>, fillcolor="#e53986"] ;
374 -> 376 ;
377 [label=<gini = 0.0<br/>samples = 2<br/>value = [0, 0, 0, 2, 0, 0, 0]<br/>class = CALI>, fillcolor="#39e5e2"] ;
373 -> 377 ;
378 [label=<Area &le; 142323.5<br/>gini = 0.32<br/>samples = 5<br/>value = [0, 0, 0, 0, 4, 0, 1]<br/>class = HOROZ>, fillcolor="#6a80ec"] ;
372 -> 378 ;
379 [label=<gini = 0.0<br/>samples = 4<br/>value = [0, 0, 0, 0, 4, 0, 0]<br/>class = HOROZ>, fillcolor="#3956e5"] ;
378 -> 379 ;
380 [label=<gini = 0.0<br/>samples = 1<br/>value = [0, 0, 0, 0, 0, 0, 1]<br/>class = DERMASON>, fillcolor="#e53986"] ;
378 -> 380 ;
381 [label=<Compactness &le; 0.734<br/>gini = 0.576<br/>samples = 88<br/>value = [3, 1, 9, 6, 55, 3, 11]<br/>class = HOROZ>, fillcolor="#8e9ef0"] ;
371 -> 381 ;
382 [label=<EquivDiameter &le; 459.368<br/>gini = 0.385<br/>samples = 49<br/>value = [2, 0, 2, 3, 38, 0, 4]<br/>class = HOROZ>, fillcolor="#697feb"] ;
381 -> 382 ;
383 [label=<Perimeter &le; 1914.218<br/>gini = 0.202<br/>samples = 36<br/>value = [0, 0, 1, 0, 32, 0, 3]<br/>class = HOROZ>, fillcolor="#516ae8"] ;
382 -> 383 ;
384 [label=<Area &le; 238576.0<br/>gini = 0.157<br/>samples = 35<br/>value = [0, 0, 0, 0, 32, 0, 3]<br/>class = HOROZ>, fillcolor="#4c66e7"] ;
383 -> 384 ;
385 [label=<ConvexArea &le; 124677.5<br/>gini = 0.111<br/>samples = 34<br/>value = [0, 0, 0, 0, 32, 0, 2]<br/>class = HOROZ>, fillcolor="#4561e7"] ;
384 -> 385 ;
386 [label=<ShapeFactor1 &le; 0.004<br/>gini = 0.059<br/>samples = 33<br/>value = [0, 0, 0, 0, 32, 0, 1]<br/>class = HOROZ>, fillcolor="#3f5be6"] ;
385 -> 386 ;
387 [label=<gini = 0.0<br/>samples = 1<br/>value = [0, 0, 0, 0, 0, 0, 1]<br/>class = DERMASON>, fillcolor="#e53986"] ;
386 -> 387 ;
388 [label=<gini = 0.0<br/>samples = 32<br/>value = [0, 0, 0, 0, 32, 0, 0]<br/>class = HOROZ>, fillcolor="#3956e5"] ;
386 -> 388 ;
389 [label=<gini = 0.0<br/>samples = 1<br/>value = [0, 0, 0, 0, 0, 0, 1]<br/>class = DERMASON>, fillcolor="#e53986"] ;
385 -> 389 ;
390 [label=<gini = 0.0<br/>samples = 1<br/>value = [0, 0, 0, 0, 0, 0, 1]<br/>class = DERMASON>, fillcolor="#e53986"] ;
384 -> 390 ;
391 [label=<gini = 0.0<br/>samples = 1<br/>value = [0, 0, 1, 0, 0, 0, 0]<br/>class = BOMBAY>, fillcolor="#39e54d"] ;
383 -> 391 ;
392 [label=<MinorAxisLength &le; 372.571<br/>gini = 0.698<br/>samples = 13<br/>value = [2, 0, 1, 3, 6, 0, 1]<br/>class = HOROZ>, fillcolor="#c4ccf7"] ;
382 -> 392 ;
393 [label=<EquivDiameter &le; 490.846<br/>gini = 0.611<br/>samples = 6<br/>value = [2, 0, 0, 3, 0, 0, 1]<br/>class = CALI>, fillcolor="#cef8f8"] ;
392 -> 393 ;
394 [label=<Perimeter &le; 1051.522<br/>gini = 0.444<br/>samples = 3<br/>value = [2, 0, 0, 0, 0, 0, 1]<br/>class = SEKER>, fillcolor="#f2c09c"] ;
393 -> 394 ;
395 [label=<gini = 0.0<br/>samples = 1<br/>value = [0, 0, 0, 0, 0, 0, 1]<br/>class = DERMASON>, fillcolor="#e53986"] ;
394 -> 395 ;
396 [label=<gini = 0.0<br/>samples = 2<br/>value = [2, 0, 0, 0, 0, 0, 0]<br/>class = SEKER>, fillcolor="#e58139"] ;
394 -> 396 ;
397 [label=<gini = 0.0<br/>samples = 3<br/>value = [0, 0, 0, 3, 0, 0, 0]<br/>class = CALI>, fillcolor="#39e5e2"] ;
393 -> 397 ;
398 [label=<MajorAxisLength &le; 596.908<br/>gini = 0.245<br/>samples = 7<br/>value = [0, 0, 1, 0, 6, 0, 0]<br/>class = HOROZ>, fillcolor="#5a72e9"] ;
392 -> 398 ;
399 [label=<gini = 0.0<br/>samples = 6<br/>value = [0, 0, 0, 0, 6, 0, 0]<br/>class = HOROZ>, fillcolor="#3956e5"] ;
398 -> 399 ;
400 [label=<gini = 0.0<br/>samples = 1<br/>value = [0, 0, 1, 0, 0, 0, 0]<br/>class = BOMBAY>, fillcolor="#39e54d"] ;
398 -> 400 ;
401 [label=<ConvexArea &le; 102161.5<br/>gini = 0.732<br/>samples = 39<br/>value = [1, 1, 7, 3, 17, 3, 7]<br/>class = HOROZ>, fillcolor="#c1caf7"] ;
381 -> 401 ;
402 [label=<roundness &le; 0.647<br/>gini = 0.616<br/>samples = 29<br/>value = [0, 1, 3, 2, 17, 2, 4]<br/>class = HOROZ>, fillcolor="#98a7f1"] ;
401 -> 402 ;
403 [label=<MajorAxisLength &le; 555.652<br/>gini = 0.777<br/>samples = 11<br/>value = [0, 0, 3, 2, 2, 1, 3]<br/>class = BOMBAY>, fillcolor="#ffffff"] ;
402 -> 403 ;
404 [label=<Solidity &le; 0.988<br/>gini = 0.611<br/>samples = 6<br/>value = [0, 0, 0, 2, 0, 1, 3]<br/>class = DERMASON>, fillcolor="#f8cee1"] ;
403 -> 404 ;
405 [label=<AspectRation &le; 1.7<br/>gini = 0.444<br/>samples = 3<br/>value = [0, 0, 0, 2, 0, 1, 0]<br/>class = CALI>, fillcolor="#9cf2f0"] ;
404 -> 405 ;
406 [label=<gini = 0.0<br/>samples = 2<br/>value = [0, 0, 0, 2, 0, 0, 0]<br/>class = CALI>, fillcolor="#39e5e2"] ;
405 -> 406 ;
407 [label=<gini = 0.0<br/>samples = 1<br/>value = [0, 0, 0, 0, 0, 1, 0]<br/>class = SIRA>, fillcolor="#b139e5"] ;
405 -> 407 ;
408 [label=<gini = 0.0<br/>samples = 3<br/>value = [0, 0, 0, 0, 0, 0, 3]<br/>class = DERMASON>, fillcolor="#e53986"] ;
404 -> 408 ;
409 [label=<AspectRation &le; 1.884<br/>gini = 0.48<br/>samples = 5<br/>value = [0, 0, 3, 0, 2, 0, 0]<br/>class = BOMBAY>, fillcolor="#bdf6c4"] ;
403 -> 409 ;
410 [label=<gini = 0.0<br/>samples = 3<br/>value = [0, 0, 3, 0, 0, 0, 0]<br/>class = BOMBAY>, fillcolor="#39e54d"] ;
409 -> 410 ;
411 [label=<gini = 0.0<br/>samples = 2<br/>value = [0, 0, 0, 0, 2, 0, 0]<br/>class = HOROZ>, fillcolor="#3956e5"] ;
409 -> 411 ;
412 [label=<Perimeter &le; 1490.909<br/>gini = 0.296<br/>samples = 18<br/>value = [0, 1, 0, 0, 15, 1, 1]<br/>class = HOROZ>, fillcolor="#5c74ea"] ;
402 -> 412 ;
413 [label=<Area &le; 203590.0<br/>gini = 0.117<br/>samples = 16<br/>value = [0, 0, 0, 0, 15, 1, 0]<br/>class = HOROZ>, fillcolor="#4661e7"] ;
412 -> 413 ;
414 [label=<gini = 0.0<br/>samples = 15<br/>value = [0, 0, 0, 0, 15, 0, 0]<br/>class = HOROZ>, fillcolor="#3956e5"] ;
413 -> 414 ;
415 [label=<gini = 0.0<br/>samples = 1<br/>value = [0, 0, 0, 0, 0, 1, 0]<br/>class = SIRA>, fillcolor="#b139e5"] ;
413 -> 415 ;
416 [label=<Perimeter &le; 1731.484<br/>gini = 0.5<br/>samples = 2<br/>value = [0, 1, 0, 0, 0, 0, 1]<br/>class = BARBUNYA>, fillcolor="#ffffff"] ;
412 -> 416 ;
417 [label=<gini = 0.0<br/>samples = 1<br/>value = [0, 0, 0, 0, 0, 0, 1]<br/>class = DERMASON>, fillcolor="#e53986"] ;
416 -> 417 ;
418 [label=<gini = 0.0<br/>samples = 1<br/>value = [0, 1, 0, 0, 0, 0, 0]<br/>class = BARBUNYA>, fillcolor="#b7e539"] ;
416 -> 418 ;
419 [label=<ShapeFactor3 &le; 0.778<br/>gini = 0.72<br/>samples = 10<br/>value = [1, 0, 4, 1, 0, 1, 3]<br/>class = BOMBAY>, fillcolor="#e3fbe6"] ;
401 -> 419 ;
420 [label=<gini = 0.0<br/>samples = 4<br/>value = [0, 0, 4, 0, 0, 0, 0]<br/>class = BOMBAY>, fillcolor="#39e54d"] ;
419 -> 420 ;
421 [label=<MinorAxisLength &le; 369.447<br/>gini = 0.667<br/>samples = 6<br/>value = [1, 0, 0, 1, 0, 1, 3]<br/>class = DERMASON>, fillcolor="#f5b0cf"] ;
419 -> 421 ;
422 [label=<MinorAxisLength &le; 288.547<br/>gini = 0.667<br/>samples = 3<br/>value = [1, 0, 0, 1, 0, 1, 0]<br/>class = SEKER>, fillcolor="#ffffff"] ;
421 -> 422 ;
423 [label=<gini = 0.0<br/>samples = 1<br/>value = [0, 0, 0, 1, 0, 0, 0]<br/>class = CALI>, fillcolor="#39e5e2"] ;
422 -> 423 ;
424 [label=<ShapeFactor2 &le; 0.001<br/>gini = 0.5<br/>samples = 2<br/>value = [1, 0, 0, 0, 0, 1, 0]<br/>class = SEKER>, fillcolor="#ffffff"] ;
422 -> 424 ;
425 [label=<gini = 0.0<br/>samples = 1<br/>value = [0, 0, 0, 0, 0, 1, 0]<br/>class = SIRA>, fillcolor="#b139e5"] ;
424 -> 425 ;
426 [label=<gini = 0.0<br/>samples = 1<br/>value = [1, 0, 0, 0, 0, 0, 0]<br/>class = SEKER>, fillcolor="#e58139"] ;
424 -> 426 ;
427 [label=<gini = 0.0<br/>samples = 3<br/>value = [0, 0, 0, 0, 0, 0, 3]<br/>class = DERMASON>, fillcolor="#e53986"] ;
421 -> 427 ;
428 [label=<Perimeter &le; 1329.943<br/>gini = 0.749<br/>samples = 48<br/>value = [4, 4, 20, 4, 7, 0, 9]<br/>class = BOMBAY>, fillcolor="#c7f8cd"] ;
370 -> 428 ;
429 [label=<ShapeFactor3 &le; 0.523<br/>gini = 0.773<br/>samples = 30<br/>value = [3, 0, 7, 4, 7, 0, 9]<br/>class = DERMASON>, fillcolor="#fdeef4"] ;
428 -> 429 ;
430 [label=<gini = 0.0<br/>samples = 4<br/>value = [0, 0, 0, 0, 4, 0, 0]<br/>class = HOROZ>, fillcolor="#3956e5"] ;
429 -> 430 ;
431 [label=<AspectRation &le; 1.903<br/>gini = 0.757<br/>samples = 26<br/>value = [3, 0, 7, 4, 3, 0, 9]<br/>class = DERMASON>, fillcolor="#fceaf2"] ;
429 -> 431 ;
432 [label=<Extent &le; 0.634<br/>gini = 0.648<br/>samples = 18<br/>value = [0, 0, 4, 4, 1, 0, 9]<br/>class = DERMASON>, fillcolor="#f6b8d4"] ;
431 -> 432 ;
433 [label=<Solidity &le; 0.99<br/>gini = 0.5<br/>samples = 6<br/>value = [0, 0, 0, 4, 1, 0, 1]<br/>class = CALI>, fillcolor="#88efee"] ;
432 -> 433 ;
434 [label=<gini = 0.0<br/>samples = 4<br/>value = [0, 0, 0, 4, 0, 0, 0]<br/>class = CALI>, fillcolor="#39e5e2"] ;
433 -> 434 ;
435 [label=<MajorAxisLength &le; 273.402<br/>gini = 0.5<br/>samples = 2<br/>value = [0, 0, 0, 0, 1, 0, 1]<br/>class = HOROZ>, fillcolor="#ffffff"] ;
433 -> 435 ;
436 [label=<gini = 0.0<br/>samples = 1<br/>value = [0, 0, 0, 0, 0, 0, 1]<br/>class = DERMASON>, fillcolor="#e53986"] ;
435 -> 436 ;
437 [label=<gini = 0.0<br/>samples = 1<br/>value = [0, 0, 0, 0, 1, 0, 0]<br/>class = HOROZ>, fillcolor="#3956e5"] ;
435 -> 437 ;
438 [label=<Area &le; 221280.0<br/>gini = 0.444<br/>samples = 12<br/>value = [0, 0, 4, 0, 0, 0, 8]<br/>class = DERMASON>, fillcolor="#f29cc2"] ;
432 -> 438 ;
439 [label=<ShapeFactor1 &le; 0.005<br/>gini = 0.32<br/>samples = 10<br/>value = [0, 0, 2, 0, 0, 0, 8]<br/>class = DERMASON>, fillcolor="#ec6aa4"] ;
438 -> 439 ;
440 [label=<gini = 0.0<br/>samples = 1<br/>value = [0, 0, 1, 0, 0, 0, 0]<br/>class = BOMBAY>, fillcolor="#39e54d"] ;
439 -> 440 ;
441 [label=<roundness &le; 0.618<br/>gini = 0.198<br/>samples = 9<br/>value = [0, 0, 1, 0, 0, 0, 8]<br/>class = DERMASON>, fillcolor="#e85295"] ;
439 -> 441 ;
442 [label=<gini = 0.0<br/>samples = 1<br/>value = [0, 0, 1, 0, 0, 0, 0]<br/>class = BOMBAY>, fillcolor="#39e54d"] ;
441 -> 442 ;
443 [label=<gini = 0.0<br/>samples = 8<br/>value = [0, 0, 0, 0, 0, 0, 8]<br/>class = DERMASON>, fillcolor="#e53986"] ;
441 -> 443 ;
444 [label=<gini = 0.0<br/>samples = 2<br/>value = [0, 0, 2, 0, 0, 0, 0]<br/>class = BOMBAY>, fillcolor="#39e54d"] ;
438 -> 444 ;
445 [label=<ShapeFactor4 &le; 0.97<br/>gini = 0.656<br/>samples = 8<br/>value = [3, 0, 3, 0, 2, 0, 0]<br/>class = SEKER>, fillcolor="#ffffff"] ;
431 -> 445 ;
446 [label=<MinorAxisLength &le; 404.389<br/>gini = 0.48<br/>samples = 5<br/>value = [0, 0, 3, 0, 2, 0, 0]<br/>class = BOMBAY>, fillcolor="#bdf6c4"] ;
445 -> 446 ;
447 [label=<gini = 0.0<br/>samples = 3<br/>value = [0, 0, 3, 0, 0, 0, 0]<br/>class = BOMBAY>, fillcolor="#39e54d"] ;
446 -> 447 ;
448 [label=<gini = 0.0<br/>samples = 2<br/>value = [0, 0, 0, 0, 2, 0, 0]<br/>class = HOROZ>, fillcolor="#3956e5"] ;
446 -> 448 ;
449 [label=<gini = 0.0<br/>samples = 3<br/>value = [3, 0, 0, 0, 0, 0, 0]<br/>class = SEKER>, fillcolor="#e58139"] ;
445 -> 449 ;
450 [label=<roundness &le; 0.68<br/>gini = 0.426<br/>samples = 18<br/>value = [1, 4, 13, 0, 0, 0, 0]<br/>class = BOMBAY>, fillcolor="#80ee8d"] ;
428 -> 450 ;
451 [label=<ShapeFactor4 &le; 0.965<br/>gini = 0.594<br/>samples = 8<br/>value = [1, 4, 3, 0, 0, 0, 0]<br/>class = BARBUNYA>, fillcolor="#f1fad7"] ;
450 -> 451 ;
452 [label=<Solidity &le; 0.985<br/>gini = 0.375<br/>samples = 4<br/>value = [1, 0, 3, 0, 0, 0, 0]<br/>class = BOMBAY>, fillcolor="#7bee88"] ;
451 -> 452 ;
453 [label=<gini = 0.0<br/>samples = 3<br/>value = [0, 0, 3, 0, 0, 0, 0]<br/>class = BOMBAY>, fillcolor="#39e54d"] ;
452 -> 453 ;
454 [label=<gini = 0.0<br/>samples = 1<br/>value = [1, 0, 0, 0, 0, 0, 0]<br/>class = SEKER>, fillcolor="#e58139"] ;
452 -> 454 ;
455 [label=<gini = 0.0<br/>samples = 4<br/>value = [0, 4, 0, 0, 0, 0, 0]<br/>class = BARBUNYA>, fillcolor="#b7e539"] ;
451 -> 455 ;
456 [label=<gini = 0.0<br/>samples = 10<br/>value = [0, 0, 10, 0, 0, 0, 0]<br/>class = BOMBAY>, fillcolor="#39e54d"] ;
450 -> 456 ;
457 [label=<ShapeFactor2 &le; 0.002<br/>gini = 0.826<br/>samples = 198<br/>value = [48, 25, 41, 9, 23, 15, 37]<br/>class = SEKER>, fillcolor="#fef9f6"] ;
369 -> 457 ;
458 [label=<MinorAxisLength &le; 367.204<br/>gini = 0.783<br/>samples = 113<br/>value = [31, 24, 31, 0, 13, 7, 7]<br/>class = SEKER>, fillcolor="#ffffff"] ;
457 -> 458 ;
459 [label=<Compactness &le; 0.72<br/>gini = 0.668<br/>samples = 46<br/>value = [24, 3, 6, 0, 8, 4, 1]<br/>class = SEKER>, fillcolor="#f4caac"] ;
458 -> 459 ;
460 [label=<Area &le; 132871.5<br/>gini = 0.6<br/>samples = 10<br/>value = [1, 0, 1, 0, 6, 1, 1]<br/>class = HOROZ>, fillcolor="#91a1f1"] ;
459 -> 460 ;
461 [label=<EquivDiameter &le; 506.438<br/>gini = 0.245<br/>samples = 7<br/>value = [0, 0, 0, 0, 6, 0, 1]<br/>class = HOROZ>, fillcolor="#5a72e9"] ;
460 -> 461 ;
462 [label=<gini = 0.0<br/>samples = 6<br/>value = [0, 0, 0, 0, 6, 0, 0]<br/>class = HOROZ>, fillcolor="#3956e5"] ;
461 -> 462 ;
463 [label=<gini = 0.0<br/>samples = 1<br/>value = [0, 0, 0, 0, 0, 0, 1]<br/>class = DERMASON>, fillcolor="#e53986"] ;
461 -> 463 ;
464 [label=<roundness &le; 0.653<br/>gini = 0.667<br/>samples = 3<br/>value = [1, 0, 1, 0, 0, 1, 0]<br/>class = SEKER>, fillcolor="#ffffff"] ;
460 -> 464 ;
465 [label=<gini = 0.0<br/>samples = 1<br/>value = [0, 0, 0, 0, 0, 1, 0]<br/>class = SIRA>, fillcolor="#b139e5"] ;
464 -> 465 ;
466 [label=<Perimeter &le; 1375.582<br/>gini = 0.5<br/>samples = 2<br/>value = [1, 0, 1, 0, 0, 0, 0]<br/>class = SEKER>, fillcolor="#ffffff"] ;
464 -> 466 ;
467 [label=<gini = 0.0<br/>samples = 1<br/>value = [0, 0, 1, 0, 0, 0, 0]<br/>class = BOMBAY>, fillcolor="#39e54d"] ;
466 -> 467 ;
468 [label=<gini = 0.0<br/>samples = 1<br/>value = [1, 0, 0, 0, 0, 0, 0]<br/>class = SEKER>, fillcolor="#e58139"] ;
466 -> 468 ;
469 [label=<Eccentricity &le; 0.755<br/>gini = 0.556<br/>samples = 36<br/>value = [23, 3, 5, 0, 2, 3, 0]<br/>class = SEKER>, fillcolor="#f0b68c"] ;
459 -> 469 ;
470 [label=<MajorAxisLength &le; 436.666<br/>gini = 0.396<br/>samples = 30<br/>value = [23, 2, 3, 0, 1, 1, 0]<br/>class = SEKER>, fillcolor="#eca26c"] ;
469 -> 470 ;
471 [label=<ShapeFactor2 &le; 0.001<br/>gini = 0.105<br/>samples = 18<br/>value = [17, 1, 0, 0, 0, 0, 0]<br/>class = SEKER>, fillcolor="#e78845"] ;
470 -> 471 ;
472 [label=<EquivDiameter &le; 388.828<br/>gini = 0.5<br/>samples = 2<br/>value = [1, 1, 0, 0, 0, 0, 0]<br/>class = SEKER>, fillcolor="#ffffff"] ;
471 -> 472 ;
473 [label=<gini = 0.0<br/>samples = 1<br/>value = [0, 1, 0, 0, 0, 0, 0]<br/>class = BARBUNYA>, fillcolor="#b7e539"] ;
472 -> 473 ;
474 [label=<gini = 0.0<br/>samples = 1<br/>value = [1, 0, 0, 0, 0, 0, 0]<br/>class = SEKER>, fillcolor="#e58139"] ;
472 -> 474 ;
475 [label=<gini = 0.0<br/>samples = 16<br/>value = [16, 0, 0, 0, 0, 0, 0]<br/>class = SEKER>, fillcolor="#e58139"] ;
471 -> 475 ;
476 [label=<Solidity &le; 0.977<br/>gini = 0.667<br/>samples = 12<br/>value = [6, 1, 3, 0, 1, 1, 0]<br/>class = SEKER>, fillcolor="#f6d5bd"] ;
470 -> 476 ;
477 [label=<Area &le; 107175.5<br/>gini = 0.406<br/>samples = 8<br/>value = [6, 1, 0, 0, 0, 1, 0]<br/>class = SEKER>, fillcolor="#eca572"] ;
476 -> 477 ;
478 [label=<gini = 0.0<br/>samples = 6<br/>value = [6, 0, 0, 0, 0, 0, 0]<br/>class = SEKER>, fillcolor="#e58139"] ;
477 -> 478 ;
479 [label=<Area &le; 172553.0<br/>gini = 0.5<br/>samples = 2<br/>value = [0, 1, 0, 0, 0, 1, 0]<br/>class = BARBUNYA>, fillcolor="#ffffff"] ;
477 -> 479 ;
480 [label=<gini = 0.0<br/>samples = 1<br/>value = [0, 0, 0, 0, 0, 1, 0]<br/>class = SIRA>, fillcolor="#b139e5"] ;
479 -> 480 ;
481 [label=<gini = 0.0<br/>samples = 1<br/>value = [0, 1, 0, 0, 0, 0, 0]<br/>class = BARBUNYA>, fillcolor="#b7e539"] ;
479 -> 481 ;
482 [label=<EquivDiameter &le; 420.128<br/>gini = 0.375<br/>samples = 4<br/>value = [0, 0, 3, 0, 1, 0, 0]<br/>class = BOMBAY>, fillcolor="#7bee88"] ;
476 -> 482 ;
483 [label=<gini = 0.0<br/>samples = 3<br/>value = [0, 0, 3, 0, 0, 0, 0]<br/>class = BOMBAY>, fillcolor="#39e54d"] ;
482 -> 483 ;
484 [label=<gini = 0.0<br/>samples = 1<br/>value = [0, 0, 0, 0, 1, 0, 0]<br/>class = HOROZ>, fillcolor="#3956e5"] ;
482 -> 484 ;
485 [label=<roundness &le; 0.894<br/>gini = 0.722<br/>samples = 6<br/>value = [0, 1, 2, 0, 1, 2, 0]<br/>class = BOMBAY>, fillcolor="#ffffff"] ;
469 -> 485 ;
486 [label=<AspectRation &le; 1.793<br/>gini = 0.625<br/>samples = 4<br/>value = [0, 1, 0, 0, 1, 2, 0]<br/>class = SIRA>, fillcolor="#e5bdf6"] ;
485 -> 486 ;
487 [label=<MinorAxisLength &le; 327.598<br/>gini = 0.5<br/>samples = 2<br/>value = [0, 1, 0, 0, 1, 0, 0]<br/>class = BARBUNYA>, fillcolor="#ffffff"] ;
486 -> 487 ;
488 [label=<gini = 0.0<br/>samples = 1<br/>value = [0, 1, 0, 0, 0, 0, 0]<br/>class = BARBUNYA>, fillcolor="#b7e539"] ;
487 -> 488 ;
489 [label=<gini = 0.0<br/>samples = 1<br/>value = [0, 0, 0, 0, 1, 0, 0]<br/>class = HOROZ>, fillcolor="#3956e5"] ;
487 -> 489 ;
490 [label=<gini = 0.0<br/>samples = 2<br/>value = [0, 0, 0, 0, 0, 2, 0]<br/>class = SIRA>, fillcolor="#b139e5"] ;
486 -> 490 ;
491 [label=<gini = 0.0<br/>samples = 2<br/>value = [0, 0, 2, 0, 0, 0, 0]<br/>class = BOMBAY>, fillcolor="#39e54d"] ;
485 -> 491 ;
492 [label=<ConvexArea &le; 102550.0<br/>gini = 0.736<br/>samples = 67<br/>value = [7, 21, 25, 0, 5, 3, 6]<br/>class = BOMBAY>, fillcolor="#eefdf0"] ;
458 -> 492 ;
493 [label=<EquivDiameter &le; 198.38<br/>gini = 0.741<br/>samples = 54<br/>value = [6, 11, 23, 0, 5, 3, 6]<br/>class = BOMBAY>, fillcolor="#c8f8cd"] ;
492 -> 493 ;
494 [label=<gini = 0.0<br/>samples = 7<br/>value = [0, 0, 7, 0, 0, 0, 0]<br/>class = BOMBAY>, fillcolor="#39e54d"] ;
493 -> 494 ;
495 [label=<MajorAxisLength &le; 510.101<br/>gini = 0.781<br/>samples = 47<br/>value = [6, 11, 16, 0, 5, 3, 6]<br/>class = BOMBAY>, fillcolor="#e4fbe6"] ;
493 -> 495 ;
496 [label=<EquivDiameter &le; 372.726<br/>gini = 0.73<br/>samples = 21<br/>value = [5, 0, 8, 0, 1, 2, 5]<br/>class = BOMBAY>, fillcolor="#dafade"] ;
495 -> 496 ;
497 [label=<ShapeFactor2 &le; 0.001<br/>gini = 0.43<br/>samples = 11<br/>value = [0, 0, 8, 0, 1, 0, 2]<br/>class = BOMBAY>, fillcolor="#7bee88"] ;
496 -> 497 ;
498 [label=<gini = 0.0<br/>samples = 7<br/>value = [0, 0, 7, 0, 0, 0, 0]<br/>class = BOMBAY>, fillcolor="#39e54d"] ;
497 -> 498 ;
499 [label=<ShapeFactor3 &le; 0.839<br/>gini = 0.625<br/>samples = 4<br/>value = [0, 0, 1, 0, 1, 0, 2]<br/>class = DERMASON>, fillcolor="#f6bdd7"] ;
497 -> 499 ;
500 [label=<gini = 0.0<br/>samples = 2<br/>value = [0, 0, 0, 0, 0, 0, 2]<br/>class = DERMASON>, fillcolor="#e53986"] ;
499 -> 500 ;
501 [label=<ShapeFactor4 &le; 0.988<br/>gini = 0.5<br/>samples = 2<br/>value = [0, 0, 1, 0, 1, 0, 0]<br/>class = BOMBAY>, fillcolor="#ffffff"] ;
499 -> 501 ;
502 [label=<gini = 0.0<br/>samples = 1<br/>value = [0, 0, 0, 0, 1, 0, 0]<br/>class = HOROZ>, fillcolor="#3956e5"] ;
501 -> 502 ;
503 [label=<gini = 0.0<br/>samples = 1<br/>value = [0, 0, 1, 0, 0, 0, 0]<br/>class = BOMBAY>, fillcolor="#39e54d"] ;
501 -> 503 ;
504 [label=<roundness &le; 0.794<br/>gini = 0.62<br/>samples = 10<br/>value = [5, 0, 0, 0, 0, 2, 3]<br/>class = SEKER>, fillcolor="#f8dbc6"] ;
496 -> 504 ;
505 [label=<gini = 0.0<br/>samples = 4<br/>value = [4, 0, 0, 0, 0, 0, 0]<br/>class = SEKER>, fillcolor="#e58139"] ;
504 -> 505 ;
506 [label=<ShapeFactor1 &le; 0.008<br/>gini = 0.611<br/>samples = 6<br/>value = [1, 0, 0, 0, 0, 2, 3]<br/>class = DERMASON>, fillcolor="#f8cee1"] ;
504 -> 506 ;
507 [label=<gini = 0.0<br/>samples = 3<br/>value = [0, 0, 0, 0, 0, 0, 3]<br/>class = DERMASON>, fillcolor="#e53986"] ;
506 -> 507 ;
508 [label=<MinorAxisLength &le; 391.513<br/>gini = 0.444<br/>samples = 3<br/>value = [1, 0, 0, 0, 0, 2, 0]<br/>class = SIRA>, fillcolor="#d89cf2"] ;
506 -> 508 ;
509 [label=<gini = 0.0<br/>samples = 1<br/>value = [1, 0, 0, 0, 0, 0, 0]<br/>class = SEKER>, fillcolor="#e58139"] ;
508 -> 509 ;
510 [label=<gini = 0.0<br/>samples = 2<br/>value = [0, 0, 0, 0, 0, 2, 0]<br/>class = SIRA>, fillcolor="#b139e5"] ;
508 -> 510 ;
511 [label=<Perimeter &le; 1303.173<br/>gini = 0.698<br/>samples = 26<br/>value = [1, 11, 8, 0, 4, 1, 1]<br/>class = BARBUNYA>, fillcolor="#f3fbde"] ;
495 -> 511 ;
512 [label=<ShapeFactor1 &le; 0.008<br/>gini = 0.612<br/>samples = 11<br/>value = [0, 1, 6, 0, 3, 1, 0]<br/>class = BOMBAY>, fillcolor="#b5f5bc"] ;
511 -> 512 ;
513 [label=<EquivDiameter &le; 518.977<br/>gini = 0.406<br/>samples = 8<br/>value = [0, 1, 6, 0, 0, 1, 0]<br/>class = BOMBAY>, fillcolor="#72ec80"] ;
512 -> 513 ;
514 [label=<gini = 0.0<br/>samples = 6<br/>value = [0, 0, 6, 0, 0, 0, 0]<br/>class = BOMBAY>, fillcolor="#39e54d"] ;
513 -> 514 ;
515 [label=<MajorAxisLength &le; 578.335<br/>gini = 0.5<br/>samples = 2<br/>value = [0, 1, 0, 0, 0, 1, 0]<br/>class = BARBUNYA>, fillcolor="#ffffff"] ;
513 -> 515 ;
516 [label=<gini = 0.0<br/>samples = 1<br/>value = [0, 0, 0, 0, 0, 1, 0]<br/>class = SIRA>, fillcolor="#b139e5"] ;
515 -> 516 ;
517 [label=<gini = 0.0<br/>samples = 1<br/>value = [0, 1, 0, 0, 0, 0, 0]<br/>class = BARBUNYA>, fillcolor="#b7e539"] ;
515 -> 517 ;
518 [label=<gini = 0.0<br/>samples = 3<br/>value = [0, 0, 0, 0, 3, 0, 0]<br/>class = HOROZ>, fillcolor="#3956e5"] ;
512 -> 518 ;
519 [label=<Area &le; 67974.0<br/>gini = 0.524<br/>samples = 15<br/>value = [1, 10, 2, 0, 1, 0, 1]<br/>class = BARBUNYA>, fillcolor="#d3ef85"] ;
511 -> 519 ;
520 [label=<Area &le; 36734.5<br/>gini = 0.667<br/>samples = 3<br/>value = [0, 0, 1, 0, 1, 0, 1]<br/>class = BOMBAY>, fillcolor="#ffffff"] ;
519 -> 520 ;
521 [label=<gini = 0.0<br/>samples = 1<br/>value = [0, 0, 1, 0, 0, 0, 0]<br/>class = BOMBAY>, fillcolor="#39e54d"] ;
520 -> 521 ;
522 [label=<Compactness &le; 0.675<br/>gini = 0.5<br/>samples = 2<br/>value = [0, 0, 0, 0, 1, 0, 1]<br/>class = HOROZ>, fillcolor="#ffffff"] ;
520 -> 522 ;
523 [label=<gini = 0.0<br/>samples = 1<br/>value = [0, 0, 0, 0, 0, 0, 1]<br/>class = DERMASON>, fillcolor="#e53986"] ;
522 -> 523 ;
524 [label=<gini = 0.0<br/>samples = 1<br/>value = [0, 0, 0, 0, 1, 0, 0]<br/>class = HOROZ>, fillcolor="#3956e5"] ;
522 -> 524 ;
525 [label=<Compactness &le; 0.969<br/>gini = 0.292<br/>samples = 12<br/>value = [1, 10, 1, 0, 0, 0, 0]<br/>class = BARBUNYA>, fillcolor="#c4ea5d"] ;
519 -> 525 ;
526 [label=<MinorAxisLength &le; 457.591<br/>gini = 0.165<br/>samples = 11<br/>value = [0, 10, 1, 0, 0, 0, 0]<br/>class = BARBUNYA>, fillcolor="#bee84d"] ;
525 -> 526 ;
527 [label=<gini = 0.0<br/>samples = 10<br/>value = [0, 10, 0, 0, 0, 0, 0]<br/>class = BARBUNYA>, fillcolor="#b7e539"] ;
526 -> 527 ;
528 [label=<gini = 0.0<br/>samples = 1<br/>value = [0, 0, 1, 0, 0, 0, 0]<br/>class = BOMBAY>, fillcolor="#39e54d"] ;
526 -> 528 ;
529 [label=<gini = 0.0<br/>samples = 1<br/>value = [1, 0, 0, 0, 0, 0, 0]<br/>class = SEKER>, fillcolor="#e58139"] ;
525 -> 529 ;
530 [label=<Area &le; 70903.5<br/>gini = 0.379<br/>samples = 13<br/>value = [1, 10, 2, 0, 0, 0, 0]<br/>class = BARBUNYA>, fillcolor="#cbec6f"] ;
492 -> 530 ;
531 [label=<ConvexArea &le; 114382.5<br/>gini = 0.5<br/>samples = 2<br/>value = [1, 0, 1, 0, 0, 0, 0]<br/>class = SEKER>, fillcolor="#ffffff"] ;
530 -> 531 ;
532 [label=<gini = 0.0<br/>samples = 1<br/>value = [0, 0, 1, 0, 0, 0, 0]<br/>class = BOMBAY>, fillcolor="#39e54d"] ;
531 -> 532 ;
533 [label=<gini = 0.0<br/>samples = 1<br/>value = [1, 0, 0, 0, 0, 0, 0]<br/>class = SEKER>, fillcolor="#e58139"] ;
531 -> 533 ;
534 [label=<Compactness &le; 0.708<br/>gini = 0.165<br/>samples = 11<br/>value = [0, 10, 1, 0, 0, 0, 0]<br/>class = BARBUNYA>, fillcolor="#bee84d"] ;
530 -> 534 ;
535 [label=<gini = 0.0<br/>samples = 1<br/>value = [0, 0, 1, 0, 0, 0, 0]<br/>class = BOMBAY>, fillcolor="#39e54d"] ;
534 -> 535 ;
536 [label=<gini = 0.0<br/>samples = 10<br/>value = [0, 10, 0, 0, 0, 0, 0]<br/>class = BARBUNYA>, fillcolor="#b7e539"] ;
534 -> 536 ;
537 [label=<Perimeter &le; 1219.843<br/>gini = 0.788<br/>samples = 85<br/>value = [17, 1, 10, 9, 10, 8, 30]<br/>class = DERMASON>, fillcolor="#fad9e8"] ;
457 -> 537 ;
538 [label=<ShapeFactor2 &le; 0.003<br/>gini = 0.698<br/>samples = 47<br/>value = [2, 0, 3, 8, 6, 5, 23]<br/>class = DERMASON>, fillcolor="#f5b3d0"] ;
537 -> 538 ;
539 [label=<ShapeFactor4 &le; 0.99<br/>gini = 0.665<br/>samples = 43<br/>value = [2, 0, 3, 4, 6, 5, 23]<br/>class = DERMASON>, fillcolor="#f3a4c7"] ;
538 -> 539 ;
540 [label=<Compactness &le; 0.803<br/>gini = 0.8<br/>samples = 20<br/>value = [1, 0, 3, 3, 4, 3, 6]<br/>class = DERMASON>, fillcolor="#fce6f0"] ;
539 -> 540 ;
541 [label=<ShapeFactor1 &le; 0.006<br/>gini = 0.694<br/>samples = 14<br/>value = [0, 0, 0, 2, 4, 2, 6]<br/>class = DERMASON>, fillcolor="#fad7e7"] ;
540 -> 541 ;
542 [label=<gini = 0.0<br/>samples = 2<br/>value = [0, 0, 0, 0, 0, 2, 0]<br/>class = SIRA>, fillcolor="#b139e5"] ;
541 -> 542 ;
543 [label=<ConvexArea &le; 55445.5<br/>gini = 0.611<br/>samples = 12<br/>value = [0, 0, 0, 2, 4, 0, 6]<br/>class = DERMASON>, fillcolor="#f8cee1"] ;
541 -> 543 ;
544 [label=<roundness &le; 0.812<br/>gini = 0.5<br/>samples = 4<br/>value = [0, 0, 0, 2, 2, 0, 0]<br/>class = CALI>, fillcolor="#ffffff"] ;
543 -> 544 ;
545 [label=<gini = 0.0<br/>samples = 2<br/>value = [0, 0, 0, 0, 2, 0, 0]<br/>class = HOROZ>, fillcolor="#3956e5"] ;
544 -> 545 ;
546 [label=<gini = 0.0<br/>samples = 2<br/>value = [0, 0, 0, 2, 0, 0, 0]<br/>class = CALI>, fillcolor="#39e5e2"] ;
544 -> 546 ;
547 [label=<ShapeFactor4 &le; 0.981<br/>gini = 0.375<br/>samples = 8<br/>value = [0, 0, 0, 0, 2, 0, 6]<br/>class = DERMASON>, fillcolor="#ee7bae"] ;
543 -> 547 ;
548 [label=<ConvexArea &le; 96151.5<br/>gini = 0.444<br/>samples = 3<br/>value = [0, 0, 0, 0, 2, 0, 1]<br/>class = HOROZ>, fillcolor="#9caaf2"] ;
547 -> 548 ;
549 [label=<gini = 0.0<br/>samples = 1<br/>value = [0, 0, 0, 0, 0, 0, 1]<br/>class = DERMASON>, fillcolor="#e53986"] ;
548 -> 549 ;
550 [label=<gini = 0.0<br/>samples = 2<br/>value = [0, 0, 0, 0, 2, 0, 0]<br/>class = HOROZ>, fillcolor="#3956e5"] ;
548 -> 550 ;
551 [label=<gini = 0.0<br/>samples = 5<br/>value = [0, 0, 0, 0, 0, 0, 5]<br/>class = DERMASON>, fillcolor="#e53986"] ;
547 -> 551 ;
552 [label=<Solidity &le; 0.972<br/>gini = 0.667<br/>samples = 6<br/>value = [1, 0, 3, 1, 0, 1, 0]<br/>class = BOMBAY>, fillcolor="#b0f5b8"] ;
540 -> 552 ;
553 [label=<ShapeFactor4 &le; 0.982<br/>gini = 0.667<br/>samples = 3<br/>value = [1, 0, 0, 1, 0, 1, 0]<br/>class = SEKER>, fillcolor="#ffffff"] ;
552 -> 553 ;
554 [label=<gini = 0.0<br/>samples = 1<br/>value = [1, 0, 0, 0, 0, 0, 0]<br/>class = SEKER>, fillcolor="#e58139"] ;
553 -> 554 ;
555 [label=<Eccentricity &le; 0.655<br/>gini = 0.5<br/>samples = 2<br/>value = [0, 0, 0, 1, 0, 1, 0]<br/>class = CALI>, fillcolor="#ffffff"] ;
553 -> 555 ;
556 [label=<gini = 0.0<br/>samples = 1<br/>value = [0, 0, 0, 0, 0, 1, 0]<br/>class = SIRA>, fillcolor="#b139e5"] ;
555 -> 556 ;
557 [label=<gini = 0.0<br/>samples = 1<br/>value = [0, 0, 0, 1, 0, 0, 0]<br/>class = CALI>, fillcolor="#39e5e2"] ;
555 -> 557 ;
558 [label=<gini = 0.0<br/>samples = 3<br/>value = [0, 0, 3, 0, 0, 0, 0]<br/>class = BOMBAY>, fillcolor="#39e54d"] ;
552 -> 558 ;
559 [label=<ShapeFactor3 &le; 0.882<br/>gini = 0.435<br/>samples = 23<br/>value = [1, 0, 0, 1, 2, 2, 17]<br/>class = DERMASON>, fillcolor="#ec72a9"] ;
539 -> 559 ;
560 [label=<roundness &le; 0.941<br/>gini = 0.331<br/>samples = 21<br/>value = [1, 0, 0, 1, 2, 0, 17]<br/>class = DERMASON>, fillcolor="#ea639f"] ;
559 -> 560 ;
561 [label=<ShapeFactor2 &le; 0.003<br/>gini = 0.265<br/>samples = 20<br/>value = [0, 0, 0, 1, 2, 0, 17]<br/>class = DERMASON>, fillcolor="#e95a9a"] ;
560 -> 561 ;
562 [label=<Compactness &le; 0.668<br/>gini = 0.194<br/>samples = 19<br/>value = [0, 0, 0, 1, 1, 0, 17]<br/>class = DERMASON>, fillcolor="#e84f93"] ;
561 -> 562 ;
563 [label=<ShapeFactor3 &le; 0.785<br/>gini = 0.5<br/>samples = 2<br/>value = [0, 0, 0, 1, 0, 0, 1]<br/>class = CALI>, fillcolor="#ffffff"] ;
562 -> 563 ;
564 [label=<gini = 0.0<br/>samples = 1<br/>value = [0, 0, 0, 1, 0, 0, 0]<br/>class = CALI>, fillcolor="#39e5e2"] ;
563 -> 564 ;
565 [label=<gini = 0.0<br/>samples = 1<br/>value = [0, 0, 0, 0, 0, 0, 1]<br/>class = DERMASON>, fillcolor="#e53986"] ;
563 -> 565 ;
566 [label=<MinorAxisLength &le; 295.399<br/>gini = 0.111<br/>samples = 17<br/>value = [0, 0, 0, 0, 1, 0, 16]<br/>class = DERMASON>, fillcolor="#e7458e"] ;
562 -> 566 ;
567 [label=<gini = 0.0<br/>samples = 1<br/>value = [0, 0, 0, 0, 1, 0, 0]<br/>class = HOROZ>, fillcolor="#3956e5"] ;
566 -> 567 ;
568 [label=<gini = 0.0<br/>samples = 16<br/>value = [0, 0, 0, 0, 0, 0, 16]<br/>class = DERMASON>, fillcolor="#e53986"] ;
566 -> 568 ;
569 [label=<gini = 0.0<br/>samples = 1<br/>value = [0, 0, 0, 0, 1, 0, 0]<br/>class = HOROZ>, fillcolor="#3956e5"] ;
561 -> 569 ;
570 [label=<gini = 0.0<br/>samples = 1<br/>value = [1, 0, 0, 0, 0, 0, 0]<br/>class = SEKER>, fillcolor="#e58139"] ;
560 -> 570 ;
571 [label=<gini = 0.0<br/>samples = 2<br/>value = [0, 0, 0, 0, 0, 2, 0]<br/>class = SIRA>, fillcolor="#b139e5"] ;
559 -> 571 ;
572 [label=<gini = 0.0<br/>samples = 4<br/>value = [0, 0, 0, 4, 0, 0, 0]<br/>class = CALI>, fillcolor="#39e5e2"] ;
538 -> 572 ;
573 [label=<ShapeFactor4 &le; 0.98<br/>gini = 0.758<br/>samples = 38<br/>value = [15, 1, 7, 1, 4, 3, 7]<br/>class = SEKER>, fillcolor="#f8decc"] ;
537 -> 573 ;
574 [label=<AspectRation &le; 2.183<br/>gini = 0.32<br/>samples = 5<br/>value = [0, 0, 0, 0, 0, 1, 4]<br/>class = DERMASON>, fillcolor="#ec6aa4"] ;
573 -> 574 ;
575 [label=<gini = 0.0<br/>samples = 4<br/>value = [0, 0, 0, 0, 0, 0, 4]<br/>class = DERMASON>, fillcolor="#e53986"] ;
574 -> 575 ;
576 [label=<gini = 0.0<br/>samples = 1<br/>value = [0, 0, 0, 0, 0, 1, 0]<br/>class = SIRA>, fillcolor="#b139e5"] ;
574 -> 576 ;
577 [label=<Solidity &le; 0.984<br/>gini = 0.72<br/>samples = 33<br/>value = [15, 1, 7, 1, 4, 2, 3]<br/>class = SEKER>, fillcolor="#f7d8c2"] ;
573 -> 577 ;
578 [label=<AspectRation &le; 1.239<br/>gini = 0.618<br/>samples = 24<br/>value = [14, 1, 3, 1, 0, 2, 3]<br/>class = SEKER>, fillcolor="#f1bd97"] ;
577 -> 578 ;
579 [label=<EquivDiameter &le; 217.293<br/>gini = 0.444<br/>samples = 3<br/>value = [0, 0, 2, 1, 0, 0, 0]<br/>class = BOMBAY>, fillcolor="#9cf2a6"] ;
578 -> 579 ;
580 [label=<gini = 0.0<br/>samples = 1<br/>value = [0, 0, 0, 1, 0, 0, 0]<br/>class = CALI>, fillcolor="#39e5e2"] ;
579 -> 580 ;
581 [label=<gini = 0.0<br/>samples = 2<br/>value = [0, 0, 2, 0, 0, 0, 0]<br/>class = BOMBAY>, fillcolor="#39e54d"] ;
579 -> 581 ;
582 [label=<Compactness &le; 0.662<br/>gini = 0.522<br/>samples = 21<br/>value = [14, 1, 1, 0, 0, 2, 3]<br/>class = SEKER>, fillcolor="#efb286"] ;
578 -> 582 ;
583 [label=<gini = 0.0<br/>samples = 2<br/>value = [0, 0, 0, 0, 0, 0, 2]<br/>class = DERMASON>, fillcolor="#e53986"] ;
582 -> 583 ;
584 [label=<ShapeFactor4 &le; 0.997<br/>gini = 0.438<br/>samples = 19<br/>value = [14, 1, 1, 0, 0, 2, 1]<br/>class = SEKER>, fillcolor="#eda673"] ;
582 -> 584 ;
585 [label=<Solidity &le; 0.935<br/>gini = 0.227<br/>samples = 16<br/>value = [14, 0, 0, 0, 0, 1, 1]<br/>class = SEKER>, fillcolor="#e89253"] ;
584 -> 585 ;
586 [label=<MajorAxisLength &le; 456.813<br/>gini = 0.5<br/>samples = 2<br/>value = [0, 0, 0, 0, 0, 1, 1]<br/>class = SIRA>, fillcolor="#ffffff"] ;
585 -> 586 ;
587 [label=<gini = 0.0<br/>samples = 1<br/>value = [0, 0, 0, 0, 0, 1, 0]<br/>class = SIRA>, fillcolor="#b139e5"] ;
586 -> 587 ;
588 [label=<gini = 0.0<br/>samples = 1<br/>value = [0, 0, 0, 0, 0, 0, 1]<br/>class = DERMASON>, fillcolor="#e53986"] ;
586 -> 588 ;
589 [label=<gini = 0.0<br/>samples = 14<br/>value = [14, 0, 0, 0, 0, 0, 0]<br/>class = SEKER>, fillcolor="#e58139"] ;
585 -> 589 ;
590 [label=<MajorAxisLength &le; 423.658<br/>gini = 0.667<br/>samples = 3<br/>value = [0, 1, 1, 0, 0, 1, 0]<br/>class = BARBUNYA>, fillcolor="#ffffff"] ;
584 -> 590 ;
591 [label=<gini = 0.0<br/>samples = 1<br/>value = [0, 0, 0, 0, 0, 1, 0]<br/>class = SIRA>, fillcolor="#b139e5"] ;
590 -> 591 ;
592 [label=<AspectRation &le; 1.666<br/>gini = 0.5<br/>samples = 2<br/>value = [0, 1, 1, 0, 0, 0, 0]<br/>class = BARBUNYA>, fillcolor="#ffffff"] ;
590 -> 592 ;
593 [label=<gini = 0.0<br/>samples = 1<br/>value = [0, 0, 1, 0, 0, 0, 0]<br/>class = BOMBAY>, fillcolor="#39e54d"] ;
592 -> 593 ;
594 [label=<gini = 0.0<br/>samples = 1<br/>value = [0, 1, 0, 0, 0, 0, 0]<br/>class = BARBUNYA>, fillcolor="#b7e539"] ;
592 -> 594 ;
595 [label=<Compactness &le; 0.749<br/>gini = 0.593<br/>samples = 9<br/>value = [1, 0, 4, 0, 4, 0, 0]<br/>class = BOMBAY>, fillcolor="#ffffff"] ;
577 -> 595 ;
596 [label=<Perimeter &le; 1898.549<br/>gini = 0.32<br/>samples = 5<br/>value = [0, 0, 1, 0, 4, 0, 0]<br/>class = HOROZ>, fillcolor="#6a80ec"] ;
595 -> 596 ;
597 [label=<gini = 0.0<br/>samples = 4<br/>value = [0, 0, 0, 0, 4, 0, 0]<br/>class = HOROZ>, fillcolor="#3956e5"] ;
596 -> 597 ;
598 [label=<gini = 0.0<br/>samples = 1<br/>value = [0, 0, 1, 0, 0, 0, 0]<br/>class = BOMBAY>, fillcolor="#39e54d"] ;
596 -> 598 ;
599 [label=<Solidity &le; 0.991<br/>gini = 0.375<br/>samples = 4<br/>value = [1, 0, 3, 0, 0, 0, 0]<br/>class = BOMBAY>, fillcolor="#7bee88"] ;
595 -> 599 ;
600 [label=<gini = 0.0<br/>samples = 3<br/>value = [0, 0, 3, 0, 0, 0, 0]<br/>class = BOMBAY>, fillcolor="#39e54d"] ;
599 -> 600 ;
601 [label=<gini = 0.0<br/>samples = 1<br/>value = [1, 0, 0, 0, 0, 0, 0]<br/>class = SEKER>, fillcolor="#e58139"] ;
599 -> 601 ;
602 [label=<Compactness &le; 0.807<br/>gini = 0.74<br/>samples = 408<br/>value = [75, 157, 107, 4, 22, 15, 28]<br/>class = BARBUNYA>, fillcolor="#f3fbde"] ;
368 -> 602 ;
603 [label=<Area &le; 139319.0<br/>gini = 0.76<br/>samples = 196<br/>value = [30, 41, 76, 3, 20, 6, 20]<br/>class = BOMBAY>, fillcolor="#d2f9d7"] ;
602 -> 603 ;
604 [label=<ShapeFactor2 &le; 0.002<br/>gini = 0.75<br/>samples = 97<br/>value = [9, 6, 41, 3, 16, 6, 16]<br/>class = BOMBAY>, fillcolor="#c2f7c8"] ;
603 -> 604 ;
605 [label=<MajorAxisLength &le; 284.725<br/>gini = 0.678<br/>samples = 69<br/>value = [7, 6, 36, 1, 11, 4, 4]<br/>class = BOMBAY>, fillcolor="#aaf4b2"] ;
604 -> 605 ;
606 [label=<AspectRation &le; 1.722<br/>gini = 0.71<br/>samples = 13<br/>value = [6, 2, 2, 0, 0, 2, 1]<br/>class = SEKER>, fillcolor="#f6d1b7"] ;
605 -> 606 ;
607 [label=<ShapeFactor2 &le; 0.001<br/>gini = 0.72<br/>samples = 5<br/>value = [0, 2, 1, 0, 0, 1, 1]<br/>class = BARBUNYA>, fillcolor="#edf8ce"] ;
606 -> 607 ;
608 [label=<gini = 0.0<br/>samples = 2<br/>value = [0, 2, 0, 0, 0, 0, 0]<br/>class = BARBUNYA>, fillcolor="#b7e539"] ;
607 -> 608 ;
609 [label=<Solidity &le; 0.966<br/>gini = 0.667<br/>samples = 3<br/>value = [0, 0, 1, 0, 0, 1, 1]<br/>class = BOMBAY>, fillcolor="#ffffff"] ;
607 -> 609 ;
610 [label=<gini = 0.0<br/>samples = 1<br/>value = [0, 0, 1, 0, 0, 0, 0]<br/>class = BOMBAY>, fillcolor="#39e54d"] ;
609 -> 610 ;
611 [label=<ShapeFactor1 &le; 0.005<br/>gini = 0.5<br/>samples = 2<br/>value = [0, 0, 0, 0, 0, 1, 1]<br/>class = SIRA>, fillcolor="#ffffff"] ;
609 -> 611 ;
612 [label=<gini = 0.0<br/>samples = 1<br/>value = [0, 0, 0, 0, 0, 1, 0]<br/>class = SIRA>, fillcolor="#b139e5"] ;
611 -> 612 ;
613 [label=<gini = 0.0<br/>samples = 1<br/>value = [0, 0, 0, 0, 0, 0, 1]<br/>class = DERMASON>, fillcolor="#e53986"] ;
611 -> 613 ;
614 [label=<ShapeFactor2 &le; 0.002<br/>gini = 0.406<br/>samples = 8<br/>value = [6, 0, 1, 0, 0, 1, 0]<br/>class = SEKER>, fillcolor="#eca572"] ;
606 -> 614 ;
615 [label=<Perimeter &le; 769.402<br/>gini = 0.245<br/>samples = 7<br/>value = [6, 0, 0, 0, 0, 1, 0]<br/>class = SEKER>, fillcolor="#e9965a"] ;
614 -> 615 ;
616 [label=<gini = 0.0<br/>samples = 1<br/>value = [0, 0, 0, 0, 0, 1, 0]<br/>class = SIRA>, fillcolor="#b139e5"] ;
615 -> 616 ;
617 [label=<gini = 0.0<br/>samples = 6<br/>value = [6, 0, 0, 0, 0, 0, 0]<br/>class = SEKER>, fillcolor="#e58139"] ;
615 -> 617 ;
618 [label=<gini = 0.0<br/>samples = 1<br/>value = [0, 0, 1, 0, 0, 0, 0]<br/>class = BOMBAY>, fillcolor="#39e54d"] ;
614 -> 618 ;
619 [label=<Area &le; 84254.5<br/>gini = 0.583<br/>samples = 56<br/>value = [1, 4, 34, 1, 11, 2, 3]<br/>class = BOMBAY>, fillcolor="#9af2a4"] ;
605 -> 619 ;
620 [label=<Compactness &le; 0.725<br/>gini = 0.706<br/>samples = 31<br/>value = [1, 3, 12, 0, 11, 2, 2]<br/>class = BOMBAY>, fillcolor="#f5fef6"] ;
619 -> 620 ;
621 [label=<MajorAxisLength &le; 544.391<br/>gini = 0.562<br/>samples = 18<br/>value = [0, 0, 4, 0, 11, 2, 1]<br/>class = HOROZ>, fillcolor="#9caaf2"] ;
620 -> 621 ;
622 [label=<ShapeFactor2 &le; 0.002<br/>gini = 0.612<br/>samples = 7<br/>value = [0, 0, 4, 0, 1, 1, 1]<br/>class = BOMBAY>, fillcolor="#9cf2a6"] ;
621 -> 622 ;
623 [label=<gini = 0.0<br/>samples = 4<br/>value = [0, 0, 4, 0, 0, 0, 0]<br/>class = BOMBAY>, fillcolor="#39e54d"] ;
622 -> 623 ;
624 [label=<ShapeFactor4 &le; 0.967<br/>gini = 0.667<br/>samples = 3<br/>value = [0, 0, 0, 0, 1, 1, 1]<br/>class = HOROZ>, fillcolor="#ffffff"] ;
622 -> 624 ;
625 [label=<gini = 0.0<br/>samples = 1<br/>value = [0, 0, 0, 0, 0, 1, 0]<br/>class = SIRA>, fillcolor="#b139e5"] ;
624 -> 625 ;
626 [label=<EquivDiameter &le; 390.281<br/>gini = 0.5<br/>samples = 2<br/>value = [0, 0, 0, 0, 1, 0, 1]<br/>class = HOROZ>, fillcolor="#ffffff"] ;
624 -> 626 ;
627 [label=<gini = 0.0<br/>samples = 1<br/>value = [0, 0, 0, 0, 1, 0, 0]<br/>class = HOROZ>, fillcolor="#3956e5"] ;
626 -> 627 ;
628 [label=<gini = 0.0<br/>samples = 1<br/>value = [0, 0, 0, 0, 0, 0, 1]<br/>class = DERMASON>, fillcolor="#e53986"] ;
626 -> 628 ;
629 [label=<ShapeFactor1 &le; 0.009<br/>gini = 0.165<br/>samples = 11<br/>value = [0, 0, 0, 0, 10, 1, 0]<br/>class = HOROZ>, fillcolor="#4d67e8"] ;
621 -> 629 ;
630 [label=<gini = 0.0<br/>samples = 10<br/>value = [0, 0, 0, 0, 10, 0, 0]<br/>class = HOROZ>, fillcolor="#3956e5"] ;
629 -> 630 ;
631 [label=<gini = 0.0<br/>samples = 1<br/>value = [0, 0, 0, 0, 0, 1, 0]<br/>class = SIRA>, fillcolor="#b139e5"] ;
629 -> 631 ;
632 [label=<ShapeFactor3 &le; 0.69<br/>gini = 0.556<br/>samples = 13<br/>value = [1, 3, 8, 0, 0, 0, 1]<br/>class = BOMBAY>, fillcolor="#9cf2a6"] ;
620 -> 632 ;
633 [label=<gini = 0.0<br/>samples = 7<br/>value = [0, 0, 7, 0, 0, 0, 0]<br/>class = BOMBAY>, fillcolor="#39e54d"] ;
632 -> 633 ;
634 [label=<ShapeFactor2 &le; 0.001<br/>gini = 0.667<br/>samples = 6<br/>value = [1, 3, 1, 0, 0, 0, 1]<br/>class = BARBUNYA>, fillcolor="#e2f5b0"] ;
632 -> 634 ;
635 [label=<gini = 0.0<br/>samples = 3<br/>value = [0, 3, 0, 0, 0, 0, 0]<br/>class = BARBUNYA>, fillcolor="#b7e539"] ;
634 -> 635 ;
636 [label=<Eccentricity &le; 0.658<br/>gini = 0.667<br/>samples = 3<br/>value = [1, 0, 1, 0, 0, 0, 1]<br/>class = SEKER>, fillcolor="#ffffff"] ;
634 -> 636 ;
637 [label=<gini = 0.0<br/>samples = 1<br/>value = [0, 0, 1, 0, 0, 0, 0]<br/>class = BOMBAY>, fillcolor="#39e54d"] ;
636 -> 637 ;
638 [label=<MinorAxisLength &le; 281.252<br/>gini = 0.5<br/>samples = 2<br/>value = [1, 0, 0, 0, 0, 0, 1]<br/>class = SEKER>, fillcolor="#ffffff"] ;
636 -> 638 ;
639 [label=<gini = 0.0<br/>samples = 1<br/>value = [1, 0, 0, 0, 0, 0, 0]<br/>class = SEKER>, fillcolor="#e58139"] ;
638 -> 639 ;
640 [label=<gini = 0.0<br/>samples = 1<br/>value = [0, 0, 0, 0, 0, 0, 1]<br/>class = DERMASON>, fillcolor="#e53986"] ;
638 -> 640 ;
641 [label=<ShapeFactor3 &le; 0.449<br/>gini = 0.221<br/>samples = 25<br/>value = [0, 1, 22, 1, 0, 0, 1]<br/>class = BOMBAY>, fillcolor="#52e863"] ;
619 -> 641 ;
642 [label=<gini = 0.0<br/>samples = 1<br/>value = [0, 0, 0, 0, 0, 0, 1]<br/>class = DERMASON>, fillcolor="#e53986"] ;
641 -> 642 ;
643 [label=<Solidity &le; 0.928<br/>gini = 0.156<br/>samples = 24<br/>value = [0, 1, 22, 1, 0, 0, 0]<br/>class = BOMBAY>, fillcolor="#4ae75c"] ;
641 -> 643 ;
644 [label=<gini = 0.0<br/>samples = 1<br/>value = [0, 1, 0, 0, 0, 0, 0]<br/>class = BARBUNYA>, fillcolor="#b7e539"] ;
643 -> 644 ;
645 [label=<Extent &le; 0.567<br/>gini = 0.083<br/>samples = 23<br/>value = [0, 0, 22, 1, 0, 0, 0]<br/>class = BOMBAY>, fillcolor="#42e655"] ;
643 -> 645 ;
646 [label=<Perimeter &le; 529.224<br/>gini = 0.5<br/>samples = 2<br/>value = [0, 0, 1, 1, 0, 0, 0]<br/>class = BOMBAY>, fillcolor="#ffffff"] ;
645 -> 646 ;
647 [label=<gini = 0.0<br/>samples = 1<br/>value = [0, 0, 1, 0, 0, 0, 0]<br/>class = BOMBAY>, fillcolor="#39e54d"] ;
646 -> 647 ;
648 [label=<gini = 0.0<br/>samples = 1<br/>value = [0, 0, 0, 1, 0, 0, 0]<br/>class = CALI>, fillcolor="#39e5e2"] ;
646 -> 648 ;
649 [label=<gini = 0.0<br/>samples = 21<br/>value = [0, 0, 21, 0, 0, 0, 0]<br/>class = BOMBAY>, fillcolor="#39e54d"] ;
645 -> 649 ;
650 [label=<MinorAxisLength &le; 336.908<br/>gini = 0.737<br/>samples = 28<br/>value = [2, 0, 5, 2, 5, 2, 12]<br/>class = DERMASON>, fillcolor="#f7c3da"] ;
604 -> 650 ;
651 [label=<roundness &le; 0.624<br/>gini = 0.298<br/>samples = 11<br/>value = [0, 0, 0, 2, 0, 0, 9]<br/>class = DERMASON>, fillcolor="#eb65a1"] ;
650 -> 651 ;
652 [label=<Eccentricity &le; 0.694<br/>gini = 0.444<br/>samples = 3<br/>value = [0, 0, 0, 2, 0, 0, 1]<br/>class = CALI>, fillcolor="#9cf2f0"] ;
651 -> 652 ;
653 [label=<gini = 0.0<br/>samples = 2<br/>value = [0, 0, 0, 2, 0, 0, 0]<br/>class = CALI>, fillcolor="#39e5e2"] ;
652 -> 653 ;
654 [label=<gini = 0.0<br/>samples = 1<br/>value = [0, 0, 0, 0, 0, 0, 1]<br/>class = DERMASON>, fillcolor="#e53986"] ;
652 -> 654 ;
655 [label=<gini = 0.0<br/>samples = 8<br/>value = [0, 0, 0, 0, 0, 0, 8]<br/>class = DERMASON>, fillcolor="#e53986"] ;
651 -> 655 ;
656 [label=<ShapeFactor4 &le; 0.968<br/>gini = 0.768<br/>samples = 17<br/>value = [2, 0, 5, 0, 5, 2, 3]<br/>class = BOMBAY>, fillcolor="#ffffff"] ;
650 -> 656 ;
657 [label=<gini = 0.0<br/>samples = 4<br/>value = [0, 0, 0, 0, 4, 0, 0]<br/>class = HOROZ>, fillcolor="#3956e5"] ;
656 -> 657 ;
658 [label=<MinorAxisLength &le; 426.333<br/>gini = 0.746<br/>samples = 13<br/>value = [2, 0, 5, 0, 1, 2, 3]<br/>class = BOMBAY>, fillcolor="#d7fadb"] ;
656 -> 658 ;
659 [label=<ConvexArea &le; 140712.0<br/>gini = 0.66<br/>samples = 10<br/>value = [2, 0, 5, 0, 1, 2, 0]<br/>class = BOMBAY>, fillcolor="#b5f5bc"] ;
658 -> 659 ;
660 [label=<Compactness &le; 0.682<br/>gini = 0.444<br/>samples = 3<br/>value = [0, 0, 0, 0, 1, 2, 0]<br/>class = SIRA>, fillcolor="#d89cf2"] ;
659 -> 660 ;
661 [label=<gini = 0.0<br/>samples = 1<br/>value = [0, 0, 0, 0, 1, 0, 0]<br/>class = HOROZ>, fillcolor="#3956e5"] ;
660 -> 661 ;
662 [label=<gini = 0.0<br/>samples = 2<br/>value = [0, 0, 0, 0, 0, 2, 0]<br/>class = SIRA>, fillcolor="#b139e5"] ;
660 -> 662 ;
663 [label=<ShapeFactor4 &le; 0.992<br/>gini = 0.408<br/>samples = 7<br/>value = [2, 0, 5, 0, 0, 0, 0]<br/>class = BOMBAY>, fillcolor="#88ef94"] ;
659 -> 663 ;
664 [label=<gini = 0.0<br/>samples = 5<br/>value = [0, 0, 5, 0, 0, 0, 0]<br/>class = BOMBAY>, fillcolor="#39e54d"] ;
663 -> 664 ;
665 [label=<gini = 0.0<br/>samples = 2<br/>value = [2, 0, 0, 0, 0, 0, 0]<br/>class = SEKER>, fillcolor="#e58139"] ;
663 -> 665 ;
666 [label=<gini = 0.0<br/>samples = 3<br/>value = [0, 0, 0, 0, 0, 0, 3]<br/>class = DERMASON>, fillcolor="#e53986"] ;
658 -> 666 ;
667 [label=<Perimeter &le; 1688.059<br/>gini = 0.702<br/>samples = 99<br/>value = [21, 35, 35, 0, 4, 0, 4]<br/>class = BARBUNYA>, fillcolor="#ffffff"] ;
603 -> 667 ;
668 [label=<MinorAxisLength &le; 348.954<br/>gini = 0.705<br/>samples = 73<br/>value = [18, 16, 31, 0, 4, 0, 4]<br/>class = BOMBAY>, fillcolor="#d0f9d5"] ;
667 -> 668 ;
669 [label=<ShapeFactor2 &le; 0.001<br/>gini = 0.658<br/>samples = 21<br/>value = [11, 2, 4, 0, 1, 0, 3]<br/>class = SEKER>, fillcolor="#f4cbad"] ;
668 -> 669 ;
670 [label=<ShapeFactor2 &le; 0.001<br/>gini = 0.5<br/>samples = 4<br/>value = [0, 2, 2, 0, 0, 0, 0]<br/>class = BARBUNYA>, fillcolor="#ffffff"] ;
669 -> 670 ;
671 [label=<gini = 0.0<br/>samples = 2<br/>value = [0, 0, 2, 0, 0, 0, 0]<br/>class = BOMBAY>, fillcolor="#39e54d"] ;
670 -> 671 ;
672 [label=<gini = 0.0<br/>samples = 2<br/>value = [0, 2, 0, 0, 0, 0, 0]<br/>class = BARBUNYA>, fillcolor="#b7e539"] ;
670 -> 672 ;
673 [label=<ShapeFactor4 &le; 0.97<br/>gini = 0.533<br/>samples = 17<br/>value = [11, 0, 2, 0, 1, 0, 3]<br/>class = SEKER>, fillcolor="#f0b78e"] ;
669 -> 673 ;
674 [label=<AspectRation &le; 1.716<br/>gini = 0.667<br/>samples = 6<br/>value = [1, 0, 1, 0, 1, 0, 3]<br/>class = DERMASON>, fillcolor="#f5b0cf"] ;
673 -> 674 ;
675 [label=<ShapeFactor3 &le; 0.505<br/>gini = 0.667<br/>samples = 3<br/>value = [1, 0, 1, 0, 1, 0, 0]<br/>class = SEKER>, fillcolor="#ffffff"] ;
674 -> 675 ;
676 [label=<gini = 0.0<br/>samples = 1<br/>value = [0, 0, 1, 0, 0, 0, 0]<br/>class = BOMBAY>, fillcolor="#39e54d"] ;
675 -> 676 ;
677 [label=<Perimeter &le; 1029.005<br/>gini = 0.5<br/>samples = 2<br/>value = [1, 0, 0, 0, 1, 0, 0]<br/>class = SEKER>, fillcolor="#ffffff"] ;
675 -> 677 ;
678 [label=<gini = 0.0<br/>samples = 1<br/>value = [0, 0, 0, 0, 1, 0, 0]<br/>class = HOROZ>, fillcolor="#3956e5"] ;
677 -> 678 ;
679 [label=<gini = 0.0<br/>samples = 1<br/>value = [1, 0, 0, 0, 0, 0, 0]<br/>class = SEKER>, fillcolor="#e58139"] ;
677 -> 679 ;
680 [label=<gini = 0.0<br/>samples = 3<br/>value = [0, 0, 0, 0, 0, 0, 3]<br/>class = DERMASON>, fillcolor="#e53986"] ;
674 -> 680 ;
681 [label=<Compactness &le; 0.785<br/>gini = 0.165<br/>samples = 11<br/>value = [10, 0, 1, 0, 0, 0, 0]<br/>class = SEKER>, fillcolor="#e88e4d"] ;
673 -> 681 ;
682 [label=<gini = 0.0<br/>samples = 10<br/>value = [10, 0, 0, 0, 0, 0, 0]<br/>class = SEKER>, fillcolor="#e58139"] ;
681 -> 682 ;
683 [label=<gini = 0.0<br/>samples = 1<br/>value = [0, 0, 1, 0, 0, 0, 0]<br/>class = BOMBAY>, fillcolor="#39e54d"] ;
681 -> 683 ;
684 [label=<ShapeFactor2 &le; 0.001<br/>gini = 0.636<br/>samples = 52<br/>value = [7, 14, 27, 0, 3, 0, 1]<br/>class = BOMBAY>, fillcolor="#bbf6c2"] ;
668 -> 684 ;
685 [label=<Perimeter &le; 801.013<br/>gini = 0.397<br/>samples = 11<br/>value = [0, 8, 3, 0, 0, 0, 0]<br/>class = BARBUNYA>, fillcolor="#d2ef83"] ;
684 -> 685 ;
686 [label=<gini = 0.0<br/>samples = 3<br/>value = [0, 0, 3, 0, 0, 0, 0]<br/>class = BOMBAY>, fillcolor="#39e54d"] ;
685 -> 686 ;
687 [label=<gini = 0.0<br/>samples = 8<br/>value = [0, 8, 0, 0, 0, 0, 0]<br/>class = BARBUNYA>, fillcolor="#b7e539"] ;
685 -> 687 ;
688 [label=<roundness &le; 0.652<br/>gini = 0.601<br/>samples = 41<br/>value = [7, 6, 24, 0, 3, 0, 1]<br/>class = BOMBAY>, fillcolor="#9cf2a6"] ;
684 -> 688 ;
